
net {
  name = unnamedBN;
  software = "aGrUM 1.5.1";
  node_size = (50 50);
}

node Socio_economic_status {
   states = (poorest poorer middle richer richest );
   label = "Socio_economic_status";
   ID = "Socio_economic_status";
}

node HH_crowding {
   states = (btw0a2 greatereq3 );
   label = "HH_crowding";
   ID = "HH_crowding";
}

node Exclusive_breastfeeding {
   states = (no yes );
   label = "Exclusive_breastfeeding";
   ID = "Exclusive_breastfeeding";
}

node Maternal_education {
   states = (none primary secondary higher );
   label = "Maternal_education";
   ID = "Maternal_education";
}

node Maternal_employment {
   states = (unemployed agriculture other );
   label = "Maternal_employment";
   ID = "Maternal_employment";
}

node Preterm_birth {
   states = (no yes );
   label = "Preterm_birth";
   ID = "Preterm_birth";
}

node ANC {
   states = (none btw1a3 great4 );
   label = "ANC";
   ID = "ANC";
}

node Maternal_age {
   states = (younger17 btw17and19 older19 );
   label = "Maternal_age";
   ID = "Maternal_age";
}

node Stunting {
   states = (no yes );
   label = "Stunting";
   ID = "Stunting";
}

node Sex {
   states = (male female );
   label = "Sex";
   ID = "Sex";
}

node Cooking_fuel {
   states = (other biomass );
   label = "Cooking_fuel";
   ID = "Cooking_fuel";
}

node Pollution_birth {
   states = (minor moderate high extreme );
   label = "Pollution_birth";
   ID = "Pollution_birth";
}

node Water_source {
   states = (protected unprotected other );
   label = "Water_source";
   ID = "Water_source";
}

node Toilet_access {
   states = (no yes );
   label = "Toilet_access";
   ID = "Toilet_access";
}

node Animal_ownership {
   states = (no yes );
   label = "Animal_ownership";
   ID = "Animal_ownership";
}

node Deworming {
   states = (no yes );
   label = "Deworming";
   ID = "Deworming";
}

node Food_diversity {
   states = (insufficient sufficient );
   label = "Food_diversity";
   ID = "Food_diversity";
}

potential (Socio_economic_status) {
   data = (  0.244901 0.219886 0.206256 0.170011 0.158947);
}

potential (HH_crowding) {
   data = (  0.556834 0.443166);
}

potential ( Exclusive_breastfeeding | ANC   Maternal_employment   Maternal_education   ) {
   data = 
   ((((   0.147458   0.852542)   % Maternal_education=none   Maternal_employment=unemployed   ANC=none   
   (   0.441409   0.558591)   % Maternal_education=primary   Maternal_employment=unemployed   ANC=none   
   (   0.254308   0.745692)   % Maternal_education=secondary   Maternal_employment=unemployed   ANC=none   
   (   0.454189   0.545811))   % Maternal_education=higher   Maternal_employment=unemployed   ANC=none   
   ((   0.0912586   0.908741)   % Maternal_education=none   Maternal_employment=agriculture   ANC=none   
   (   0.122341   0.877659)   % Maternal_education=primary   Maternal_employment=agriculture   ANC=none   
   (   0.645646   0.354354)   % Maternal_education=secondary   Maternal_employment=agriculture   ANC=none   
   (   0.5   0.5))   % Maternal_education=higher   Maternal_employment=agriculture   ANC=none   
   ((   0.0602761   0.939724)   % Maternal_education=none   Maternal_employment=other   ANC=none   
   (   0.275306   0.724694)   % Maternal_education=primary   Maternal_employment=other   ANC=none   
   (   0.505151   0.494849)   % Maternal_education=secondary   Maternal_employment=other   ANC=none   
   (   0.384313   0.615687)))   % Maternal_education=higher   Maternal_employment=other   ANC=none   
   (((   0.0426847   0.957315)   % Maternal_education=none   Maternal_employment=unemployed   ANC=btw1a3   
   (   0.0278507   0.972149)   % Maternal_education=primary   Maternal_employment=unemployed   ANC=btw1a3   
   (   0.0178601   0.98214)   % Maternal_education=secondary   Maternal_employment=unemployed   ANC=btw1a3   
   (   0.0628312   0.937169))   % Maternal_education=higher   Maternal_employment=unemployed   ANC=btw1a3   
   ((   0.0257843   0.974216)   % Maternal_education=none   Maternal_employment=agriculture   ANC=btw1a3   
   (   0.0287358   0.971264)   % Maternal_education=primary   Maternal_employment=agriculture   ANC=btw1a3   
   (   0.0326073   0.967393)   % Maternal_education=secondary   Maternal_employment=agriculture   ANC=btw1a3   
   (   0.5   0.5))   % Maternal_education=higher   Maternal_employment=agriculture   ANC=btw1a3   
   ((   0.0226771   0.977323)   % Maternal_education=none   Maternal_employment=other   ANC=btw1a3   
   (   0.0238544   0.976146)   % Maternal_education=primary   Maternal_employment=other   ANC=btw1a3   
   (   0.0442156   0.955784)   % Maternal_education=secondary   Maternal_employment=other   ANC=btw1a3   
   (   0.0532358   0.946764)))   % Maternal_education=higher   Maternal_employment=other   ANC=btw1a3   
   (((   0.0210405   0.978959)   % Maternal_education=none   Maternal_employment=unemployed   ANC=great4   
   (   0.0258078   0.974192)   % Maternal_education=primary   Maternal_employment=unemployed   ANC=great4   
   (   0.0114164   0.988584)   % Maternal_education=secondary   Maternal_employment=unemployed   ANC=great4   
   (   0.0160403   0.98396))   % Maternal_education=higher   Maternal_employment=unemployed   ANC=great4   
   ((   0.0164642   0.983536)   % Maternal_education=none   Maternal_employment=agriculture   ANC=great4   
   (   0.0599394   0.940061)   % Maternal_education=primary   Maternal_employment=agriculture   ANC=great4   
   (   0.029462   0.970538)   % Maternal_education=secondary   Maternal_employment=agriculture   ANC=great4   
   (   0.5   0.5))   % Maternal_education=higher   Maternal_employment=agriculture   ANC=great4   
   ((   0.0231195   0.976881)   % Maternal_education=none   Maternal_employment=other   ANC=great4   
   (   0.00401356   0.995986)   % Maternal_education=primary   Maternal_employment=other   ANC=great4   
   (   0.0187211   0.981279)   % Maternal_education=secondary   Maternal_employment=other   ANC=great4   
   (   0.0066433   0.993357))));   % Maternal_education=higher   Maternal_employment=other   ANC=great4   
}

potential ( Maternal_education | Socio_economic_status   ) {
   data = 
   ((   0.819862   0.131273   0.0468324   0.00203279)   % Socio_economic_status=poorest   
   (   0.741713   0.162828   0.0926612   0.00279759)   % Socio_economic_status=poorer   
   (   0.632422   0.232095   0.130431   0.00505166)   % Socio_economic_status=middle   
   (   0.47144   0.325494   0.177437   0.0256282)   % Socio_economic_status=richer   
   (   0.262854   0.335539   0.295749   0.105858));   % Socio_economic_status=richest   
}

potential (Maternal_employment) {
   data = (  0.39167 0.22359 0.38474);
}

potential ( Preterm_birth | ANC   Maternal_age   ) {
   data = 
   (((   0.952859   0.0471414)   % Maternal_age=younger17   ANC=none   
   (   0.941635   0.0583651)   % Maternal_age=btw17and19   ANC=none   
   (   0.907505   0.0924953))   % Maternal_age=older19   ANC=none   
   ((   0.985042   0.0149578)   % Maternal_age=younger17   ANC=btw1a3   
   (   0.985251   0.0147486)   % Maternal_age=btw17and19   ANC=btw1a3   
   (   0.984345   0.0156547))   % Maternal_age=older19   ANC=btw1a3   
   ((   0.989336   0.0106642)   % Maternal_age=younger17   ANC=great4   
   (   0.987329   0.0126708)   % Maternal_age=btw17and19   ANC=great4   
   (   0.987177   0.0128231)));   % Maternal_age=older19   ANC=great4   
}

potential (ANC) {
   data = (  0.0210578 0.399664 0.579278);
}

potential (Maternal_age) {
   data = (  0.163896 0.329025 0.507079);
}

potential ( Stunting | Sex   Preterm_birth   Pollution_birth   Toilet_access   Deworming   Cooking_fuel   Exclusive_breastfeeding   Water_source   Animal_ownership   Food_diversity   ) {
   data = 
   (((((((((((   0.798   0.202)   % Food_diversity=insufficient   Animal_ownership=no   Water_source=protected   Exclusive_breastfeeding=no   Cooking_fuel=other   Deworming=no   Toilet_access=no   Pollution_birth=minor   Preterm_birth=no   Sex=male   
   (   0.826   0.174))   % Food_diversity=sufficient   Animal_ownership=no   Water_source=protected   Exclusive_breastfeeding=no   Cooking_fuel=other   Deworming=no   Toilet_access=no   Pollution_birth=minor   Preterm_birth=no   Sex=male   
   ((   0.735   0.265)   % Food_diversity=insufficient   Animal_ownership=yes   Water_source=protected   Exclusive_breastfeeding=no   Cooking_fuel=other   Deworming=no   Toilet_access=no   Pollution_birth=minor   Preterm_birth=no   Sex=male   
   (   0.768   0.232)))   % Food_diversity=sufficient   Animal_ownership=yes   Water_source=protected   Exclusive_breastfeeding=no   Cooking_fuel=other   Deworming=no   Toilet_access=no   Pollution_birth=minor   Preterm_birth=no   Sex=male   
   (((   0.707   0.293)   % Food_diversity=insufficient   Animal_ownership=no   Water_source=unprotected   Exclusive_breastfeeding=no   Cooking_fuel=other   Deworming=no   Toilet_access=no   Pollution_birth=minor   Preterm_birth=no   Sex=male   
   (   0.748   0.252))   % Food_diversity=sufficient   Animal_ownership=no   Water_source=unprotected   Exclusive_breastfeeding=no   Cooking_fuel=other   Deworming=no   Toilet_access=no   Pollution_birth=minor   Preterm_birth=no   Sex=male   
   ((   0.634   0.366)   % Food_diversity=insufficient   Animal_ownership=yes   Water_source=unprotected   Exclusive_breastfeeding=no   Cooking_fuel=other   Deworming=no   Toilet_access=no   Pollution_birth=minor   Preterm_birth=no   Sex=male   
   (   0.664   0.336)))   % Food_diversity=sufficient   Animal_ownership=yes   Water_source=unprotected   Exclusive_breastfeeding=no   Cooking_fuel=other   Deworming=no   Toilet_access=no   Pollution_birth=minor   Preterm_birth=no   Sex=male   
   (((   0.759   0.241)   % Food_diversity=insufficient   Animal_ownership=no   Water_source=other   Exclusive_breastfeeding=no   Cooking_fuel=other   Deworming=no   Toilet_access=no   Pollution_birth=minor   Preterm_birth=no   Sex=male   
   (   0.783   0.217))   % Food_diversity=sufficient   Animal_ownership=no   Water_source=other   Exclusive_breastfeeding=no   Cooking_fuel=other   Deworming=no   Toilet_access=no   Pollution_birth=minor   Preterm_birth=no   Sex=male   
   ((   0.692   0.308)   % Food_diversity=insufficient   Animal_ownership=yes   Water_source=other   Exclusive_breastfeeding=no   Cooking_fuel=other   Deworming=no   Toilet_access=no   Pollution_birth=minor   Preterm_birth=no   Sex=male   
   (   0.72   0.28))))   % Food_diversity=sufficient   Animal_ownership=yes   Water_source=other   Exclusive_breastfeeding=no   Cooking_fuel=other   Deworming=no   Toilet_access=no   Pollution_birth=minor   Preterm_birth=no   Sex=male   
   ((((   0.826   0.174)   % Food_diversity=insufficient   Animal_ownership=no   Water_source=protected   Exclusive_breastfeeding=yes   Cooking_fuel=other   Deworming=no   Toilet_access=no   Pollution_birth=minor   Preterm_birth=no   Sex=male   
   (   0.865   0.135))   % Food_diversity=sufficient   Animal_ownership=no   Water_source=protected   Exclusive_breastfeeding=yes   Cooking_fuel=other   Deworming=no   Toilet_access=no   Pollution_birth=minor   Preterm_birth=no   Sex=male   
   ((   0.772   0.228)   % Food_diversity=insufficient   Animal_ownership=yes   Water_source=protected   Exclusive_breastfeeding=yes   Cooking_fuel=other   Deworming=no   Toilet_access=no   Pollution_birth=minor   Preterm_birth=no   Sex=male   
   (   0.808   0.192)))   % Food_diversity=sufficient   Animal_ownership=yes   Water_source=protected   Exclusive_breastfeeding=yes   Cooking_fuel=other   Deworming=no   Toilet_access=no   Pollution_birth=minor   Preterm_birth=no   Sex=male   
   (((   0.771   0.229)   % Food_diversity=insufficient   Animal_ownership=no   Water_source=unprotected   Exclusive_breastfeeding=yes   Cooking_fuel=other   Deworming=no   Toilet_access=no   Pollution_birth=minor   Preterm_birth=no   Sex=male   
   (   0.79   0.21))   % Food_diversity=sufficient   Animal_ownership=no   Water_source=unprotected   Exclusive_breastfeeding=yes   Cooking_fuel=other   Deworming=no   Toilet_access=no   Pollution_birth=minor   Preterm_birth=no   Sex=male   
   ((   0.688   0.312)   % Food_diversity=insufficient   Animal_ownership=yes   Water_source=unprotected   Exclusive_breastfeeding=yes   Cooking_fuel=other   Deworming=no   Toilet_access=no   Pollution_birth=minor   Preterm_birth=no   Sex=male   
   (   0.716   0.284)))   % Food_diversity=sufficient   Animal_ownership=yes   Water_source=unprotected   Exclusive_breastfeeding=yes   Cooking_fuel=other   Deworming=no   Toilet_access=no   Pollution_birth=minor   Preterm_birth=no   Sex=male   
   (((   0.805   0.195)   % Food_diversity=insufficient   Animal_ownership=no   Water_source=other   Exclusive_breastfeeding=yes   Cooking_fuel=other   Deworming=no   Toilet_access=no   Pollution_birth=minor   Preterm_birth=no   Sex=male   
   (   0.827   0.173))   % Food_diversity=sufficient   Animal_ownership=no   Water_source=other   Exclusive_breastfeeding=yes   Cooking_fuel=other   Deworming=no   Toilet_access=no   Pollution_birth=minor   Preterm_birth=no   Sex=male   
   ((   0.734   0.266)   % Food_diversity=insufficient   Animal_ownership=yes   Water_source=other   Exclusive_breastfeeding=yes   Cooking_fuel=other   Deworming=no   Toilet_access=no   Pollution_birth=minor   Preterm_birth=no   Sex=male   
   (   0.764   0.236)))))   % Food_diversity=sufficient   Animal_ownership=yes   Water_source=other   Exclusive_breastfeeding=yes   Cooking_fuel=other   Deworming=no   Toilet_access=no   Pollution_birth=minor   Preterm_birth=no   Sex=male   
   (((((   0.857   0.143)   % Food_diversity=insufficient   Animal_ownership=no   Water_source=protected   Exclusive_breastfeeding=no   Cooking_fuel=biomass   Deworming=no   Toilet_access=no   Pollution_birth=minor   Preterm_birth=no   Sex=male   
   (   0.872   0.128))   % Food_diversity=sufficient   Animal_ownership=no   Water_source=protected   Exclusive_breastfeeding=no   Cooking_fuel=biomass   Deworming=no   Toilet_access=no   Pollution_birth=minor   Preterm_birth=no   Sex=male   
   ((   0.808   0.192)   % Food_diversity=insufficient   Animal_ownership=yes   Water_source=protected   Exclusive_breastfeeding=no   Cooking_fuel=biomass   Deworming=no   Toilet_access=no   Pollution_birth=minor   Preterm_birth=no   Sex=male   
   (   0.833   0.167)))   % Food_diversity=sufficient   Animal_ownership=yes   Water_source=protected   Exclusive_breastfeeding=no   Cooking_fuel=biomass   Deworming=no   Toilet_access=no   Pollution_birth=minor   Preterm_birth=no   Sex=male   
   (((   0.788   0.212)   % Food_diversity=insufficient   Animal_ownership=no   Water_source=unprotected   Exclusive_breastfeeding=no   Cooking_fuel=biomass   Deworming=no   Toilet_access=no   Pollution_birth=minor   Preterm_birth=no   Sex=male   
   (   0.811   0.189))   % Food_diversity=sufficient   Animal_ownership=no   Water_source=unprotected   Exclusive_breastfeeding=no   Cooking_fuel=biomass   Deworming=no   Toilet_access=no   Pollution_birth=minor   Preterm_birth=no   Sex=male   
   ((   0.722   0.278)   % Food_diversity=insufficient   Animal_ownership=yes   Water_source=unprotected   Exclusive_breastfeeding=no   Cooking_fuel=biomass   Deworming=no   Toilet_access=no   Pollution_birth=minor   Preterm_birth=no   Sex=male   
   (   0.762   0.238)))   % Food_diversity=sufficient   Animal_ownership=yes   Water_source=unprotected   Exclusive_breastfeeding=no   Cooking_fuel=biomass   Deworming=no   Toilet_access=no   Pollution_birth=minor   Preterm_birth=no   Sex=male   
   (((   0.828   0.172)   % Food_diversity=insufficient   Animal_ownership=no   Water_source=other   Exclusive_breastfeeding=no   Cooking_fuel=biomass   Deworming=no   Toilet_access=no   Pollution_birth=minor   Preterm_birth=no   Sex=male   
   (   0.854   0.146))   % Food_diversity=sufficient   Animal_ownership=no   Water_source=other   Exclusive_breastfeeding=no   Cooking_fuel=biomass   Deworming=no   Toilet_access=no   Pollution_birth=minor   Preterm_birth=no   Sex=male   
   ((   0.764   0.236)   % Food_diversity=insufficient   Animal_ownership=yes   Water_source=other   Exclusive_breastfeeding=no   Cooking_fuel=biomass   Deworming=no   Toilet_access=no   Pollution_birth=minor   Preterm_birth=no   Sex=male   
   (   0.802   0.198))))   % Food_diversity=sufficient   Animal_ownership=yes   Water_source=other   Exclusive_breastfeeding=no   Cooking_fuel=biomass   Deworming=no   Toilet_access=no   Pollution_birth=minor   Preterm_birth=no   Sex=male   
   ((((   0.89   0.11)   % Food_diversity=insufficient   Animal_ownership=no   Water_source=protected   Exclusive_breastfeeding=yes   Cooking_fuel=biomass   Deworming=no   Toilet_access=no   Pollution_birth=minor   Preterm_birth=no   Sex=male   
   (   0.912   0.088))   % Food_diversity=sufficient   Animal_ownership=no   Water_source=protected   Exclusive_breastfeeding=yes   Cooking_fuel=biomass   Deworming=no   Toilet_access=no   Pollution_birth=minor   Preterm_birth=no   Sex=male   
   ((   0.85   0.15)   % Food_diversity=insufficient   Animal_ownership=yes   Water_source=protected   Exclusive_breastfeeding=yes   Cooking_fuel=biomass   Deworming=no   Toilet_access=no   Pollution_birth=minor   Preterm_birth=no   Sex=male   
   (   0.861   0.139)))   % Food_diversity=sufficient   Animal_ownership=yes   Water_source=protected   Exclusive_breastfeeding=yes   Cooking_fuel=biomass   Deworming=no   Toilet_access=no   Pollution_birth=minor   Preterm_birth=no   Sex=male   
   (((   0.827   0.173)   % Food_diversity=insufficient   Animal_ownership=no   Water_source=unprotected   Exclusive_breastfeeding=yes   Cooking_fuel=biomass   Deworming=no   Toilet_access=no   Pollution_birth=minor   Preterm_birth=no   Sex=male   
   (   0.839   0.161))   % Food_diversity=sufficient   Animal_ownership=no   Water_source=unprotected   Exclusive_breastfeeding=yes   Cooking_fuel=biomass   Deworming=no   Toilet_access=no   Pollution_birth=minor   Preterm_birth=no   Sex=male   
   ((   0.767   0.233)   % Food_diversity=insufficient   Animal_ownership=yes   Water_source=unprotected   Exclusive_breastfeeding=yes   Cooking_fuel=biomass   Deworming=no   Toilet_access=no   Pollution_birth=minor   Preterm_birth=no   Sex=male   
   (   0.794   0.206)))   % Food_diversity=sufficient   Animal_ownership=yes   Water_source=unprotected   Exclusive_breastfeeding=yes   Cooking_fuel=biomass   Deworming=no   Toilet_access=no   Pollution_birth=minor   Preterm_birth=no   Sex=male   
   (((   0.866   0.134)   % Food_diversity=insufficient   Animal_ownership=no   Water_source=other   Exclusive_breastfeeding=yes   Cooking_fuel=biomass   Deworming=no   Toilet_access=no   Pollution_birth=minor   Preterm_birth=no   Sex=male   
   (   0.874   0.126))   % Food_diversity=sufficient   Animal_ownership=no   Water_source=other   Exclusive_breastfeeding=yes   Cooking_fuel=biomass   Deworming=no   Toilet_access=no   Pollution_birth=minor   Preterm_birth=no   Sex=male   
   ((   0.812   0.188)   % Food_diversity=insufficient   Animal_ownership=yes   Water_source=other   Exclusive_breastfeeding=yes   Cooking_fuel=biomass   Deworming=no   Toilet_access=no   Pollution_birth=minor   Preterm_birth=no   Sex=male   
   (   0.834   0.166))))))   % Food_diversity=sufficient   Animal_ownership=yes   Water_source=other   Exclusive_breastfeeding=yes   Cooking_fuel=biomass   Deworming=no   Toilet_access=no   Pollution_birth=minor   Preterm_birth=no   Sex=male   
   ((((((   0.774   0.226)   % Food_diversity=insufficient   Animal_ownership=no   Water_source=protected   Exclusive_breastfeeding=no   Cooking_fuel=other   Deworming=yes   Toilet_access=no   Pollution_birth=minor   Preterm_birth=no   Sex=male   
   (   0.796   0.204))   % Food_diversity=sufficient   Animal_ownership=no   Water_source=protected   Exclusive_breastfeeding=no   Cooking_fuel=other   Deworming=yes   Toilet_access=no   Pollution_birth=minor   Preterm_birth=no   Sex=male   
   ((   0.71   0.29)   % Food_diversity=insufficient   Animal_ownership=yes   Water_source=protected   Exclusive_breastfeeding=no   Cooking_fuel=other   Deworming=yes   Toilet_access=no   Pollution_birth=minor   Preterm_birth=no   Sex=male   
   (   0.748   0.252)))   % Food_diversity=sufficient   Animal_ownership=yes   Water_source=protected   Exclusive_breastfeeding=no   Cooking_fuel=other   Deworming=yes   Toilet_access=no   Pollution_birth=minor   Preterm_birth=no   Sex=male   
   (((   0.687   0.313)   % Food_diversity=insufficient   Animal_ownership=no   Water_source=unprotected   Exclusive_breastfeeding=no   Cooking_fuel=other   Deworming=yes   Toilet_access=no   Pollution_birth=minor   Preterm_birth=no   Sex=male   
   (   0.721   0.279))   % Food_diversity=sufficient   Animal_ownership=no   Water_source=unprotected   Exclusive_breastfeeding=no   Cooking_fuel=other   Deworming=yes   Toilet_access=no   Pollution_birth=minor   Preterm_birth=no   Sex=male   
   ((   0.587   0.413)   % Food_diversity=insufficient   Animal_ownership=yes   Water_source=unprotected   Exclusive_breastfeeding=no   Cooking_fuel=other   Deworming=yes   Toilet_access=no   Pollution_birth=minor   Preterm_birth=no   Sex=male   
   (   0.632   0.368)))   % Food_diversity=sufficient   Animal_ownership=yes   Water_source=unprotected   Exclusive_breastfeeding=no   Cooking_fuel=other   Deworming=yes   Toilet_access=no   Pollution_birth=minor   Preterm_birth=no   Sex=male   
   (((   0.74   0.26)   % Food_diversity=insufficient   Animal_ownership=no   Water_source=other   Exclusive_breastfeeding=no   Cooking_fuel=other   Deworming=yes   Toilet_access=no   Pollution_birth=minor   Preterm_birth=no   Sex=male   
   (   0.774   0.226))   % Food_diversity=sufficient   Animal_ownership=no   Water_source=other   Exclusive_breastfeeding=no   Cooking_fuel=other   Deworming=yes   Toilet_access=no   Pollution_birth=minor   Preterm_birth=no   Sex=male   
   ((   0.668   0.332)   % Food_diversity=insufficient   Animal_ownership=yes   Water_source=other   Exclusive_breastfeeding=no   Cooking_fuel=other   Deworming=yes   Toilet_access=no   Pollution_birth=minor   Preterm_birth=no   Sex=male   
   (   0.696   0.304))))   % Food_diversity=sufficient   Animal_ownership=yes   Water_source=other   Exclusive_breastfeeding=no   Cooking_fuel=other   Deworming=yes   Toilet_access=no   Pollution_birth=minor   Preterm_birth=no   Sex=male   
   ((((   0.81   0.19)   % Food_diversity=insufficient   Animal_ownership=no   Water_source=protected   Exclusive_breastfeeding=yes   Cooking_fuel=other   Deworming=yes   Toilet_access=no   Pollution_birth=minor   Preterm_birth=no   Sex=male   
   (   0.84   0.16))   % Food_diversity=sufficient   Animal_ownership=no   Water_source=protected   Exclusive_breastfeeding=yes   Cooking_fuel=other   Deworming=yes   Toilet_access=no   Pollution_birth=minor   Preterm_birth=no   Sex=male   
   ((   0.754   0.246)   % Food_diversity=insufficient   Animal_ownership=yes   Water_source=protected   Exclusive_breastfeeding=yes   Cooking_fuel=other   Deworming=yes   Toilet_access=no   Pollution_birth=minor   Preterm_birth=no   Sex=male   
   (   0.787   0.213)))   % Food_diversity=sufficient   Animal_ownership=yes   Water_source=protected   Exclusive_breastfeeding=yes   Cooking_fuel=other   Deworming=yes   Toilet_access=no   Pollution_birth=minor   Preterm_birth=no   Sex=male   
   (((   0.731   0.269)   % Food_diversity=insufficient   Animal_ownership=no   Water_source=unprotected   Exclusive_breastfeeding=yes   Cooking_fuel=other   Deworming=yes   Toilet_access=no   Pollution_birth=minor   Preterm_birth=no   Sex=male   
   (   0.766   0.234))   % Food_diversity=sufficient   Animal_ownership=no   Water_source=unprotected   Exclusive_breastfeeding=yes   Cooking_fuel=other   Deworming=yes   Toilet_access=no   Pollution_birth=minor   Preterm_birth=no   Sex=male   
   ((   0.646   0.354)   % Food_diversity=insufficient   Animal_ownership=yes   Water_source=unprotected   Exclusive_breastfeeding=yes   Cooking_fuel=other   Deworming=yes   Toilet_access=no   Pollution_birth=minor   Preterm_birth=no   Sex=male   
   (   0.693   0.307)))   % Food_diversity=sufficient   Animal_ownership=yes   Water_source=unprotected   Exclusive_breastfeeding=yes   Cooking_fuel=other   Deworming=yes   Toilet_access=no   Pollution_birth=minor   Preterm_birth=no   Sex=male   
   (((   0.768   0.232)   % Food_diversity=insufficient   Animal_ownership=no   Water_source=other   Exclusive_breastfeeding=yes   Cooking_fuel=other   Deworming=yes   Toilet_access=no   Pollution_birth=minor   Preterm_birth=no   Sex=male   
   (   0.808   0.192))   % Food_diversity=sufficient   Animal_ownership=no   Water_source=other   Exclusive_breastfeeding=yes   Cooking_fuel=other   Deworming=yes   Toilet_access=no   Pollution_birth=minor   Preterm_birth=no   Sex=male   
   ((   0.7   0.3)   % Food_diversity=insufficient   Animal_ownership=yes   Water_source=other   Exclusive_breastfeeding=yes   Cooking_fuel=other   Deworming=yes   Toilet_access=no   Pollution_birth=minor   Preterm_birth=no   Sex=male   
   (   0.742   0.258)))))   % Food_diversity=sufficient   Animal_ownership=yes   Water_source=other   Exclusive_breastfeeding=yes   Cooking_fuel=other   Deworming=yes   Toilet_access=no   Pollution_birth=minor   Preterm_birth=no   Sex=male   
   (((((   0.845   0.155)   % Food_diversity=insufficient   Animal_ownership=no   Water_source=protected   Exclusive_breastfeeding=no   Cooking_fuel=biomass   Deworming=yes   Toilet_access=no   Pollution_birth=minor   Preterm_birth=no   Sex=male   
   (   0.859   0.141))   % Food_diversity=sufficient   Animal_ownership=no   Water_source=protected   Exclusive_breastfeeding=no   Cooking_fuel=biomass   Deworming=yes   Toilet_access=no   Pollution_birth=minor   Preterm_birth=no   Sex=male   
   ((   0.788   0.212)   % Food_diversity=insufficient   Animal_ownership=yes   Water_source=protected   Exclusive_breastfeeding=no   Cooking_fuel=biomass   Deworming=yes   Toilet_access=no   Pollution_birth=minor   Preterm_birth=no   Sex=male   
   (   0.807   0.193)))   % Food_diversity=sufficient   Animal_ownership=yes   Water_source=protected   Exclusive_breastfeeding=no   Cooking_fuel=biomass   Deworming=yes   Toilet_access=no   Pollution_birth=minor   Preterm_birth=no   Sex=male   
   (((   0.782   0.218)   % Food_diversity=insufficient   Animal_ownership=no   Water_source=unprotected   Exclusive_breastfeeding=no   Cooking_fuel=biomass   Deworming=yes   Toilet_access=no   Pollution_birth=minor   Preterm_birth=no   Sex=male   
   (   0.806   0.194))   % Food_diversity=sufficient   Animal_ownership=no   Water_source=unprotected   Exclusive_breastfeeding=no   Cooking_fuel=biomass   Deworming=yes   Toilet_access=no   Pollution_birth=minor   Preterm_birth=no   Sex=male   
   ((   0.705   0.295)   % Food_diversity=insufficient   Animal_ownership=yes   Water_source=unprotected   Exclusive_breastfeeding=no   Cooking_fuel=biomass   Deworming=yes   Toilet_access=no   Pollution_birth=minor   Preterm_birth=no   Sex=male   
   (   0.736   0.264)))   % Food_diversity=sufficient   Animal_ownership=yes   Water_source=unprotected   Exclusive_breastfeeding=no   Cooking_fuel=biomass   Deworming=yes   Toilet_access=no   Pollution_birth=minor   Preterm_birth=no   Sex=male   
   (((   0.81   0.19)   % Food_diversity=insufficient   Animal_ownership=no   Water_source=other   Exclusive_breastfeeding=no   Cooking_fuel=biomass   Deworming=yes   Toilet_access=no   Pollution_birth=minor   Preterm_birth=no   Sex=male   
   (   0.829   0.171))   % Food_diversity=sufficient   Animal_ownership=no   Water_source=other   Exclusive_breastfeeding=no   Cooking_fuel=biomass   Deworming=yes   Toilet_access=no   Pollution_birth=minor   Preterm_birth=no   Sex=male   
   ((   0.756   0.244)   % Food_diversity=insufficient   Animal_ownership=yes   Water_source=other   Exclusive_breastfeeding=no   Cooking_fuel=biomass   Deworming=yes   Toilet_access=no   Pollution_birth=minor   Preterm_birth=no   Sex=male   
   (   0.774   0.226))))   % Food_diversity=sufficient   Animal_ownership=yes   Water_source=other   Exclusive_breastfeeding=no   Cooking_fuel=biomass   Deworming=yes   Toilet_access=no   Pollution_birth=minor   Preterm_birth=no   Sex=male   
   ((((   0.87   0.13)   % Food_diversity=insufficient   Animal_ownership=no   Water_source=protected   Exclusive_breastfeeding=yes   Cooking_fuel=biomass   Deworming=yes   Toilet_access=no   Pollution_birth=minor   Preterm_birth=no   Sex=male   
   (   0.902   0.098))   % Food_diversity=sufficient   Animal_ownership=no   Water_source=protected   Exclusive_breastfeeding=yes   Cooking_fuel=biomass   Deworming=yes   Toilet_access=no   Pollution_birth=minor   Preterm_birth=no   Sex=male   
   ((   0.825   0.175)   % Food_diversity=insufficient   Animal_ownership=yes   Water_source=protected   Exclusive_breastfeeding=yes   Cooking_fuel=biomass   Deworming=yes   Toilet_access=no   Pollution_birth=minor   Preterm_birth=no   Sex=male   
   (   0.853   0.147)))   % Food_diversity=sufficient   Animal_ownership=yes   Water_source=protected   Exclusive_breastfeeding=yes   Cooking_fuel=biomass   Deworming=yes   Toilet_access=no   Pollution_birth=minor   Preterm_birth=no   Sex=male   
   (((   0.8   0.2)   % Food_diversity=insufficient   Animal_ownership=no   Water_source=unprotected   Exclusive_breastfeeding=yes   Cooking_fuel=biomass   Deworming=yes   Toilet_access=no   Pollution_birth=minor   Preterm_birth=no   Sex=male   
   (   0.836   0.164))   % Food_diversity=sufficient   Animal_ownership=no   Water_source=unprotected   Exclusive_breastfeeding=yes   Cooking_fuel=biomass   Deworming=yes   Toilet_access=no   Pollution_birth=minor   Preterm_birth=no   Sex=male   
   ((   0.732   0.268)   % Food_diversity=insufficient   Animal_ownership=yes   Water_source=unprotected   Exclusive_breastfeeding=yes   Cooking_fuel=biomass   Deworming=yes   Toilet_access=no   Pollution_birth=minor   Preterm_birth=no   Sex=male   
   (   0.767   0.233)))   % Food_diversity=sufficient   Animal_ownership=yes   Water_source=unprotected   Exclusive_breastfeeding=yes   Cooking_fuel=biomass   Deworming=yes   Toilet_access=no   Pollution_birth=minor   Preterm_birth=no   Sex=male   
   (((   0.849   0.151)   % Food_diversity=insufficient   Animal_ownership=no   Water_source=other   Exclusive_breastfeeding=yes   Cooking_fuel=biomass   Deworming=yes   Toilet_access=no   Pollution_birth=minor   Preterm_birth=no   Sex=male   
   (   0.86   0.14))   % Food_diversity=sufficient   Animal_ownership=no   Water_source=other   Exclusive_breastfeeding=yes   Cooking_fuel=biomass   Deworming=yes   Toilet_access=no   Pollution_birth=minor   Preterm_birth=no   Sex=male   
   ((   0.801   0.199)   % Food_diversity=insufficient   Animal_ownership=yes   Water_source=other   Exclusive_breastfeeding=yes   Cooking_fuel=biomass   Deworming=yes   Toilet_access=no   Pollution_birth=minor   Preterm_birth=no   Sex=male   
   (   0.816   0.184)))))))   % Food_diversity=sufficient   Animal_ownership=yes   Water_source=other   Exclusive_breastfeeding=yes   Cooking_fuel=biomass   Deworming=yes   Toilet_access=no   Pollution_birth=minor   Preterm_birth=no   Sex=male   
   (((((((   0.774   0.226)   % Food_diversity=insufficient   Animal_ownership=no   Water_source=protected   Exclusive_breastfeeding=no   Cooking_fuel=other   Deworming=no   Toilet_access=yes   Pollution_birth=minor   Preterm_birth=no   Sex=male   
   (   0.809   0.191))   % Food_diversity=sufficient   Animal_ownership=no   Water_source=protected   Exclusive_breastfeeding=no   Cooking_fuel=other   Deworming=no   Toilet_access=yes   Pollution_birth=minor   Preterm_birth=no   Sex=male   
   ((   0.716   0.284)   % Food_diversity=insufficient   Animal_ownership=yes   Water_source=protected   Exclusive_breastfeeding=no   Cooking_fuel=other   Deworming=no   Toilet_access=yes   Pollution_birth=minor   Preterm_birth=no   Sex=male   
   (   0.743   0.257)))   % Food_diversity=sufficient   Animal_ownership=yes   Water_source=protected   Exclusive_breastfeeding=no   Cooking_fuel=other   Deworming=no   Toilet_access=yes   Pollution_birth=minor   Preterm_birth=no   Sex=male   
   (((   0.688   0.312)   % Food_diversity=insufficient   Animal_ownership=no   Water_source=unprotected   Exclusive_breastfeeding=no   Cooking_fuel=other   Deworming=no   Toilet_access=yes   Pollution_birth=minor   Preterm_birth=no   Sex=male   
   (   0.718   0.282))   % Food_diversity=sufficient   Animal_ownership=no   Water_source=unprotected   Exclusive_breastfeeding=no   Cooking_fuel=other   Deworming=no   Toilet_access=yes   Pollution_birth=minor   Preterm_birth=no   Sex=male   
   ((   0.587   0.413)   % Food_diversity=insufficient   Animal_ownership=yes   Water_source=unprotected   Exclusive_breastfeeding=no   Cooking_fuel=other   Deworming=no   Toilet_access=yes   Pollution_birth=minor   Preterm_birth=no   Sex=male   
   (   0.64   0.36)))   % Food_diversity=sufficient   Animal_ownership=yes   Water_source=unprotected   Exclusive_breastfeeding=no   Cooking_fuel=other   Deworming=no   Toilet_access=yes   Pollution_birth=minor   Preterm_birth=no   Sex=male   
   (((   0.734   0.266)   % Food_diversity=insufficient   Animal_ownership=no   Water_source=other   Exclusive_breastfeeding=no   Cooking_fuel=other   Deworming=no   Toilet_access=yes   Pollution_birth=minor   Preterm_birth=no   Sex=male   
   (   0.772   0.228))   % Food_diversity=sufficient   Animal_ownership=no   Water_source=other   Exclusive_breastfeeding=no   Cooking_fuel=other   Deworming=no   Toilet_access=yes   Pollution_birth=minor   Preterm_birth=no   Sex=male   
   ((   0.667   0.333)   % Food_diversity=insufficient   Animal_ownership=yes   Water_source=other   Exclusive_breastfeeding=no   Cooking_fuel=other   Deworming=no   Toilet_access=yes   Pollution_birth=minor   Preterm_birth=no   Sex=male   
   (   0.694   0.306))))   % Food_diversity=sufficient   Animal_ownership=yes   Water_source=other   Exclusive_breastfeeding=no   Cooking_fuel=other   Deworming=no   Toilet_access=yes   Pollution_birth=minor   Preterm_birth=no   Sex=male   
   ((((   0.819   0.181)   % Food_diversity=insufficient   Animal_ownership=no   Water_source=protected   Exclusive_breastfeeding=yes   Cooking_fuel=other   Deworming=no   Toilet_access=yes   Pollution_birth=minor   Preterm_birth=no   Sex=male   
   (   0.845   0.155))   % Food_diversity=sufficient   Animal_ownership=no   Water_source=protected   Exclusive_breastfeeding=yes   Cooking_fuel=other   Deworming=no   Toilet_access=yes   Pollution_birth=minor   Preterm_birth=no   Sex=male   
   ((   0.738   0.262)   % Food_diversity=insufficient   Animal_ownership=yes   Water_source=protected   Exclusive_breastfeeding=yes   Cooking_fuel=other   Deworming=no   Toilet_access=yes   Pollution_birth=minor   Preterm_birth=no   Sex=male   
   (   0.774   0.226)))   % Food_diversity=sufficient   Animal_ownership=yes   Water_source=protected   Exclusive_breastfeeding=yes   Cooking_fuel=other   Deworming=no   Toilet_access=yes   Pollution_birth=minor   Preterm_birth=no   Sex=male   
   (((   0.712   0.288)   % Food_diversity=insufficient   Animal_ownership=no   Water_source=unprotected   Exclusive_breastfeeding=yes   Cooking_fuel=other   Deworming=no   Toilet_access=yes   Pollution_birth=minor   Preterm_birth=no   Sex=male   
   (   0.77   0.23))   % Food_diversity=sufficient   Animal_ownership=no   Water_source=unprotected   Exclusive_breastfeeding=yes   Cooking_fuel=other   Deworming=no   Toilet_access=yes   Pollution_birth=minor   Preterm_birth=no   Sex=male   
   ((   0.642   0.358)   % Food_diversity=insufficient   Animal_ownership=yes   Water_source=unprotected   Exclusive_breastfeeding=yes   Cooking_fuel=other   Deworming=no   Toilet_access=yes   Pollution_birth=minor   Preterm_birth=no   Sex=male   
   (   0.691   0.309)))   % Food_diversity=sufficient   Animal_ownership=yes   Water_source=unprotected   Exclusive_breastfeeding=yes   Cooking_fuel=other   Deworming=no   Toilet_access=yes   Pollution_birth=minor   Preterm_birth=no   Sex=male   
   (((   0.788   0.212)   % Food_diversity=insufficient   Animal_ownership=no   Water_source=other   Exclusive_breastfeeding=yes   Cooking_fuel=other   Deworming=no   Toilet_access=yes   Pollution_birth=minor   Preterm_birth=no   Sex=male   
   (   0.804   0.196))   % Food_diversity=sufficient   Animal_ownership=no   Water_source=other   Exclusive_breastfeeding=yes   Cooking_fuel=other   Deworming=no   Toilet_access=yes   Pollution_birth=minor   Preterm_birth=no   Sex=male   
   ((   0.711   0.289)   % Food_diversity=insufficient   Animal_ownership=yes   Water_source=other   Exclusive_breastfeeding=yes   Cooking_fuel=other   Deworming=no   Toilet_access=yes   Pollution_birth=minor   Preterm_birth=no   Sex=male   
   (   0.742   0.258)))))   % Food_diversity=sufficient   Animal_ownership=yes   Water_source=other   Exclusive_breastfeeding=yes   Cooking_fuel=other   Deworming=no   Toilet_access=yes   Pollution_birth=minor   Preterm_birth=no   Sex=male   
   (((((   0.845   0.155)   % Food_diversity=insufficient   Animal_ownership=no   Water_source=protected   Exclusive_breastfeeding=no   Cooking_fuel=biomass   Deworming=no   Toilet_access=yes   Pollution_birth=minor   Preterm_birth=no   Sex=male   
   (   0.874   0.126))   % Food_diversity=sufficient   Animal_ownership=no   Water_source=protected   Exclusive_breastfeeding=no   Cooking_fuel=biomass   Deworming=no   Toilet_access=yes   Pollution_birth=minor   Preterm_birth=no   Sex=male   
   ((   0.796   0.204)   % Food_diversity=insufficient   Animal_ownership=yes   Water_source=protected   Exclusive_breastfeeding=no   Cooking_fuel=biomass   Deworming=no   Toilet_access=yes   Pollution_birth=minor   Preterm_birth=no   Sex=male   
   (   0.822   0.178)))   % Food_diversity=sufficient   Animal_ownership=yes   Water_source=protected   Exclusive_breastfeeding=no   Cooking_fuel=biomass   Deworming=no   Toilet_access=yes   Pollution_birth=minor   Preterm_birth=no   Sex=male   
   (((   0.774   0.226)   % Food_diversity=insufficient   Animal_ownership=no   Water_source=unprotected   Exclusive_breastfeeding=no   Cooking_fuel=biomass   Deworming=no   Toilet_access=yes   Pollution_birth=minor   Preterm_birth=no   Sex=male   
   (   0.81   0.19))   % Food_diversity=sufficient   Animal_ownership=no   Water_source=unprotected   Exclusive_breastfeeding=no   Cooking_fuel=biomass   Deworming=no   Toilet_access=yes   Pollution_birth=minor   Preterm_birth=no   Sex=male   
   ((   0.704   0.296)   % Food_diversity=insufficient   Animal_ownership=yes   Water_source=unprotected   Exclusive_breastfeeding=no   Cooking_fuel=biomass   Deworming=no   Toilet_access=yes   Pollution_birth=minor   Preterm_birth=no   Sex=male   
   (   0.737   0.263)))   % Food_diversity=sufficient   Animal_ownership=yes   Water_source=unprotected   Exclusive_breastfeeding=no   Cooking_fuel=biomass   Deworming=no   Toilet_access=yes   Pollution_birth=minor   Preterm_birth=no   Sex=male   
   (((   0.803   0.197)   % Food_diversity=insufficient   Animal_ownership=no   Water_source=other   Exclusive_breastfeeding=no   Cooking_fuel=biomass   Deworming=no   Toilet_access=yes   Pollution_birth=minor   Preterm_birth=no   Sex=male   
   (   0.839   0.161))   % Food_diversity=sufficient   Animal_ownership=no   Water_source=other   Exclusive_breastfeeding=no   Cooking_fuel=biomass   Deworming=no   Toilet_access=yes   Pollution_birth=minor   Preterm_birth=no   Sex=male   
   ((   0.755   0.245)   % Food_diversity=insufficient   Animal_ownership=yes   Water_source=other   Exclusive_breastfeeding=no   Cooking_fuel=biomass   Deworming=no   Toilet_access=yes   Pollution_birth=minor   Preterm_birth=no   Sex=male   
   (   0.78   0.22))))   % Food_diversity=sufficient   Animal_ownership=yes   Water_source=other   Exclusive_breastfeeding=no   Cooking_fuel=biomass   Deworming=no   Toilet_access=yes   Pollution_birth=minor   Preterm_birth=no   Sex=male   
   ((((   0.873   0.127)   % Food_diversity=insufficient   Animal_ownership=no   Water_source=protected   Exclusive_breastfeeding=yes   Cooking_fuel=biomass   Deworming=no   Toilet_access=yes   Pollution_birth=minor   Preterm_birth=no   Sex=male   
   (   0.896   0.104))   % Food_diversity=sufficient   Animal_ownership=no   Water_source=protected   Exclusive_breastfeeding=yes   Cooking_fuel=biomass   Deworming=no   Toilet_access=yes   Pollution_birth=minor   Preterm_birth=no   Sex=male   
   ((   0.836   0.164)   % Food_diversity=insufficient   Animal_ownership=yes   Water_source=protected   Exclusive_breastfeeding=yes   Cooking_fuel=biomass   Deworming=no   Toilet_access=yes   Pollution_birth=minor   Preterm_birth=no   Sex=male   
   (   0.846   0.154)))   % Food_diversity=sufficient   Animal_ownership=yes   Water_source=protected   Exclusive_breastfeeding=yes   Cooking_fuel=biomass   Deworming=no   Toilet_access=yes   Pollution_birth=minor   Preterm_birth=no   Sex=male   
   (((   0.813   0.187)   % Food_diversity=insufficient   Animal_ownership=no   Water_source=unprotected   Exclusive_breastfeeding=yes   Cooking_fuel=biomass   Deworming=no   Toilet_access=yes   Pollution_birth=minor   Preterm_birth=no   Sex=male   
   (   0.831   0.169))   % Food_diversity=sufficient   Animal_ownership=no   Water_source=unprotected   Exclusive_breastfeeding=yes   Cooking_fuel=biomass   Deworming=no   Toilet_access=yes   Pollution_birth=minor   Preterm_birth=no   Sex=male   
   ((   0.746   0.254)   % Food_diversity=insufficient   Animal_ownership=yes   Water_source=unprotected   Exclusive_breastfeeding=yes   Cooking_fuel=biomass   Deworming=no   Toilet_access=yes   Pollution_birth=minor   Preterm_birth=no   Sex=male   
   (   0.784   0.216)))   % Food_diversity=sufficient   Animal_ownership=yes   Water_source=unprotected   Exclusive_breastfeeding=yes   Cooking_fuel=biomass   Deworming=no   Toilet_access=yes   Pollution_birth=minor   Preterm_birth=no   Sex=male   
   (((   0.842   0.158)   % Food_diversity=insufficient   Animal_ownership=no   Water_source=other   Exclusive_breastfeeding=yes   Cooking_fuel=biomass   Deworming=no   Toilet_access=yes   Pollution_birth=minor   Preterm_birth=no   Sex=male   
   (   0.862   0.138))   % Food_diversity=sufficient   Animal_ownership=no   Water_source=other   Exclusive_breastfeeding=yes   Cooking_fuel=biomass   Deworming=no   Toilet_access=yes   Pollution_birth=minor   Preterm_birth=no   Sex=male   
   ((   0.779   0.221)   % Food_diversity=insufficient   Animal_ownership=yes   Water_source=other   Exclusive_breastfeeding=yes   Cooking_fuel=biomass   Deworming=no   Toilet_access=yes   Pollution_birth=minor   Preterm_birth=no   Sex=male   
   (   0.818   0.182))))))   % Food_diversity=sufficient   Animal_ownership=yes   Water_source=other   Exclusive_breastfeeding=yes   Cooking_fuel=biomass   Deworming=no   Toilet_access=yes   Pollution_birth=minor   Preterm_birth=no   Sex=male   
   ((((((   0.75   0.25)   % Food_diversity=insufficient   Animal_ownership=no   Water_source=protected   Exclusive_breastfeeding=no   Cooking_fuel=other   Deworming=yes   Toilet_access=yes   Pollution_birth=minor   Preterm_birth=no   Sex=male   
   (   0.788   0.212))   % Food_diversity=sufficient   Animal_ownership=no   Water_source=protected   Exclusive_breastfeeding=no   Cooking_fuel=other   Deworming=yes   Toilet_access=yes   Pollution_birth=minor   Preterm_birth=no   Sex=male   
   ((   0.678   0.322)   % Food_diversity=insufficient   Animal_ownership=yes   Water_source=protected   Exclusive_breastfeeding=no   Cooking_fuel=other   Deworming=yes   Toilet_access=yes   Pollution_birth=minor   Preterm_birth=no   Sex=male   
   (   0.699   0.301)))   % Food_diversity=sufficient   Animal_ownership=yes   Water_source=protected   Exclusive_breastfeeding=no   Cooking_fuel=other   Deworming=yes   Toilet_access=yes   Pollution_birth=minor   Preterm_birth=no   Sex=male   
   (((   0.65   0.35)   % Food_diversity=insufficient   Animal_ownership=no   Water_source=unprotected   Exclusive_breastfeeding=no   Cooking_fuel=other   Deworming=yes   Toilet_access=yes   Pollution_birth=minor   Preterm_birth=no   Sex=male   
   (   0.706   0.294))   % Food_diversity=sufficient   Animal_ownership=no   Water_source=unprotected   Exclusive_breastfeeding=no   Cooking_fuel=other   Deworming=yes   Toilet_access=yes   Pollution_birth=minor   Preterm_birth=no   Sex=male   
   ((   0.576   0.424)   % Food_diversity=insufficient   Animal_ownership=yes   Water_source=unprotected   Exclusive_breastfeeding=no   Cooking_fuel=other   Deworming=yes   Toilet_access=yes   Pollution_birth=minor   Preterm_birth=no   Sex=male   
   (   0.6   0.4)))   % Food_diversity=sufficient   Animal_ownership=yes   Water_source=unprotected   Exclusive_breastfeeding=no   Cooking_fuel=other   Deworming=yes   Toilet_access=yes   Pollution_birth=minor   Preterm_birth=no   Sex=male   
   (((   0.711   0.289)   % Food_diversity=insufficient   Animal_ownership=no   Water_source=other   Exclusive_breastfeeding=no   Cooking_fuel=other   Deworming=yes   Toilet_access=yes   Pollution_birth=minor   Preterm_birth=no   Sex=male   
   (   0.755   0.245))   % Food_diversity=sufficient   Animal_ownership=no   Water_source=other   Exclusive_breastfeeding=no   Cooking_fuel=other   Deworming=yes   Toilet_access=yes   Pollution_birth=minor   Preterm_birth=no   Sex=male   
   ((   0.646   0.354)   % Food_diversity=insufficient   Animal_ownership=yes   Water_source=other   Exclusive_breastfeeding=no   Cooking_fuel=other   Deworming=yes   Toilet_access=yes   Pollution_birth=minor   Preterm_birth=no   Sex=male   
   (   0.68   0.32))))   % Food_diversity=sufficient   Animal_ownership=yes   Water_source=other   Exclusive_breastfeeding=no   Cooking_fuel=other   Deworming=yes   Toilet_access=yes   Pollution_birth=minor   Preterm_birth=no   Sex=male   
   ((((   0.795   0.205)   % Food_diversity=insufficient   Animal_ownership=no   Water_source=protected   Exclusive_breastfeeding=yes   Cooking_fuel=other   Deworming=yes   Toilet_access=yes   Pollution_birth=minor   Preterm_birth=no   Sex=male   
   (   0.82   0.18))   % Food_diversity=sufficient   Animal_ownership=no   Water_source=protected   Exclusive_breastfeeding=yes   Cooking_fuel=other   Deworming=yes   Toilet_access=yes   Pollution_birth=minor   Preterm_birth=no   Sex=male   
   ((   0.725   0.275)   % Food_diversity=insufficient   Animal_ownership=yes   Water_source=protected   Exclusive_breastfeeding=yes   Cooking_fuel=other   Deworming=yes   Toilet_access=yes   Pollution_birth=minor   Preterm_birth=no   Sex=male   
   (   0.754   0.246)))   % Food_diversity=sufficient   Animal_ownership=yes   Water_source=protected   Exclusive_breastfeeding=yes   Cooking_fuel=other   Deworming=yes   Toilet_access=yes   Pollution_birth=minor   Preterm_birth=no   Sex=male   
   (((   0.702   0.298)   % Food_diversity=insufficient   Animal_ownership=no   Water_source=unprotected   Exclusive_breastfeeding=yes   Cooking_fuel=other   Deworming=yes   Toilet_access=yes   Pollution_birth=minor   Preterm_birth=no   Sex=male   
   (   0.735   0.265))   % Food_diversity=sufficient   Animal_ownership=no   Water_source=unprotected   Exclusive_breastfeeding=yes   Cooking_fuel=other   Deworming=yes   Toilet_access=yes   Pollution_birth=minor   Preterm_birth=no   Sex=male   
   ((   0.617   0.383)   % Food_diversity=insufficient   Animal_ownership=yes   Water_source=unprotected   Exclusive_breastfeeding=yes   Cooking_fuel=other   Deworming=yes   Toilet_access=yes   Pollution_birth=minor   Preterm_birth=no   Sex=male   
   (   0.669   0.331)))   % Food_diversity=sufficient   Animal_ownership=yes   Water_source=unprotected   Exclusive_breastfeeding=yes   Cooking_fuel=other   Deworming=yes   Toilet_access=yes   Pollution_birth=minor   Preterm_birth=no   Sex=male   
   (((   0.768   0.232)   % Food_diversity=insufficient   Animal_ownership=no   Water_source=other   Exclusive_breastfeeding=yes   Cooking_fuel=other   Deworming=yes   Toilet_access=yes   Pollution_birth=minor   Preterm_birth=no   Sex=male   
   (   0.787   0.213))   % Food_diversity=sufficient   Animal_ownership=no   Water_source=other   Exclusive_breastfeeding=yes   Cooking_fuel=other   Deworming=yes   Toilet_access=yes   Pollution_birth=minor   Preterm_birth=no   Sex=male   
   ((   0.691   0.309)   % Food_diversity=insufficient   Animal_ownership=yes   Water_source=other   Exclusive_breastfeeding=yes   Cooking_fuel=other   Deworming=yes   Toilet_access=yes   Pollution_birth=minor   Preterm_birth=no   Sex=male   
   (   0.72   0.28)))))   % Food_diversity=sufficient   Animal_ownership=yes   Water_source=other   Exclusive_breastfeeding=yes   Cooking_fuel=other   Deworming=yes   Toilet_access=yes   Pollution_birth=minor   Preterm_birth=no   Sex=male   
   (((((   0.828   0.172)   % Food_diversity=insufficient   Animal_ownership=no   Water_source=protected   Exclusive_breastfeeding=no   Cooking_fuel=biomass   Deworming=yes   Toilet_access=yes   Pollution_birth=minor   Preterm_birth=no   Sex=male   
   (   0.856   0.144))   % Food_diversity=sufficient   Animal_ownership=no   Water_source=protected   Exclusive_breastfeeding=no   Cooking_fuel=biomass   Deworming=yes   Toilet_access=yes   Pollution_birth=minor   Preterm_birth=no   Sex=male   
   ((   0.766   0.234)   % Food_diversity=insufficient   Animal_ownership=yes   Water_source=protected   Exclusive_breastfeeding=no   Cooking_fuel=biomass   Deworming=yes   Toilet_access=yes   Pollution_birth=minor   Preterm_birth=no   Sex=male   
   (   0.796   0.204)))   % Food_diversity=sufficient   Animal_ownership=yes   Water_source=protected   Exclusive_breastfeeding=no   Cooking_fuel=biomass   Deworming=yes   Toilet_access=yes   Pollution_birth=minor   Preterm_birth=no   Sex=male   
   (((   0.755   0.245)   % Food_diversity=insufficient   Animal_ownership=no   Water_source=unprotected   Exclusive_breastfeeding=no   Cooking_fuel=biomass   Deworming=yes   Toilet_access=yes   Pollution_birth=minor   Preterm_birth=no   Sex=male   
   (   0.784   0.216))   % Food_diversity=sufficient   Animal_ownership=no   Water_source=unprotected   Exclusive_breastfeeding=no   Cooking_fuel=biomass   Deworming=yes   Toilet_access=yes   Pollution_birth=minor   Preterm_birth=no   Sex=male   
   ((   0.678   0.322)   % Food_diversity=insufficient   Animal_ownership=yes   Water_source=unprotected   Exclusive_breastfeeding=no   Cooking_fuel=biomass   Deworming=yes   Toilet_access=yes   Pollution_birth=minor   Preterm_birth=no   Sex=male   
   (   0.714   0.286)))   % Food_diversity=sufficient   Animal_ownership=yes   Water_source=unprotected   Exclusive_breastfeeding=no   Cooking_fuel=biomass   Deworming=yes   Toilet_access=yes   Pollution_birth=minor   Preterm_birth=no   Sex=male   
   (((   0.798   0.202)   % Food_diversity=insufficient   Animal_ownership=no   Water_source=other   Exclusive_breastfeeding=no   Cooking_fuel=biomass   Deworming=yes   Toilet_access=yes   Pollution_birth=minor   Preterm_birth=no   Sex=male   
   (   0.824   0.176))   % Food_diversity=sufficient   Animal_ownership=no   Water_source=other   Exclusive_breastfeeding=no   Cooking_fuel=biomass   Deworming=yes   Toilet_access=yes   Pollution_birth=minor   Preterm_birth=no   Sex=male   
   ((   0.726   0.274)   % Food_diversity=insufficient   Animal_ownership=yes   Water_source=other   Exclusive_breastfeeding=no   Cooking_fuel=biomass   Deworming=yes   Toilet_access=yes   Pollution_birth=minor   Preterm_birth=no   Sex=male   
   (   0.763   0.237))))   % Food_diversity=sufficient   Animal_ownership=yes   Water_source=other   Exclusive_breastfeeding=no   Cooking_fuel=biomass   Deworming=yes   Toilet_access=yes   Pollution_birth=minor   Preterm_birth=no   Sex=male   
   ((((   0.859   0.141)   % Food_diversity=insufficient   Animal_ownership=no   Water_source=protected   Exclusive_breastfeeding=yes   Cooking_fuel=biomass   Deworming=yes   Toilet_access=yes   Pollution_birth=minor   Preterm_birth=no   Sex=male   
   (   0.876   0.124))   % Food_diversity=sufficient   Animal_ownership=no   Water_source=protected   Exclusive_breastfeeding=yes   Cooking_fuel=biomass   Deworming=yes   Toilet_access=yes   Pollution_birth=minor   Preterm_birth=no   Sex=male   
   ((   0.806   0.194)   % Food_diversity=insufficient   Animal_ownership=yes   Water_source=protected   Exclusive_breastfeeding=yes   Cooking_fuel=biomass   Deworming=yes   Toilet_access=yes   Pollution_birth=minor   Preterm_birth=no   Sex=male   
   (   0.834   0.166)))   % Food_diversity=sufficient   Animal_ownership=yes   Water_source=protected   Exclusive_breastfeeding=yes   Cooking_fuel=biomass   Deworming=yes   Toilet_access=yes   Pollution_birth=minor   Preterm_birth=no   Sex=male   
   (((   0.779   0.221)   % Food_diversity=insufficient   Animal_ownership=no   Water_source=unprotected   Exclusive_breastfeeding=yes   Cooking_fuel=biomass   Deworming=yes   Toilet_access=yes   Pollution_birth=minor   Preterm_birth=no   Sex=male   
   (   0.824   0.176))   % Food_diversity=sufficient   Animal_ownership=no   Water_source=unprotected   Exclusive_breastfeeding=yes   Cooking_fuel=biomass   Deworming=yes   Toilet_access=yes   Pollution_birth=minor   Preterm_birth=no   Sex=male   
   ((   0.722   0.278)   % Food_diversity=insufficient   Animal_ownership=yes   Water_source=unprotected   Exclusive_breastfeeding=yes   Cooking_fuel=biomass   Deworming=yes   Toilet_access=yes   Pollution_birth=minor   Preterm_birth=no   Sex=male   
   (   0.758   0.242)))   % Food_diversity=sufficient   Animal_ownership=yes   Water_source=unprotected   Exclusive_breastfeeding=yes   Cooking_fuel=biomass   Deworming=yes   Toilet_access=yes   Pollution_birth=minor   Preterm_birth=no   Sex=male   
   (((   0.831   0.169)   % Food_diversity=insufficient   Animal_ownership=no   Water_source=other   Exclusive_breastfeeding=yes   Cooking_fuel=biomass   Deworming=yes   Toilet_access=yes   Pollution_birth=minor   Preterm_birth=no   Sex=male   
   (   0.848   0.152))   % Food_diversity=sufficient   Animal_ownership=no   Water_source=other   Exclusive_breastfeeding=yes   Cooking_fuel=biomass   Deworming=yes   Toilet_access=yes   Pollution_birth=minor   Preterm_birth=no   Sex=male   
   ((   0.756   0.244)   % Food_diversity=insufficient   Animal_ownership=yes   Water_source=other   Exclusive_breastfeeding=yes   Cooking_fuel=biomass   Deworming=yes   Toilet_access=yes   Pollution_birth=minor   Preterm_birth=no   Sex=male   
   (   0.8   0.2))))))))   % Food_diversity=sufficient   Animal_ownership=yes   Water_source=other   Exclusive_breastfeeding=yes   Cooking_fuel=biomass   Deworming=yes   Toilet_access=yes   Pollution_birth=minor   Preterm_birth=no   Sex=male   
   ((((((((   0.827   0.173)   % Food_diversity=insufficient   Animal_ownership=no   Water_source=protected   Exclusive_breastfeeding=no   Cooking_fuel=other   Deworming=no   Toilet_access=no   Pollution_birth=moderate   Preterm_birth=no   Sex=male   
   (   0.847   0.153))   % Food_diversity=sufficient   Animal_ownership=no   Water_source=protected   Exclusive_breastfeeding=no   Cooking_fuel=other   Deworming=no   Toilet_access=no   Pollution_birth=moderate   Preterm_birth=no   Sex=male   
   ((   0.76   0.24)   % Food_diversity=insufficient   Animal_ownership=yes   Water_source=protected   Exclusive_breastfeeding=no   Cooking_fuel=other   Deworming=no   Toilet_access=no   Pollution_birth=moderate   Preterm_birth=no   Sex=male   
   (   0.791   0.209)))   % Food_diversity=sufficient   Animal_ownership=yes   Water_source=protected   Exclusive_breastfeeding=no   Cooking_fuel=other   Deworming=no   Toilet_access=no   Pollution_birth=moderate   Preterm_birth=no   Sex=male   
   (((   0.742   0.258)   % Food_diversity=insufficient   Animal_ownership=no   Water_source=unprotected   Exclusive_breastfeeding=no   Cooking_fuel=other   Deworming=no   Toilet_access=no   Pollution_birth=moderate   Preterm_birth=no   Sex=male   
   (   0.772   0.228))   % Food_diversity=sufficient   Animal_ownership=no   Water_source=unprotected   Exclusive_breastfeeding=no   Cooking_fuel=other   Deworming=no   Toilet_access=no   Pollution_birth=moderate   Preterm_birth=no   Sex=male   
   ((   0.662   0.338)   % Food_diversity=insufficient   Animal_ownership=yes   Water_source=unprotected   Exclusive_breastfeeding=no   Cooking_fuel=other   Deworming=no   Toilet_access=no   Pollution_birth=moderate   Preterm_birth=no   Sex=male   
   (   0.693   0.307)))   % Food_diversity=sufficient   Animal_ownership=yes   Water_source=unprotected   Exclusive_breastfeeding=no   Cooking_fuel=other   Deworming=no   Toilet_access=no   Pollution_birth=moderate   Preterm_birth=no   Sex=male   
   (((   0.784   0.216)   % Food_diversity=insufficient   Animal_ownership=no   Water_source=other   Exclusive_breastfeeding=no   Cooking_fuel=other   Deworming=no   Toilet_access=no   Pollution_birth=moderate   Preterm_birth=no   Sex=male   
   (   0.815   0.185))   % Food_diversity=sufficient   Animal_ownership=no   Water_source=other   Exclusive_breastfeeding=no   Cooking_fuel=other   Deworming=no   Toilet_access=no   Pollution_birth=moderate   Preterm_birth=no   Sex=male   
   ((   0.727   0.273)   % Food_diversity=insufficient   Animal_ownership=yes   Water_source=other   Exclusive_breastfeeding=no   Cooking_fuel=other   Deworming=no   Toilet_access=no   Pollution_birth=moderate   Preterm_birth=no   Sex=male   
   (   0.752   0.248))))   % Food_diversity=sufficient   Animal_ownership=yes   Water_source=other   Exclusive_breastfeeding=no   Cooking_fuel=other   Deworming=no   Toilet_access=no   Pollution_birth=moderate   Preterm_birth=no   Sex=male   
   ((((   0.865   0.135)   % Food_diversity=insufficient   Animal_ownership=no   Water_source=protected   Exclusive_breastfeeding=yes   Cooking_fuel=other   Deworming=no   Toilet_access=no   Pollution_birth=moderate   Preterm_birth=no   Sex=male   
   (   0.886   0.114))   % Food_diversity=sufficient   Animal_ownership=no   Water_source=protected   Exclusive_breastfeeding=yes   Cooking_fuel=other   Deworming=no   Toilet_access=no   Pollution_birth=moderate   Preterm_birth=no   Sex=male   
   ((   0.808   0.192)   % Food_diversity=insufficient   Animal_ownership=yes   Water_source=protected   Exclusive_breastfeeding=yes   Cooking_fuel=other   Deworming=no   Toilet_access=no   Pollution_birth=moderate   Preterm_birth=no   Sex=male   
   (   0.829   0.171)))   % Food_diversity=sufficient   Animal_ownership=yes   Water_source=protected   Exclusive_breastfeeding=yes   Cooking_fuel=other   Deworming=no   Toilet_access=no   Pollution_birth=moderate   Preterm_birth=no   Sex=male   
   (((   0.786   0.214)   % Food_diversity=insufficient   Animal_ownership=no   Water_source=unprotected   Exclusive_breastfeeding=yes   Cooking_fuel=other   Deworming=no   Toilet_access=no   Pollution_birth=moderate   Preterm_birth=no   Sex=male   
   (   0.808   0.192))   % Food_diversity=sufficient   Animal_ownership=no   Water_source=unprotected   Exclusive_breastfeeding=yes   Cooking_fuel=other   Deworming=no   Toilet_access=no   Pollution_birth=moderate   Preterm_birth=no   Sex=male   
   ((   0.706   0.294)   % Food_diversity=insufficient   Animal_ownership=yes   Water_source=unprotected   Exclusive_breastfeeding=yes   Cooking_fuel=other   Deworming=no   Toilet_access=no   Pollution_birth=moderate   Preterm_birth=no   Sex=male   
   (   0.743   0.257)))   % Food_diversity=sufficient   Animal_ownership=yes   Water_source=unprotected   Exclusive_breastfeeding=yes   Cooking_fuel=other   Deworming=no   Toilet_access=no   Pollution_birth=moderate   Preterm_birth=no   Sex=male   
   (((   0.82   0.18)   % Food_diversity=insufficient   Animal_ownership=no   Water_source=other   Exclusive_breastfeeding=yes   Cooking_fuel=other   Deworming=no   Toilet_access=no   Pollution_birth=moderate   Preterm_birth=no   Sex=male   
   (   0.844   0.156))   % Food_diversity=sufficient   Animal_ownership=no   Water_source=other   Exclusive_breastfeeding=yes   Cooking_fuel=other   Deworming=no   Toilet_access=no   Pollution_birth=moderate   Preterm_birth=no   Sex=male   
   ((   0.759   0.241)   % Food_diversity=insufficient   Animal_ownership=yes   Water_source=other   Exclusive_breastfeeding=yes   Cooking_fuel=other   Deworming=no   Toilet_access=no   Pollution_birth=moderate   Preterm_birth=no   Sex=male   
   (   0.79   0.21)))))   % Food_diversity=sufficient   Animal_ownership=yes   Water_source=other   Exclusive_breastfeeding=yes   Cooking_fuel=other   Deworming=no   Toilet_access=no   Pollution_birth=moderate   Preterm_birth=no   Sex=male   
   (((((   0.872   0.128)   % Food_diversity=insufficient   Animal_ownership=no   Water_source=protected   Exclusive_breastfeeding=no   Cooking_fuel=biomass   Deworming=no   Toilet_access=no   Pollution_birth=moderate   Preterm_birth=no   Sex=male   
   (   0.904   0.096))   % Food_diversity=sufficient   Animal_ownership=no   Water_source=protected   Exclusive_breastfeeding=no   Cooking_fuel=biomass   Deworming=no   Toilet_access=no   Pollution_birth=moderate   Preterm_birth=no   Sex=male   
   ((   0.831   0.169)   % Food_diversity=insufficient   Animal_ownership=yes   Water_source=protected   Exclusive_breastfeeding=no   Cooking_fuel=biomass   Deworming=no   Toilet_access=no   Pollution_birth=moderate   Preterm_birth=no   Sex=male   
   (   0.863   0.137)))   % Food_diversity=sufficient   Animal_ownership=yes   Water_source=protected   Exclusive_breastfeeding=no   Cooking_fuel=biomass   Deworming=no   Toilet_access=no   Pollution_birth=moderate   Preterm_birth=no   Sex=male   
   (((   0.825   0.175)   % Food_diversity=insufficient   Animal_ownership=no   Water_source=unprotected   Exclusive_breastfeeding=no   Cooking_fuel=biomass   Deworming=no   Toilet_access=no   Pollution_birth=moderate   Preterm_birth=no   Sex=male   
   (   0.845   0.155))   % Food_diversity=sufficient   Animal_ownership=no   Water_source=unprotected   Exclusive_breastfeeding=no   Cooking_fuel=biomass   Deworming=no   Toilet_access=no   Pollution_birth=moderate   Preterm_birth=no   Sex=male   
   ((   0.756   0.244)   % Food_diversity=insufficient   Animal_ownership=yes   Water_source=unprotected   Exclusive_breastfeeding=no   Cooking_fuel=biomass   Deworming=no   Toilet_access=no   Pollution_birth=moderate   Preterm_birth=no   Sex=male   
   (   0.789   0.211)))   % Food_diversity=sufficient   Animal_ownership=yes   Water_source=unprotected   Exclusive_breastfeeding=no   Cooking_fuel=biomass   Deworming=no   Toilet_access=no   Pollution_birth=moderate   Preterm_birth=no   Sex=male   
   (((   0.854   0.146)   % Food_diversity=insufficient   Animal_ownership=no   Water_source=other   Exclusive_breastfeeding=no   Cooking_fuel=biomass   Deworming=no   Toilet_access=no   Pollution_birth=moderate   Preterm_birth=no   Sex=male   
   (   0.87   0.13))   % Food_diversity=sufficient   Animal_ownership=no   Water_source=other   Exclusive_breastfeeding=no   Cooking_fuel=biomass   Deworming=no   Toilet_access=no   Pollution_birth=moderate   Preterm_birth=no   Sex=male   
   ((   0.799   0.201)   % Food_diversity=insufficient   Animal_ownership=yes   Water_source=other   Exclusive_breastfeeding=no   Cooking_fuel=biomass   Deworming=no   Toilet_access=no   Pollution_birth=moderate   Preterm_birth=no   Sex=male   
   (   0.816   0.184))))   % Food_diversity=sufficient   Animal_ownership=yes   Water_source=other   Exclusive_breastfeeding=no   Cooking_fuel=biomass   Deworming=no   Toilet_access=no   Pollution_birth=moderate   Preterm_birth=no   Sex=male   
   ((((   0.91   0.09)   % Food_diversity=insufficient   Animal_ownership=no   Water_source=protected   Exclusive_breastfeeding=yes   Cooking_fuel=biomass   Deworming=no   Toilet_access=no   Pollution_birth=moderate   Preterm_birth=no   Sex=male   
   (   0.92   0.08))   % Food_diversity=sufficient   Animal_ownership=no   Water_source=protected   Exclusive_breastfeeding=yes   Cooking_fuel=biomass   Deworming=no   Toilet_access=no   Pollution_birth=moderate   Preterm_birth=no   Sex=male   
   ((   0.871   0.129)   % Food_diversity=insufficient   Animal_ownership=yes   Water_source=protected   Exclusive_breastfeeding=yes   Cooking_fuel=biomass   Deworming=no   Toilet_access=no   Pollution_birth=moderate   Preterm_birth=no   Sex=male   
   (   0.876   0.124)))   % Food_diversity=sufficient   Animal_ownership=yes   Water_source=protected   Exclusive_breastfeeding=yes   Cooking_fuel=biomass   Deworming=no   Toilet_access=no   Pollution_birth=moderate   Preterm_birth=no   Sex=male   
   (((   0.847   0.153)   % Food_diversity=insufficient   Animal_ownership=no   Water_source=unprotected   Exclusive_breastfeeding=yes   Cooking_fuel=biomass   Deworming=no   Toilet_access=no   Pollution_birth=moderate   Preterm_birth=no   Sex=male   
   (   0.864   0.136))   % Food_diversity=sufficient   Animal_ownership=no   Water_source=unprotected   Exclusive_breastfeeding=yes   Cooking_fuel=biomass   Deworming=no   Toilet_access=no   Pollution_birth=moderate   Preterm_birth=no   Sex=male   
   ((   0.808   0.192)   % Food_diversity=insufficient   Animal_ownership=yes   Water_source=unprotected   Exclusive_breastfeeding=yes   Cooking_fuel=biomass   Deworming=no   Toilet_access=no   Pollution_birth=moderate   Preterm_birth=no   Sex=male   
   (   0.83   0.17)))   % Food_diversity=sufficient   Animal_ownership=yes   Water_source=unprotected   Exclusive_breastfeeding=yes   Cooking_fuel=biomass   Deworming=no   Toilet_access=no   Pollution_birth=moderate   Preterm_birth=no   Sex=male   
   (((   0.876   0.124)   % Food_diversity=insufficient   Animal_ownership=no   Water_source=other   Exclusive_breastfeeding=yes   Cooking_fuel=biomass   Deworming=no   Toilet_access=no   Pollution_birth=moderate   Preterm_birth=no   Sex=male   
   (   0.899   0.101))   % Food_diversity=sufficient   Animal_ownership=no   Water_source=other   Exclusive_breastfeeding=yes   Cooking_fuel=biomass   Deworming=no   Toilet_access=no   Pollution_birth=moderate   Preterm_birth=no   Sex=male   
   ((   0.847   0.153)   % Food_diversity=insufficient   Animal_ownership=yes   Water_source=other   Exclusive_breastfeeding=yes   Cooking_fuel=biomass   Deworming=no   Toilet_access=no   Pollution_birth=moderate   Preterm_birth=no   Sex=male   
   (   0.847   0.153))))))   % Food_diversity=sufficient   Animal_ownership=yes   Water_source=other   Exclusive_breastfeeding=yes   Cooking_fuel=biomass   Deworming=no   Toilet_access=no   Pollution_birth=moderate   Preterm_birth=no   Sex=male   
   ((((((   0.8   0.2)   % Food_diversity=insufficient   Animal_ownership=no   Water_source=protected   Exclusive_breastfeeding=no   Cooking_fuel=other   Deworming=yes   Toilet_access=no   Pollution_birth=moderate   Preterm_birth=no   Sex=male   
   (   0.825   0.175))   % Food_diversity=sufficient   Animal_ownership=no   Water_source=protected   Exclusive_breastfeeding=no   Cooking_fuel=other   Deworming=yes   Toilet_access=no   Pollution_birth=moderate   Preterm_birth=no   Sex=male   
   ((   0.748   0.252)   % Food_diversity=insufficient   Animal_ownership=yes   Water_source=protected   Exclusive_breastfeeding=no   Cooking_fuel=other   Deworming=yes   Toilet_access=no   Pollution_birth=moderate   Preterm_birth=no   Sex=male   
   (   0.768   0.232)))   % Food_diversity=sufficient   Animal_ownership=yes   Water_source=protected   Exclusive_breastfeeding=no   Cooking_fuel=other   Deworming=yes   Toilet_access=no   Pollution_birth=moderate   Preterm_birth=no   Sex=male   
   (((   0.729   0.271)   % Food_diversity=insufficient   Animal_ownership=no   Water_source=unprotected   Exclusive_breastfeeding=no   Cooking_fuel=other   Deworming=yes   Toilet_access=no   Pollution_birth=moderate   Preterm_birth=no   Sex=male   
   (   0.746   0.254))   % Food_diversity=sufficient   Animal_ownership=no   Water_source=unprotected   Exclusive_breastfeeding=no   Cooking_fuel=other   Deworming=yes   Toilet_access=no   Pollution_birth=moderate   Preterm_birth=no   Sex=male   
   ((   0.636   0.364)   % Food_diversity=insufficient   Animal_ownership=yes   Water_source=unprotected   Exclusive_breastfeeding=no   Cooking_fuel=other   Deworming=yes   Toilet_access=no   Pollution_birth=moderate   Preterm_birth=no   Sex=male   
   (   0.674   0.326)))   % Food_diversity=sufficient   Animal_ownership=yes   Water_source=unprotected   Exclusive_breastfeeding=no   Cooking_fuel=other   Deworming=yes   Toilet_access=no   Pollution_birth=moderate   Preterm_birth=no   Sex=male   
   (((   0.772   0.228)   % Food_diversity=insufficient   Animal_ownership=no   Water_source=other   Exclusive_breastfeeding=no   Cooking_fuel=other   Deworming=yes   Toilet_access=no   Pollution_birth=moderate   Preterm_birth=no   Sex=male   
   (   0.788   0.212))   % Food_diversity=sufficient   Animal_ownership=no   Water_source=other   Exclusive_breastfeeding=no   Cooking_fuel=other   Deworming=yes   Toilet_access=no   Pollution_birth=moderate   Preterm_birth=no   Sex=male   
   ((   0.702   0.298)   % Food_diversity=insufficient   Animal_ownership=yes   Water_source=other   Exclusive_breastfeeding=no   Cooking_fuel=other   Deworming=yes   Toilet_access=no   Pollution_birth=moderate   Preterm_birth=no   Sex=male   
   (   0.724   0.276))))   % Food_diversity=sufficient   Animal_ownership=yes   Water_source=other   Exclusive_breastfeeding=no   Cooking_fuel=other   Deworming=yes   Toilet_access=no   Pollution_birth=moderate   Preterm_birth=no   Sex=male   
   ((((   0.826   0.174)   % Food_diversity=insufficient   Animal_ownership=no   Water_source=protected   Exclusive_breastfeeding=yes   Cooking_fuel=other   Deworming=yes   Toilet_access=no   Pollution_birth=moderate   Preterm_birth=no   Sex=male   
   (   0.863   0.137))   % Food_diversity=sufficient   Animal_ownership=no   Water_source=protected   Exclusive_breastfeeding=yes   Cooking_fuel=other   Deworming=yes   Toilet_access=no   Pollution_birth=moderate   Preterm_birth=no   Sex=male   
   ((   0.786   0.214)   % Food_diversity=insufficient   Animal_ownership=yes   Water_source=protected   Exclusive_breastfeeding=yes   Cooking_fuel=other   Deworming=yes   Toilet_access=no   Pollution_birth=moderate   Preterm_birth=no   Sex=male   
   (   0.812   0.188)))   % Food_diversity=sufficient   Animal_ownership=yes   Water_source=protected   Exclusive_breastfeeding=yes   Cooking_fuel=other   Deworming=yes   Toilet_access=no   Pollution_birth=moderate   Preterm_birth=no   Sex=male   
   (((   0.762   0.238)   % Food_diversity=insufficient   Animal_ownership=no   Water_source=unprotected   Exclusive_breastfeeding=yes   Cooking_fuel=other   Deworming=yes   Toilet_access=no   Pollution_birth=moderate   Preterm_birth=no   Sex=male   
   (   0.79   0.21))   % Food_diversity=sufficient   Animal_ownership=no   Water_source=unprotected   Exclusive_breastfeeding=yes   Cooking_fuel=other   Deworming=yes   Toilet_access=no   Pollution_birth=moderate   Preterm_birth=no   Sex=male   
   ((   0.676   0.324)   % Food_diversity=insufficient   Animal_ownership=yes   Water_source=unprotected   Exclusive_breastfeeding=yes   Cooking_fuel=other   Deworming=yes   Toilet_access=no   Pollution_birth=moderate   Preterm_birth=no   Sex=male   
   (   0.718   0.282)))   % Food_diversity=sufficient   Animal_ownership=yes   Water_source=unprotected   Exclusive_breastfeeding=yes   Cooking_fuel=other   Deworming=yes   Toilet_access=no   Pollution_birth=moderate   Preterm_birth=no   Sex=male   
   (((   0.811   0.189)   % Food_diversity=insufficient   Animal_ownership=no   Water_source=other   Exclusive_breastfeeding=yes   Cooking_fuel=other   Deworming=yes   Toilet_access=no   Pollution_birth=moderate   Preterm_birth=no   Sex=male   
   (   0.84   0.16))   % Food_diversity=sufficient   Animal_ownership=no   Water_source=other   Exclusive_breastfeeding=yes   Cooking_fuel=other   Deworming=yes   Toilet_access=no   Pollution_birth=moderate   Preterm_birth=no   Sex=male   
   ((   0.751   0.249)   % Food_diversity=insufficient   Animal_ownership=yes   Water_source=other   Exclusive_breastfeeding=yes   Cooking_fuel=other   Deworming=yes   Toilet_access=no   Pollution_birth=moderate   Preterm_birth=no   Sex=male   
   (   0.775   0.225)))))   % Food_diversity=sufficient   Animal_ownership=yes   Water_source=other   Exclusive_breastfeeding=yes   Cooking_fuel=other   Deworming=yes   Toilet_access=no   Pollution_birth=moderate   Preterm_birth=no   Sex=male   
   (((((   0.859   0.141)   % Food_diversity=insufficient   Animal_ownership=no   Water_source=protected   Exclusive_breastfeeding=no   Cooking_fuel=biomass   Deworming=yes   Toilet_access=no   Pollution_birth=moderate   Preterm_birth=no   Sex=male   
   (   0.882   0.118))   % Food_diversity=sufficient   Animal_ownership=no   Water_source=protected   Exclusive_breastfeeding=no   Cooking_fuel=biomass   Deworming=yes   Toilet_access=no   Pollution_birth=moderate   Preterm_birth=no   Sex=male   
   ((   0.808   0.192)   % Food_diversity=insufficient   Animal_ownership=yes   Water_source=protected   Exclusive_breastfeeding=no   Cooking_fuel=biomass   Deworming=yes   Toilet_access=no   Pollution_birth=moderate   Preterm_birth=no   Sex=male   
   (   0.836   0.164)))   % Food_diversity=sufficient   Animal_ownership=yes   Water_source=protected   Exclusive_breastfeeding=no   Cooking_fuel=biomass   Deworming=yes   Toilet_access=no   Pollution_birth=moderate   Preterm_birth=no   Sex=male   
   (((   0.8   0.2)   % Food_diversity=insufficient   Animal_ownership=no   Water_source=unprotected   Exclusive_breastfeeding=no   Cooking_fuel=biomass   Deworming=yes   Toilet_access=no   Pollution_birth=moderate   Preterm_birth=no   Sex=male   
   (   0.827   0.173))   % Food_diversity=sufficient   Animal_ownership=no   Water_source=unprotected   Exclusive_breastfeeding=no   Cooking_fuel=biomass   Deworming=yes   Toilet_access=no   Pollution_birth=moderate   Preterm_birth=no   Sex=male   
   ((   0.73   0.27)   % Food_diversity=insufficient   Animal_ownership=yes   Water_source=unprotected   Exclusive_breastfeeding=no   Cooking_fuel=biomass   Deworming=yes   Toilet_access=no   Pollution_birth=moderate   Preterm_birth=no   Sex=male   
   (   0.762   0.238)))   % Food_diversity=sufficient   Animal_ownership=yes   Water_source=unprotected   Exclusive_breastfeeding=no   Cooking_fuel=biomass   Deworming=yes   Toilet_access=no   Pollution_birth=moderate   Preterm_birth=no   Sex=male   
   (((   0.832   0.168)   % Food_diversity=insufficient   Animal_ownership=no   Water_source=other   Exclusive_breastfeeding=no   Cooking_fuel=biomass   Deworming=yes   Toilet_access=no   Pollution_birth=moderate   Preterm_birth=no   Sex=male   
   (   0.856   0.144))   % Food_diversity=sufficient   Animal_ownership=no   Water_source=other   Exclusive_breastfeeding=no   Cooking_fuel=biomass   Deworming=yes   Toilet_access=no   Pollution_birth=moderate   Preterm_birth=no   Sex=male   
   ((   0.781   0.219)   % Food_diversity=insufficient   Animal_ownership=yes   Water_source=other   Exclusive_breastfeeding=no   Cooking_fuel=biomass   Deworming=yes   Toilet_access=no   Pollution_birth=moderate   Preterm_birth=no   Sex=male   
   (   0.804   0.196))))   % Food_diversity=sufficient   Animal_ownership=yes   Water_source=other   Exclusive_breastfeeding=no   Cooking_fuel=biomass   Deworming=yes   Toilet_access=no   Pollution_birth=moderate   Preterm_birth=no   Sex=male   
   ((((   0.896   0.104)   % Food_diversity=insufficient   Animal_ownership=no   Water_source=protected   Exclusive_breastfeeding=yes   Cooking_fuel=biomass   Deworming=yes   Toilet_access=no   Pollution_birth=moderate   Preterm_birth=no   Sex=male   
   (   0.912   0.088))   % Food_diversity=sufficient   Animal_ownership=no   Water_source=protected   Exclusive_breastfeeding=yes   Cooking_fuel=biomass   Deworming=yes   Toilet_access=no   Pollution_birth=moderate   Preterm_birth=no   Sex=male   
   ((   0.854   0.146)   % Food_diversity=insufficient   Animal_ownership=yes   Water_source=protected   Exclusive_breastfeeding=yes   Cooking_fuel=biomass   Deworming=yes   Toilet_access=no   Pollution_birth=moderate   Preterm_birth=no   Sex=male   
   (   0.878   0.122)))   % Food_diversity=sufficient   Animal_ownership=yes   Water_source=protected   Exclusive_breastfeeding=yes   Cooking_fuel=biomass   Deworming=yes   Toilet_access=no   Pollution_birth=moderate   Preterm_birth=no   Sex=male   
   (((   0.828   0.172)   % Food_diversity=insufficient   Animal_ownership=no   Water_source=unprotected   Exclusive_breastfeeding=yes   Cooking_fuel=biomass   Deworming=yes   Toilet_access=no   Pollution_birth=moderate   Preterm_birth=no   Sex=male   
   (   0.854   0.146))   % Food_diversity=sufficient   Animal_ownership=no   Water_source=unprotected   Exclusive_breastfeeding=yes   Cooking_fuel=biomass   Deworming=yes   Toilet_access=no   Pollution_birth=moderate   Preterm_birth=no   Sex=male   
   ((   0.78   0.22)   % Food_diversity=insufficient   Animal_ownership=yes   Water_source=unprotected   Exclusive_breastfeeding=yes   Cooking_fuel=biomass   Deworming=yes   Toilet_access=no   Pollution_birth=moderate   Preterm_birth=no   Sex=male   
   (   0.795   0.205)))   % Food_diversity=sufficient   Animal_ownership=yes   Water_source=unprotected   Exclusive_breastfeeding=yes   Cooking_fuel=biomass   Deworming=yes   Toilet_access=no   Pollution_birth=moderate   Preterm_birth=no   Sex=male   
   (((   0.871   0.129)   % Food_diversity=insufficient   Animal_ownership=no   Water_source=other   Exclusive_breastfeeding=yes   Cooking_fuel=biomass   Deworming=yes   Toilet_access=no   Pollution_birth=moderate   Preterm_birth=no   Sex=male   
   (   0.886   0.114))   % Food_diversity=sufficient   Animal_ownership=no   Water_source=other   Exclusive_breastfeeding=yes   Cooking_fuel=biomass   Deworming=yes   Toilet_access=no   Pollution_birth=moderate   Preterm_birth=no   Sex=male   
   ((   0.818   0.182)   % Food_diversity=insufficient   Animal_ownership=yes   Water_source=other   Exclusive_breastfeeding=yes   Cooking_fuel=biomass   Deworming=yes   Toilet_access=no   Pollution_birth=moderate   Preterm_birth=no   Sex=male   
   (   0.838   0.162)))))))   % Food_diversity=sufficient   Animal_ownership=yes   Water_source=other   Exclusive_breastfeeding=yes   Cooking_fuel=biomass   Deworming=yes   Toilet_access=no   Pollution_birth=moderate   Preterm_birth=no   Sex=male   
   (((((((   0.81   0.19)   % Food_diversity=insufficient   Animal_ownership=no   Water_source=protected   Exclusive_breastfeeding=no   Cooking_fuel=other   Deworming=no   Toilet_access=yes   Pollution_birth=moderate   Preterm_birth=no   Sex=male   
   (   0.829   0.171))   % Food_diversity=sufficient   Animal_ownership=no   Water_source=protected   Exclusive_breastfeeding=no   Cooking_fuel=other   Deworming=no   Toilet_access=yes   Pollution_birth=moderate   Preterm_birth=no   Sex=male   
   ((   0.743   0.257)   % Food_diversity=insufficient   Animal_ownership=yes   Water_source=protected   Exclusive_breastfeeding=no   Cooking_fuel=other   Deworming=no   Toilet_access=yes   Pollution_birth=moderate   Preterm_birth=no   Sex=male   
   (   0.78   0.22)))   % Food_diversity=sufficient   Animal_ownership=yes   Water_source=protected   Exclusive_breastfeeding=no   Cooking_fuel=other   Deworming=no   Toilet_access=yes   Pollution_birth=moderate   Preterm_birth=no   Sex=male   
   (((   0.712   0.288)   % Food_diversity=insufficient   Animal_ownership=no   Water_source=unprotected   Exclusive_breastfeeding=no   Cooking_fuel=other   Deworming=no   Toilet_access=yes   Pollution_birth=moderate   Preterm_birth=no   Sex=male   
   (   0.75   0.25))   % Food_diversity=sufficient   Animal_ownership=no   Water_source=unprotected   Exclusive_breastfeeding=no   Cooking_fuel=other   Deworming=no   Toilet_access=yes   Pollution_birth=moderate   Preterm_birth=no   Sex=male   
   ((   0.648   0.352)   % Food_diversity=insufficient   Animal_ownership=yes   Water_source=unprotected   Exclusive_breastfeeding=no   Cooking_fuel=other   Deworming=no   Toilet_access=yes   Pollution_birth=moderate   Preterm_birth=no   Sex=male   
   (   0.664   0.336)))   % Food_diversity=sufficient   Animal_ownership=yes   Water_source=unprotected   Exclusive_breastfeeding=no   Cooking_fuel=other   Deworming=no   Toilet_access=yes   Pollution_birth=moderate   Preterm_birth=no   Sex=male   
   (((   0.77   0.23)   % Food_diversity=insufficient   Animal_ownership=no   Water_source=other   Exclusive_breastfeeding=no   Cooking_fuel=other   Deworming=no   Toilet_access=yes   Pollution_birth=moderate   Preterm_birth=no   Sex=male   
   (   0.789   0.211))   % Food_diversity=sufficient   Animal_ownership=no   Water_source=other   Exclusive_breastfeeding=no   Cooking_fuel=other   Deworming=no   Toilet_access=yes   Pollution_birth=moderate   Preterm_birth=no   Sex=male   
   ((   0.699   0.301)   % Food_diversity=insufficient   Animal_ownership=yes   Water_source=other   Exclusive_breastfeeding=no   Cooking_fuel=other   Deworming=no   Toilet_access=yes   Pollution_birth=moderate   Preterm_birth=no   Sex=male   
   (   0.726   0.274))))   % Food_diversity=sufficient   Animal_ownership=yes   Water_source=other   Exclusive_breastfeeding=no   Cooking_fuel=other   Deworming=no   Toilet_access=yes   Pollution_birth=moderate   Preterm_birth=no   Sex=male   
   ((((   0.834   0.166)   % Food_diversity=insufficient   Animal_ownership=no   Water_source=protected   Exclusive_breastfeeding=yes   Cooking_fuel=other   Deworming=no   Toilet_access=yes   Pollution_birth=moderate   Preterm_birth=no   Sex=male   
   (   0.862   0.138))   % Food_diversity=sufficient   Animal_ownership=no   Water_source=protected   Exclusive_breastfeeding=yes   Cooking_fuel=other   Deworming=no   Toilet_access=yes   Pollution_birth=moderate   Preterm_birth=no   Sex=male   
   ((   0.788   0.212)   % Food_diversity=insufficient   Animal_ownership=yes   Water_source=protected   Exclusive_breastfeeding=yes   Cooking_fuel=other   Deworming=no   Toilet_access=yes   Pollution_birth=moderate   Preterm_birth=no   Sex=male   
   (   0.804   0.196)))   % Food_diversity=sufficient   Animal_ownership=yes   Water_source=protected   Exclusive_breastfeeding=yes   Cooking_fuel=other   Deworming=no   Toilet_access=yes   Pollution_birth=moderate   Preterm_birth=no   Sex=male   
   (((   0.765   0.235)   % Food_diversity=insufficient   Animal_ownership=no   Water_source=unprotected   Exclusive_breastfeeding=yes   Cooking_fuel=other   Deworming=no   Toilet_access=yes   Pollution_birth=moderate   Preterm_birth=no   Sex=male   
   (   0.79   0.21))   % Food_diversity=sufficient   Animal_ownership=no   Water_source=unprotected   Exclusive_breastfeeding=yes   Cooking_fuel=other   Deworming=no   Toilet_access=yes   Pollution_birth=moderate   Preterm_birth=no   Sex=male   
   ((   0.694   0.306)   % Food_diversity=insufficient   Animal_ownership=yes   Water_source=unprotected   Exclusive_breastfeeding=yes   Cooking_fuel=other   Deworming=no   Toilet_access=yes   Pollution_birth=moderate   Preterm_birth=no   Sex=male   
   (   0.715   0.285)))   % Food_diversity=sufficient   Animal_ownership=yes   Water_source=unprotected   Exclusive_breastfeeding=yes   Cooking_fuel=other   Deworming=no   Toilet_access=yes   Pollution_birth=moderate   Preterm_birth=no   Sex=male   
   (((   0.81   0.19)   % Food_diversity=insufficient   Animal_ownership=no   Water_source=other   Exclusive_breastfeeding=yes   Cooking_fuel=other   Deworming=no   Toilet_access=yes   Pollution_birth=moderate   Preterm_birth=no   Sex=male   
   (   0.828   0.172))   % Food_diversity=sufficient   Animal_ownership=no   Water_source=other   Exclusive_breastfeeding=yes   Cooking_fuel=other   Deworming=no   Toilet_access=yes   Pollution_birth=moderate   Preterm_birth=no   Sex=male   
   ((   0.751   0.249)   % Food_diversity=insufficient   Animal_ownership=yes   Water_source=other   Exclusive_breastfeeding=yes   Cooking_fuel=other   Deworming=no   Toilet_access=yes   Pollution_birth=moderate   Preterm_birth=no   Sex=male   
   (   0.779   0.221)))))   % Food_diversity=sufficient   Animal_ownership=yes   Water_source=other   Exclusive_breastfeeding=yes   Cooking_fuel=other   Deworming=no   Toilet_access=yes   Pollution_birth=moderate   Preterm_birth=no   Sex=male   
   (((((   0.87   0.13)   % Food_diversity=insufficient   Animal_ownership=no   Water_source=protected   Exclusive_breastfeeding=no   Cooking_fuel=biomass   Deworming=no   Toilet_access=yes   Pollution_birth=moderate   Preterm_birth=no   Sex=male   
   (   0.887   0.113))   % Food_diversity=sufficient   Animal_ownership=no   Water_source=protected   Exclusive_breastfeeding=no   Cooking_fuel=biomass   Deworming=no   Toilet_access=yes   Pollution_birth=moderate   Preterm_birth=no   Sex=male   
   ((   0.82   0.18)   % Food_diversity=insufficient   Animal_ownership=yes   Water_source=protected   Exclusive_breastfeeding=no   Cooking_fuel=biomass   Deworming=no   Toilet_access=yes   Pollution_birth=moderate   Preterm_birth=no   Sex=male   
   (   0.84   0.16)))   % Food_diversity=sufficient   Animal_ownership=yes   Water_source=protected   Exclusive_breastfeeding=no   Cooking_fuel=biomass   Deworming=no   Toilet_access=yes   Pollution_birth=moderate   Preterm_birth=no   Sex=male   
   (((   0.8   0.2)   % Food_diversity=insufficient   Animal_ownership=no   Water_source=unprotected   Exclusive_breastfeeding=no   Cooking_fuel=biomass   Deworming=no   Toilet_access=yes   Pollution_birth=moderate   Preterm_birth=no   Sex=male   
   (   0.82   0.18))   % Food_diversity=sufficient   Animal_ownership=no   Water_source=unprotected   Exclusive_breastfeeding=no   Cooking_fuel=biomass   Deworming=no   Toilet_access=yes   Pollution_birth=moderate   Preterm_birth=no   Sex=male   
   ((   0.729   0.271)   % Food_diversity=insufficient   Animal_ownership=yes   Water_source=unprotected   Exclusive_breastfeeding=no   Cooking_fuel=biomass   Deworming=no   Toilet_access=yes   Pollution_birth=moderate   Preterm_birth=no   Sex=male   
   (   0.76   0.24)))   % Food_diversity=sufficient   Animal_ownership=yes   Water_source=unprotected   Exclusive_breastfeeding=no   Cooking_fuel=biomass   Deworming=no   Toilet_access=yes   Pollution_birth=moderate   Preterm_birth=no   Sex=male   
   (((   0.839   0.161)   % Food_diversity=insufficient   Animal_ownership=no   Water_source=other   Exclusive_breastfeeding=no   Cooking_fuel=biomass   Deworming=no   Toilet_access=yes   Pollution_birth=moderate   Preterm_birth=no   Sex=male   
   (   0.86   0.14))   % Food_diversity=sufficient   Animal_ownership=no   Water_source=other   Exclusive_breastfeeding=no   Cooking_fuel=biomass   Deworming=no   Toilet_access=yes   Pollution_birth=moderate   Preterm_birth=no   Sex=male   
   ((   0.773   0.227)   % Food_diversity=insufficient   Animal_ownership=yes   Water_source=other   Exclusive_breastfeeding=no   Cooking_fuel=biomass   Deworming=no   Toilet_access=yes   Pollution_birth=moderate   Preterm_birth=no   Sex=male   
   (   0.81   0.19))))   % Food_diversity=sufficient   Animal_ownership=yes   Water_source=other   Exclusive_breastfeeding=no   Cooking_fuel=biomass   Deworming=no   Toilet_access=yes   Pollution_birth=moderate   Preterm_birth=no   Sex=male   
   ((((   0.898   0.102)   % Food_diversity=insufficient   Animal_ownership=no   Water_source=protected   Exclusive_breastfeeding=yes   Cooking_fuel=biomass   Deworming=no   Toilet_access=yes   Pollution_birth=moderate   Preterm_birth=no   Sex=male   
   (   0.901   0.099))   % Food_diversity=sufficient   Animal_ownership=no   Water_source=protected   Exclusive_breastfeeding=yes   Cooking_fuel=biomass   Deworming=no   Toilet_access=yes   Pollution_birth=moderate   Preterm_birth=no   Sex=male   
   ((   0.85   0.15)   % Food_diversity=insufficient   Animal_ownership=yes   Water_source=protected   Exclusive_breastfeeding=yes   Cooking_fuel=biomass   Deworming=no   Toilet_access=yes   Pollution_birth=moderate   Preterm_birth=no   Sex=male   
   (   0.874   0.126)))   % Food_diversity=sufficient   Animal_ownership=yes   Water_source=protected   Exclusive_breastfeeding=yes   Cooking_fuel=biomass   Deworming=no   Toilet_access=yes   Pollution_birth=moderate   Preterm_birth=no   Sex=male   
   (((   0.834   0.166)   % Food_diversity=insufficient   Animal_ownership=no   Water_source=unprotected   Exclusive_breastfeeding=yes   Cooking_fuel=biomass   Deworming=no   Toilet_access=yes   Pollution_birth=moderate   Preterm_birth=no   Sex=male   
   (   0.865   0.135))   % Food_diversity=sufficient   Animal_ownership=no   Water_source=unprotected   Exclusive_breastfeeding=yes   Cooking_fuel=biomass   Deworming=no   Toilet_access=yes   Pollution_birth=moderate   Preterm_birth=no   Sex=male   
   ((   0.781   0.219)   % Food_diversity=insufficient   Animal_ownership=yes   Water_source=unprotected   Exclusive_breastfeeding=yes   Cooking_fuel=biomass   Deworming=no   Toilet_access=yes   Pollution_birth=moderate   Preterm_birth=no   Sex=male   
   (   0.804   0.196)))   % Food_diversity=sufficient   Animal_ownership=yes   Water_source=unprotected   Exclusive_breastfeeding=yes   Cooking_fuel=biomass   Deworming=no   Toilet_access=yes   Pollution_birth=moderate   Preterm_birth=no   Sex=male   
   (((   0.867   0.133)   % Food_diversity=insufficient   Animal_ownership=no   Water_source=other   Exclusive_breastfeeding=yes   Cooking_fuel=biomass   Deworming=no   Toilet_access=yes   Pollution_birth=moderate   Preterm_birth=no   Sex=male   
   (   0.884   0.116))   % Food_diversity=sufficient   Animal_ownership=no   Water_source=other   Exclusive_breastfeeding=yes   Cooking_fuel=biomass   Deworming=no   Toilet_access=yes   Pollution_birth=moderate   Preterm_birth=no   Sex=male   
   ((   0.816   0.184)   % Food_diversity=insufficient   Animal_ownership=yes   Water_source=other   Exclusive_breastfeeding=yes   Cooking_fuel=biomass   Deworming=no   Toilet_access=yes   Pollution_birth=moderate   Preterm_birth=no   Sex=male   
   (   0.842   0.158))))))   % Food_diversity=sufficient   Animal_ownership=yes   Water_source=other   Exclusive_breastfeeding=yes   Cooking_fuel=biomass   Deworming=no   Toilet_access=yes   Pollution_birth=moderate   Preterm_birth=no   Sex=male   
   ((((((   0.782   0.218)   % Food_diversity=insufficient   Animal_ownership=no   Water_source=protected   Exclusive_breastfeeding=no   Cooking_fuel=other   Deworming=yes   Toilet_access=yes   Pollution_birth=moderate   Preterm_birth=no   Sex=male   
   (   0.812   0.188))   % Food_diversity=sufficient   Animal_ownership=no   Water_source=protected   Exclusive_breastfeeding=no   Cooking_fuel=other   Deworming=yes   Toilet_access=yes   Pollution_birth=moderate   Preterm_birth=no   Sex=male   
   ((   0.72   0.28)   % Food_diversity=insufficient   Animal_ownership=yes   Water_source=protected   Exclusive_breastfeeding=no   Cooking_fuel=other   Deworming=yes   Toilet_access=yes   Pollution_birth=moderate   Preterm_birth=no   Sex=male   
   (   0.753   0.247)))   % Food_diversity=sufficient   Animal_ownership=yes   Water_source=protected   Exclusive_breastfeeding=no   Cooking_fuel=other   Deworming=yes   Toilet_access=yes   Pollution_birth=moderate   Preterm_birth=no   Sex=male   
   (((   0.696   0.304)   % Food_diversity=insufficient   Animal_ownership=no   Water_source=unprotected   Exclusive_breastfeeding=no   Cooking_fuel=other   Deworming=yes   Toilet_access=yes   Pollution_birth=moderate   Preterm_birth=no   Sex=male   
   (   0.719   0.281))   % Food_diversity=sufficient   Animal_ownership=no   Water_source=unprotected   Exclusive_breastfeeding=no   Cooking_fuel=other   Deworming=yes   Toilet_access=yes   Pollution_birth=moderate   Preterm_birth=no   Sex=male   
   ((   0.62   0.38)   % Food_diversity=insufficient   Animal_ownership=yes   Water_source=unprotected   Exclusive_breastfeeding=no   Cooking_fuel=other   Deworming=yes   Toilet_access=yes   Pollution_birth=moderate   Preterm_birth=no   Sex=male   
   (   0.639   0.361)))   % Food_diversity=sufficient   Animal_ownership=yes   Water_source=unprotected   Exclusive_breastfeeding=no   Cooking_fuel=other   Deworming=yes   Toilet_access=yes   Pollution_birth=moderate   Preterm_birth=no   Sex=male   
   (((   0.744   0.256)   % Food_diversity=insufficient   Animal_ownership=no   Water_source=other   Exclusive_breastfeeding=no   Cooking_fuel=other   Deworming=yes   Toilet_access=yes   Pollution_birth=moderate   Preterm_birth=no   Sex=male   
   (   0.773   0.227))   % Food_diversity=sufficient   Animal_ownership=no   Water_source=other   Exclusive_breastfeeding=no   Cooking_fuel=other   Deworming=yes   Toilet_access=yes   Pollution_birth=moderate   Preterm_birth=no   Sex=male   
   ((   0.689   0.311)   % Food_diversity=insufficient   Animal_ownership=yes   Water_source=other   Exclusive_breastfeeding=no   Cooking_fuel=other   Deworming=yes   Toilet_access=yes   Pollution_birth=moderate   Preterm_birth=no   Sex=male   
   (   0.713   0.287))))   % Food_diversity=sufficient   Animal_ownership=yes   Water_source=other   Exclusive_breastfeeding=no   Cooking_fuel=other   Deworming=yes   Toilet_access=yes   Pollution_birth=moderate   Preterm_birth=no   Sex=male   
   ((((   0.824   0.176)   % Food_diversity=insufficient   Animal_ownership=no   Water_source=protected   Exclusive_breastfeeding=yes   Cooking_fuel=other   Deworming=yes   Toilet_access=yes   Pollution_birth=moderate   Preterm_birth=no   Sex=male   
   (   0.84   0.16))   % Food_diversity=sufficient   Animal_ownership=no   Water_source=protected   Exclusive_breastfeeding=yes   Cooking_fuel=other   Deworming=yes   Toilet_access=yes   Pollution_birth=moderate   Preterm_birth=no   Sex=male   
   ((   0.756   0.244)   % Food_diversity=insufficient   Animal_ownership=yes   Water_source=protected   Exclusive_breastfeeding=yes   Cooking_fuel=other   Deworming=yes   Toilet_access=yes   Pollution_birth=moderate   Preterm_birth=no   Sex=male   
   (   0.787   0.213)))   % Food_diversity=sufficient   Animal_ownership=yes   Water_source=protected   Exclusive_breastfeeding=yes   Cooking_fuel=other   Deworming=yes   Toilet_access=yes   Pollution_birth=moderate   Preterm_birth=no   Sex=male   
   (((   0.731   0.269)   % Food_diversity=insufficient   Animal_ownership=no   Water_source=unprotected   Exclusive_breastfeeding=yes   Cooking_fuel=other   Deworming=yes   Toilet_access=yes   Pollution_birth=moderate   Preterm_birth=no   Sex=male   
   (   0.768   0.232))   % Food_diversity=sufficient   Animal_ownership=no   Water_source=unprotected   Exclusive_breastfeeding=yes   Cooking_fuel=other   Deworming=yes   Toilet_access=yes   Pollution_birth=moderate   Preterm_birth=no   Sex=male   
   ((   0.668   0.332)   % Food_diversity=insufficient   Animal_ownership=yes   Water_source=unprotected   Exclusive_breastfeeding=yes   Cooking_fuel=other   Deworming=yes   Toilet_access=yes   Pollution_birth=moderate   Preterm_birth=no   Sex=male   
   (   0.687   0.313)))   % Food_diversity=sufficient   Animal_ownership=yes   Water_source=unprotected   Exclusive_breastfeeding=yes   Cooking_fuel=other   Deworming=yes   Toilet_access=yes   Pollution_birth=moderate   Preterm_birth=no   Sex=male   
   (((   0.788   0.212)   % Food_diversity=insufficient   Animal_ownership=no   Water_source=other   Exclusive_breastfeeding=yes   Cooking_fuel=other   Deworming=yes   Toilet_access=yes   Pollution_birth=moderate   Preterm_birth=no   Sex=male   
   (   0.817   0.183))   % Food_diversity=sufficient   Animal_ownership=no   Water_source=other   Exclusive_breastfeeding=yes   Cooking_fuel=other   Deworming=yes   Toilet_access=yes   Pollution_birth=moderate   Preterm_birth=no   Sex=male   
   ((   0.719   0.281)   % Food_diversity=insufficient   Animal_ownership=yes   Water_source=other   Exclusive_breastfeeding=yes   Cooking_fuel=other   Deworming=yes   Toilet_access=yes   Pollution_birth=moderate   Preterm_birth=no   Sex=male   
   (   0.752   0.248)))))   % Food_diversity=sufficient   Animal_ownership=yes   Water_source=other   Exclusive_breastfeeding=yes   Cooking_fuel=other   Deworming=yes   Toilet_access=yes   Pollution_birth=moderate   Preterm_birth=no   Sex=male   
   (((((   0.852   0.148)   % Food_diversity=insufficient   Animal_ownership=no   Water_source=protected   Exclusive_breastfeeding=no   Cooking_fuel=biomass   Deworming=yes   Toilet_access=yes   Pollution_birth=moderate   Preterm_birth=no   Sex=male   
   (   0.873   0.127))   % Food_diversity=sufficient   Animal_ownership=no   Water_source=protected   Exclusive_breastfeeding=no   Cooking_fuel=biomass   Deworming=yes   Toilet_access=yes   Pollution_birth=moderate   Preterm_birth=no   Sex=male   
   ((   0.795   0.205)   % Food_diversity=insufficient   Animal_ownership=yes   Water_source=protected   Exclusive_breastfeeding=no   Cooking_fuel=biomass   Deworming=yes   Toilet_access=yes   Pollution_birth=moderate   Preterm_birth=no   Sex=male   
   (   0.819   0.181)))   % Food_diversity=sufficient   Animal_ownership=yes   Water_source=protected   Exclusive_breastfeeding=no   Cooking_fuel=biomass   Deworming=yes   Toilet_access=yes   Pollution_birth=moderate   Preterm_birth=no   Sex=male   
   (((   0.779   0.221)   % Food_diversity=insufficient   Animal_ownership=no   Water_source=unprotected   Exclusive_breastfeeding=no   Cooking_fuel=biomass   Deworming=yes   Toilet_access=yes   Pollution_birth=moderate   Preterm_birth=no   Sex=male   
   (   0.805   0.195))   % Food_diversity=sufficient   Animal_ownership=no   Water_source=unprotected   Exclusive_breastfeeding=no   Cooking_fuel=biomass   Deworming=yes   Toilet_access=yes   Pollution_birth=moderate   Preterm_birth=no   Sex=male   
   ((   0.706   0.294)   % Food_diversity=insufficient   Animal_ownership=yes   Water_source=unprotected   Exclusive_breastfeeding=no   Cooking_fuel=biomass   Deworming=yes   Toilet_access=yes   Pollution_birth=moderate   Preterm_birth=no   Sex=male   
   (   0.741   0.259)))   % Food_diversity=sufficient   Animal_ownership=yes   Water_source=unprotected   Exclusive_breastfeeding=no   Cooking_fuel=biomass   Deworming=yes   Toilet_access=yes   Pollution_birth=moderate   Preterm_birth=no   Sex=male   
   (((   0.815   0.185)   % Food_diversity=insufficient   Animal_ownership=no   Water_source=other   Exclusive_breastfeeding=no   Cooking_fuel=biomass   Deworming=yes   Toilet_access=yes   Pollution_birth=moderate   Preterm_birth=no   Sex=male   
   (   0.847   0.153))   % Food_diversity=sufficient   Animal_ownership=no   Water_source=other   Exclusive_breastfeeding=no   Cooking_fuel=biomass   Deworming=yes   Toilet_access=yes   Pollution_birth=moderate   Preterm_birth=no   Sex=male   
   ((   0.759   0.241)   % Food_diversity=insufficient   Animal_ownership=yes   Water_source=other   Exclusive_breastfeeding=no   Cooking_fuel=biomass   Deworming=yes   Toilet_access=yes   Pollution_birth=moderate   Preterm_birth=no   Sex=male   
   (   0.79   0.21))))   % Food_diversity=sufficient   Animal_ownership=yes   Water_source=other   Exclusive_breastfeeding=no   Cooking_fuel=biomass   Deworming=yes   Toilet_access=yes   Pollution_birth=moderate   Preterm_birth=no   Sex=male   
