
net {
  name = unnamedBN;
  software = "aGrUM 1.5.1";
  node_size = (50 50);
}

node Socio_economic_status {
   states = (poorest poorer middle richer richest );
   label = "Socio_economic_status";
   ID = "Socio_economic_status";
}

node HH_crowding {
   states = (btw0a2 greatereq3 );
   label = "HH_crowding";
   ID = "HH_crowding";
}

node Exclusive_breastfeeding {
   states = (no yes );
   label = "Exclusive_breastfeeding";
   ID = "Exclusive_breastfeeding";
}

node Maternal_education {
   states = (none primary secondary higher );
   label = "Maternal_education";
   ID = "Maternal_education";
}

node Maternal_employment {
   states = (unemployed agriculture other );
   label = "Maternal_employment";
   ID = "Maternal_employment";
}

node Preterm_birth {
   states = (no yes );
   label = "Preterm_birth";
   ID = "Preterm_birth";
}

node ANC {
   states = (none btw1a3 great4 );
   label = "ANC";
   ID = "ANC";
}

node Maternal_age {
   states = (younger17 btw17and19 older19 );
   label = "Maternal_age";
   ID = "Maternal_age";
}

node Stunting {
   states = (no yes );
   label = "Stunting";
   ID = "Stunting";
}

node Sex {
   states = (male female );
   label = "Sex";
   ID = "Sex";
}

node Cooking_fuel {
   states = (other biomass );
   label = "Cooking_fuel";
   ID = "Cooking_fuel";
}

node Pollution_birth {
   states = (minor moderate high extreme );
   label = "Pollution_birth";
   ID = "Pollution_birth";
}

node Water_source {
   states = (protected unprotected other );
   label = "Water_source";
   ID = "Water_source";
}

node Toilet_access {
   states = (no yes );
   label = "Toilet_access";
   ID = "Toilet_access";
}

node Animal_ownership {
   states = (no yes );
   label = "Animal_ownership";
   ID = "Animal_ownership";
}

node Deworming {
   states = (no yes );
   label = "Deworming";
   ID = "Deworming";
}

node Food_diversity {
   states = (insufficient sufficient );
   label = "Food_diversity";
   ID = "Food_diversity";
}

potential (Socio_economic_status) {
   data = (  0.244915 0.219892 0.206258 0.170001 0.158934);
}

potential (HH_crowding) {
   data = (  0.556841 0.443159);
}

potential ( Exclusive_breastfeeding | ANC   Maternal_employment   Maternal_education   ) {
   data = 
   ((((   0.135612   0.864388)   % Maternal_education=none   Maternal_employment=unemployed   ANC=none   
   (   0.439742   0.560258)   % Maternal_education=primary   Maternal_employment=unemployed   ANC=none   
   (   0.216223   0.783777)   % Maternal_education=secondary   Maternal_employment=unemployed   ANC=none   
   (   0.366178   0.633822))   % Maternal_education=higher   Maternal_employment=unemployed   ANC=none   
   ((   0.0746013   0.925399)   % Maternal_education=none   Maternal_employment=agriculture   ANC=none   
   (   0.0579848   0.942015)   % Maternal_education=primary   Maternal_employment=agriculture   ANC=none   
   (   0.72708   0.27292)   % Maternal_education=secondary   Maternal_employment=agriculture   ANC=none   
   (   0.5   0.5))   % Maternal_education=higher   Maternal_employment=agriculture   ANC=none   
   ((   0.0385962   0.961404)   % Maternal_education=none   Maternal_employment=other   ANC=none   
   (   0.25539   0.74461)   % Maternal_education=primary   Maternal_employment=other   ANC=none   
   (   0.512174   0.487826)   % Maternal_education=secondary   Maternal_employment=other   ANC=none   
   (   0.216734   0.783266)))   % Maternal_education=higher   Maternal_employment=other   ANC=none   
   (((   0.0423152   0.957685)   % Maternal_education=none   Maternal_employment=unemployed   ANC=btw1a3   
   (   0.0256144   0.974386)   % Maternal_education=primary   Maternal_employment=unemployed   ANC=btw1a3   
   (   0.0151062   0.984894)   % Maternal_education=secondary   Maternal_employment=unemployed   ANC=btw1a3   
   (   0.0355916   0.964408))   % Maternal_education=higher   Maternal_employment=unemployed   ANC=btw1a3   
   ((   0.0254286   0.974571)   % Maternal_education=none   Maternal_employment=agriculture   ANC=btw1a3   
   (   0.0247567   0.975243)   % Maternal_education=primary   Maternal_employment=agriculture   ANC=btw1a3   
   (   0.0229184   0.977082)   % Maternal_education=secondary   Maternal_employment=agriculture   ANC=btw1a3   
   (   0.5   0.5))   % Maternal_education=higher   Maternal_employment=agriculture   ANC=btw1a3   
   ((   0.0221058   0.977894)   % Maternal_education=none   Maternal_employment=other   ANC=btw1a3   
   (   0.0226721   0.977328)   % Maternal_education=primary   Maternal_employment=other   ANC=btw1a3   
   (   0.0410155   0.958984)   % Maternal_education=secondary   Maternal_employment=other   ANC=btw1a3   
   (   0.0351158   0.964884)))   % Maternal_education=higher   Maternal_employment=other   ANC=btw1a3   
   (((   0.0205974   0.979403)   % Maternal_education=none   Maternal_employment=unemployed   ANC=great4   
   (   0.0247812   0.975219)   % Maternal_education=primary   Maternal_employment=unemployed   ANC=great4   
   (   0.00999995   0.99)   % Maternal_education=secondary   Maternal_employment=unemployed   ANC=great4   
   (   0.00489675   0.995103))   % Maternal_education=higher   Maternal_employment=unemployed   ANC=great4   
   ((   0.0158878   0.984112)   % Maternal_education=none   Maternal_employment=agriculture   ANC=great4   
   (   0.0579747   0.942025)   % Maternal_education=primary   Maternal_employment=agriculture   ANC=great4   
   (   0.0224288   0.977571)   % Maternal_education=secondary   Maternal_employment=agriculture   ANC=great4   
   (   0.5   0.5))   % Maternal_education=higher   Maternal_employment=agriculture   ANC=great4   
   ((   0.022858   0.977142)   % Maternal_education=none   Maternal_employment=other   ANC=great4   
   (   0.0027194   0.99728)   % Maternal_education=primary   Maternal_employment=other   ANC=great4   
   (   0.0169527   0.983047)   % Maternal_education=secondary   Maternal_employment=other   ANC=great4   
   (   0.000990914   0.999009))));   % Maternal_education=higher   Maternal_employment=other   ANC=great4   
}

potential ( Maternal_education | Socio_economic_status   ) {
   data = 
   ((   0.82044   0.131152   0.0466265   0.00178156)   % Socio_economic_status=poorest   
   (   0.742268   0.16273   0.0924836   0.00251863)   % Socio_economic_status=poorer   
   (   0.632882   0.232074   0.130287   0.00475697)   % Socio_economic_status=middle   
   (   0.471763   0.325604   0.177331   0.0253007)   % Socio_economic_status=richer   
   (   0.262874   0.335672   0.295821   0.105633));   % Socio_economic_status=richest   
}

potential (Maternal_employment) {
   data = (  0.391681 0.22357 0.384749);
}

potential ( Preterm_birth | ANC   Maternal_age   ) {
   data = 
   (((   0.969785   0.0302152)   % Maternal_age=younger17   ANC=none   
   (   0.953047   0.0469535)   % Maternal_age=btw17and19   ANC=none   
   (   0.916472   0.0835281))   % Maternal_age=older19   ANC=none   
   ((   0.985699   0.0143006)   % Maternal_age=younger17   ANC=btw1a3   
   (   0.985585   0.0144146)   % Maternal_age=btw17and19   ANC=btw1a3   
   (   0.984561   0.0154389))   % Maternal_age=older19   ANC=btw1a3   
   ((   0.989941   0.0100588)   % Maternal_age=younger17   ANC=great4   
   (   0.987592   0.0124077)   % Maternal_age=btw17and19   ANC=great4   
   (   0.987327   0.0126726)));   % Maternal_age=older19   ANC=great4   
}

potential (ANC) {
   data = (  0.0209936 0.399739 0.579268);
}

potential (Maternal_age) {
   data = (  0.163864 0.329024 0.507111);
}

potential ( Stunting | Sex   Preterm_birth   Pollution_birth   Toilet_access   Deworming   Cooking_fuel   Exclusive_breastfeeding   Water_source   Animal_ownership   Food_diversity   ) {
   data = 
   (((((((((((   0.817   0.183)   % Food_diversity=insufficient   Animal_ownership=no   Water_source=protected   Exclusive_breastfeeding=no   Cooking_fuel=other   Deworming=no   Toilet_access=no   Pollution_birth=minor   Preterm_birth=no   Sex=male   
   (   0.833   0.167))   % Food_diversity=sufficient   Animal_ownership=no   Water_source=protected   Exclusive_breastfeeding=no   Cooking_fuel=other   Deworming=no   Toilet_access=no   Pollution_birth=minor   Preterm_birth=no   Sex=male   
   ((   0.733   0.267)   % Food_diversity=insufficient   Animal_ownership=yes   Water_source=protected   Exclusive_breastfeeding=no   Cooking_fuel=other   Deworming=no   Toilet_access=no   Pollution_birth=minor   Preterm_birth=no   Sex=male   
   (   0.754   0.246)))   % Food_diversity=sufficient   Animal_ownership=yes   Water_source=protected   Exclusive_breastfeeding=no   Cooking_fuel=other   Deworming=no   Toilet_access=no   Pollution_birth=minor   Preterm_birth=no   Sex=male   
   (((   0.695   0.305)   % Food_diversity=insufficient   Animal_ownership=no   Water_source=unprotected   Exclusive_breastfeeding=no   Cooking_fuel=other   Deworming=no   Toilet_access=no   Pollution_birth=minor   Preterm_birth=no   Sex=male   
   (   0.718   0.282))   % Food_diversity=sufficient   Animal_ownership=no   Water_source=unprotected   Exclusive_breastfeeding=no   Cooking_fuel=other   Deworming=no   Toilet_access=no   Pollution_birth=minor   Preterm_birth=no   Sex=male   
   ((   0.585   0.415)   % Food_diversity=insufficient   Animal_ownership=yes   Water_source=unprotected   Exclusive_breastfeeding=no   Cooking_fuel=other   Deworming=no   Toilet_access=no   Pollution_birth=minor   Preterm_birth=no   Sex=male   
   (   0.612   0.388)))   % Food_diversity=sufficient   Animal_ownership=yes   Water_source=unprotected   Exclusive_breastfeeding=no   Cooking_fuel=other   Deworming=no   Toilet_access=no   Pollution_birth=minor   Preterm_birth=no   Sex=male   
   (((   0.741   0.259)   % Food_diversity=insufficient   Animal_ownership=no   Water_source=other   Exclusive_breastfeeding=no   Cooking_fuel=other   Deworming=no   Toilet_access=no   Pollution_birth=minor   Preterm_birth=no   Sex=male   
   (   0.761   0.239))   % Food_diversity=sufficient   Animal_ownership=no   Water_source=other   Exclusive_breastfeeding=no   Cooking_fuel=other   Deworming=no   Toilet_access=no   Pollution_birth=minor   Preterm_birth=no   Sex=male   
   ((   0.645   0.355)   % Food_diversity=insufficient   Animal_ownership=yes   Water_source=other   Exclusive_breastfeeding=no   Cooking_fuel=other   Deworming=no   Toilet_access=no   Pollution_birth=minor   Preterm_birth=no   Sex=male   
   (   0.669   0.331))))   % Food_diversity=sufficient   Animal_ownership=yes   Water_source=other   Exclusive_breastfeeding=no   Cooking_fuel=other   Deworming=no   Toilet_access=no   Pollution_birth=minor   Preterm_birth=no   Sex=male   
   ((((   0.884   0.116)   % Food_diversity=insufficient   Animal_ownership=no   Water_source=protected   Exclusive_breastfeeding=yes   Cooking_fuel=other   Deworming=no   Toilet_access=no   Pollution_birth=minor   Preterm_birth=no   Sex=male   
   (   0.895   0.105))   % Food_diversity=sufficient   Animal_ownership=no   Water_source=protected   Exclusive_breastfeeding=yes   Cooking_fuel=other   Deworming=no   Toilet_access=no   Pollution_birth=minor   Preterm_birth=no   Sex=male   
   ((   0.823   0.177)   % Food_diversity=insufficient   Animal_ownership=yes   Water_source=protected   Exclusive_breastfeeding=yes   Cooking_fuel=other   Deworming=no   Toilet_access=no   Pollution_birth=minor   Preterm_birth=no   Sex=male   
   (   0.839   0.161)))   % Food_diversity=sufficient   Animal_ownership=yes   Water_source=protected   Exclusive_breastfeeding=yes   Cooking_fuel=other   Deworming=no   Toilet_access=no   Pollution_birth=minor   Preterm_birth=no   Sex=male   
   (((   0.794   0.206)   % Food_diversity=insufficient   Animal_ownership=no   Water_source=unprotected   Exclusive_breastfeeding=yes   Cooking_fuel=other   Deworming=no   Toilet_access=no   Pollution_birth=minor   Preterm_birth=no   Sex=male   
   (   0.811   0.189))   % Food_diversity=sufficient   Animal_ownership=no   Water_source=unprotected   Exclusive_breastfeeding=yes   Cooking_fuel=other   Deworming=no   Toilet_access=no   Pollution_birth=minor   Preterm_birth=no   Sex=male   
   ((   0.702   0.298)   % Food_diversity=insufficient   Animal_ownership=yes   Water_source=unprotected   Exclusive_breastfeeding=yes   Cooking_fuel=other   Deworming=no   Toilet_access=no   Pollution_birth=minor   Preterm_birth=no   Sex=male   
   (   0.725   0.275)))   % Food_diversity=sufficient   Animal_ownership=yes   Water_source=unprotected   Exclusive_breastfeeding=yes   Cooking_fuel=other   Deworming=no   Toilet_access=no   Pollution_birth=minor   Preterm_birth=no   Sex=male   
   (((   0.824   0.176)   % Food_diversity=insufficient   Animal_ownership=no   Water_source=other   Exclusive_breastfeeding=yes   Cooking_fuel=other   Deworming=no   Toilet_access=no   Pollution_birth=minor   Preterm_birth=no   Sex=male   
   (   0.839   0.161))   % Food_diversity=sufficient   Animal_ownership=no   Water_source=other   Exclusive_breastfeeding=yes   Cooking_fuel=other   Deworming=no   Toilet_access=no   Pollution_birth=minor   Preterm_birth=no   Sex=male   
   ((   0.747   0.253)   % Food_diversity=insufficient   Animal_ownership=yes   Water_source=other   Exclusive_breastfeeding=yes   Cooking_fuel=other   Deworming=no   Toilet_access=no   Pollution_birth=minor   Preterm_birth=no   Sex=male   
   (   0.766   0.234)))))   % Food_diversity=sufficient   Animal_ownership=yes   Water_source=other   Exclusive_breastfeeding=yes   Cooking_fuel=other   Deworming=no   Toilet_access=no   Pollution_birth=minor   Preterm_birth=no   Sex=male   
   (((((   0.869   0.131)   % Food_diversity=insufficient   Animal_ownership=no   Water_source=protected   Exclusive_breastfeeding=no   Cooking_fuel=biomass   Deworming=no   Toilet_access=no   Pollution_birth=minor   Preterm_birth=no   Sex=male   
   (   0.881   0.119))   % Food_diversity=sufficient   Animal_ownership=no   Water_source=protected   Exclusive_breastfeeding=no   Cooking_fuel=biomass   Deworming=no   Toilet_access=no   Pollution_birth=minor   Preterm_birth=no   Sex=male   
   ((   0.802   0.198)   % Food_diversity=insufficient   Animal_ownership=yes   Water_source=protected   Exclusive_breastfeeding=no   Cooking_fuel=biomass   Deworming=no   Toilet_access=no   Pollution_birth=minor   Preterm_birth=no   Sex=male   
   (   0.819   0.181)))   % Food_diversity=sufficient   Animal_ownership=yes   Water_source=protected   Exclusive_breastfeeding=no   Cooking_fuel=biomass   Deworming=no   Toilet_access=no   Pollution_birth=minor   Preterm_birth=no   Sex=male   
   (((   0.771   0.229)   % Food_diversity=insufficient   Animal_ownership=no   Water_source=unprotected   Exclusive_breastfeeding=no   Cooking_fuel=biomass   Deworming=no   Toilet_access=no   Pollution_birth=minor   Preterm_birth=no   Sex=male   
   (   0.79   0.21))   % Food_diversity=sufficient   Animal_ownership=no   Water_source=unprotected   Exclusive_breastfeeding=no   Cooking_fuel=biomass   Deworming=no   Toilet_access=no   Pollution_birth=minor   Preterm_birth=no   Sex=male   
   ((   0.675   0.325)   % Food_diversity=insufficient   Animal_ownership=yes   Water_source=unprotected   Exclusive_breastfeeding=no   Cooking_fuel=biomass   Deworming=no   Toilet_access=no   Pollution_birth=minor   Preterm_birth=no   Sex=male   
   (   0.699   0.301)))   % Food_diversity=sufficient   Animal_ownership=yes   Water_source=unprotected   Exclusive_breastfeeding=no   Cooking_fuel=biomass   Deworming=no   Toilet_access=no   Pollution_birth=minor   Preterm_birth=no   Sex=male   
   (((   0.806   0.194)   % Food_diversity=insufficient   Animal_ownership=no   Water_source=other   Exclusive_breastfeeding=no   Cooking_fuel=biomass   Deworming=no   Toilet_access=no   Pollution_birth=minor   Preterm_birth=no   Sex=male   
   (   0.822   0.178))   % Food_diversity=sufficient   Animal_ownership=no   Water_source=other   Exclusive_breastfeeding=no   Cooking_fuel=biomass   Deworming=no   Toilet_access=no   Pollution_birth=minor   Preterm_birth=no   Sex=male   
   ((   0.724   0.276)   % Food_diversity=insufficient   Animal_ownership=yes   Water_source=other   Exclusive_breastfeeding=no   Cooking_fuel=biomass   Deworming=no   Toilet_access=no   Pollution_birth=minor   Preterm_birth=no   Sex=male   
   (   0.744   0.256))))   % Food_diversity=sufficient   Animal_ownership=yes   Water_source=other   Exclusive_breastfeeding=no   Cooking_fuel=biomass   Deworming=no   Toilet_access=no   Pollution_birth=minor   Preterm_birth=no   Sex=male   
   ((((   0.919   0.081)   % Food_diversity=insufficient   Animal_ownership=no   Water_source=protected   Exclusive_breastfeeding=yes   Cooking_fuel=biomass   Deworming=no   Toilet_access=no   Pollution_birth=minor   Preterm_birth=no   Sex=male   
   (   0.927   0.073))   % Food_diversity=sufficient   Animal_ownership=no   Water_source=protected   Exclusive_breastfeeding=yes   Cooking_fuel=biomass   Deworming=no   Toilet_access=no   Pollution_birth=minor   Preterm_birth=no   Sex=male   
   ((   0.874   0.126)   % Food_diversity=insufficient   Animal_ownership=yes   Water_source=protected   Exclusive_breastfeeding=yes   Cooking_fuel=biomass   Deworming=no   Toilet_access=no   Pollution_birth=minor   Preterm_birth=no   Sex=male   
   (   0.885   0.115)))   % Food_diversity=sufficient   Animal_ownership=yes   Water_source=protected   Exclusive_breastfeeding=yes   Cooking_fuel=biomass   Deworming=no   Toilet_access=no   Pollution_birth=minor   Preterm_birth=no   Sex=male   
   (((   0.851   0.149)   % Food_diversity=insufficient   Animal_ownership=no   Water_source=unprotected   Exclusive_breastfeeding=yes   Cooking_fuel=biomass   Deworming=no   Toilet_access=no   Pollution_birth=minor   Preterm_birth=no   Sex=male   
   (   0.865   0.135))   % Food_diversity=sufficient   Animal_ownership=no   Water_source=unprotected   Exclusive_breastfeeding=yes   Cooking_fuel=biomass   Deworming=no   Toilet_access=no   Pollution_birth=minor   Preterm_birth=no   Sex=male   
   ((   0.778   0.222)   % Food_diversity=insufficient   Animal_ownership=yes   Water_source=unprotected   Exclusive_breastfeeding=yes   Cooking_fuel=biomass   Deworming=no   Toilet_access=no   Pollution_birth=minor   Preterm_birth=no   Sex=male   
   (   0.797   0.203)))   % Food_diversity=sufficient   Animal_ownership=yes   Water_source=unprotected   Exclusive_breastfeeding=yes   Cooking_fuel=biomass   Deworming=no   Toilet_access=no   Pollution_birth=minor   Preterm_birth=no   Sex=male   
   (((   0.873   0.127)   % Food_diversity=insufficient   Animal_ownership=no   Water_source=other   Exclusive_breastfeeding=yes   Cooking_fuel=biomass   Deworming=no   Toilet_access=no   Pollution_birth=minor   Preterm_birth=no   Sex=male   
   (   0.884   0.116))   % Food_diversity=sufficient   Animal_ownership=no   Water_source=other   Exclusive_breastfeeding=yes   Cooking_fuel=biomass   Deworming=no   Toilet_access=no   Pollution_birth=minor   Preterm_birth=no   Sex=male   
   ((   0.811   0.189)   % Food_diversity=insufficient   Animal_ownership=yes   Water_source=other   Exclusive_breastfeeding=yes   Cooking_fuel=biomass   Deworming=no   Toilet_access=no   Pollution_birth=minor   Preterm_birth=no   Sex=male   
   (   0.827   0.173))))))   % Food_diversity=sufficient   Animal_ownership=yes   Water_source=other   Exclusive_breastfeeding=yes   Cooking_fuel=biomass   Deworming=no   Toilet_access=no   Pollution_birth=minor   Preterm_birth=no   Sex=male   
   ((((((   0.795   0.205)   % Food_diversity=insufficient   Animal_ownership=no   Water_source=protected   Exclusive_breastfeeding=no   Cooking_fuel=other   Deworming=yes   Toilet_access=no   Pollution_birth=minor   Preterm_birth=no   Sex=male   
   (   0.813   0.187))   % Food_diversity=sufficient   Animal_ownership=no   Water_source=protected   Exclusive_breastfeeding=no   Cooking_fuel=other   Deworming=yes   Toilet_access=no   Pollution_birth=minor   Preterm_birth=no   Sex=male   
   ((   0.705   0.295)   % Food_diversity=insufficient   Animal_ownership=yes   Water_source=protected   Exclusive_breastfeeding=no   Cooking_fuel=other   Deworming=yes   Toilet_access=no   Pollution_birth=minor   Preterm_birth=no   Sex=male   
   (   0.728   0.272)))   % Food_diversity=sufficient   Animal_ownership=yes   Water_source=protected   Exclusive_breastfeeding=no   Cooking_fuel=other   Deworming=yes   Toilet_access=no   Pollution_birth=minor   Preterm_birth=no   Sex=male   
   (((   0.665   0.335)   % Food_diversity=insufficient   Animal_ownership=no   Water_source=unprotected   Exclusive_breastfeeding=no   Cooking_fuel=other   Deworming=yes   Toilet_access=no   Pollution_birth=minor   Preterm_birth=no   Sex=male   
   (   0.69   0.31))   % Food_diversity=sufficient   Animal_ownership=no   Water_source=unprotected   Exclusive_breastfeeding=no   Cooking_fuel=other   Deworming=yes   Toilet_access=no   Pollution_birth=minor   Preterm_birth=no   Sex=male   
   ((   0.551   0.449)   % Food_diversity=insufficient   Animal_ownership=yes   Water_source=unprotected   Exclusive_breastfeeding=no   Cooking_fuel=other   Deworming=yes   Toilet_access=no   Pollution_birth=minor   Preterm_birth=no   Sex=male   
   (   0.579   0.421)))   % Food_diversity=sufficient   Animal_ownership=yes   Water_source=unprotected   Exclusive_breastfeeding=no   Cooking_fuel=other   Deworming=yes   Toilet_access=no   Pollution_birth=minor   Preterm_birth=no   Sex=male   
   (((   0.715   0.285)   % Food_diversity=insufficient   Animal_ownership=no   Water_source=other   Exclusive_breastfeeding=no   Cooking_fuel=other   Deworming=yes   Toilet_access=no   Pollution_birth=minor   Preterm_birth=no   Sex=male   
   (   0.736   0.264))   % Food_diversity=sufficient   Animal_ownership=no   Water_source=other   Exclusive_breastfeeding=no   Cooking_fuel=other   Deworming=yes   Toilet_access=no   Pollution_birth=minor   Preterm_birth=no   Sex=male   
   ((   0.615   0.385)   % Food_diversity=insufficient   Animal_ownership=yes   Water_source=other   Exclusive_breastfeeding=no   Cooking_fuel=other   Deworming=yes   Toilet_access=no   Pollution_birth=minor   Preterm_birth=no   Sex=male   
   (   0.64   0.36))))   % Food_diversity=sufficient   Animal_ownership=yes   Water_source=other   Exclusive_breastfeeding=no   Cooking_fuel=other   Deworming=yes   Toilet_access=no   Pollution_birth=minor   Preterm_birth=no   Sex=male   
   ((((   0.868   0.132)   % Food_diversity=insufficient   Animal_ownership=no   Water_source=protected   Exclusive_breastfeeding=yes   Cooking_fuel=other   Deworming=yes   Toilet_access=no   Pollution_birth=minor   Preterm_birth=no   Sex=male   
   (   0.881   0.119))   % Food_diversity=sufficient   Animal_ownership=no   Water_source=protected   Exclusive_breastfeeding=yes   Cooking_fuel=other   Deworming=yes   Toilet_access=no   Pollution_birth=minor   Preterm_birth=no   Sex=male   
   ((   0.802   0.198)   % Food_diversity=insufficient   Animal_ownership=yes   Water_source=protected   Exclusive_breastfeeding=yes   Cooking_fuel=other   Deworming=yes   Toilet_access=no   Pollution_birth=minor   Preterm_birth=no   Sex=male   
   (   0.819   0.181)))   % Food_diversity=sufficient   Animal_ownership=yes   Water_source=protected   Exclusive_breastfeeding=yes   Cooking_fuel=other   Deworming=yes   Toilet_access=no   Pollution_birth=minor   Preterm_birth=no   Sex=male   
   (((   0.77   0.23)   % Food_diversity=insufficient   Animal_ownership=no   Water_source=unprotected   Exclusive_breastfeeding=yes   Cooking_fuel=other   Deworming=yes   Toilet_access=no   Pollution_birth=minor   Preterm_birth=no   Sex=male   
   (   0.789   0.211))   % Food_diversity=sufficient   Animal_ownership=no   Water_source=unprotected   Exclusive_breastfeeding=yes   Cooking_fuel=other   Deworming=yes   Toilet_access=no   Pollution_birth=minor   Preterm_birth=no   Sex=male   
   ((   0.672   0.328)   % Food_diversity=insufficient   Animal_ownership=yes   Water_source=unprotected   Exclusive_breastfeeding=yes   Cooking_fuel=other   Deworming=yes   Toilet_access=no   Pollution_birth=minor   Preterm_birth=no   Sex=male   
   (   0.696   0.304)))   % Food_diversity=sufficient   Animal_ownership=yes   Water_source=unprotected   Exclusive_breastfeeding=yes   Cooking_fuel=other   Deworming=yes   Toilet_access=no   Pollution_birth=minor   Preterm_birth=no   Sex=male   
   (((   0.804   0.196)   % Food_diversity=insufficient   Animal_ownership=no   Water_source=other   Exclusive_breastfeeding=yes   Cooking_fuel=other   Deworming=yes   Toilet_access=no   Pollution_birth=minor   Preterm_birth=no   Sex=male   
   (   0.821   0.179))   % Food_diversity=sufficient   Animal_ownership=no   Water_source=other   Exclusive_breastfeeding=yes   Cooking_fuel=other   Deworming=yes   Toilet_access=no   Pollution_birth=minor   Preterm_birth=no   Sex=male   
   ((   0.721   0.279)   % Food_diversity=insufficient   Animal_ownership=yes   Water_source=other   Exclusive_breastfeeding=yes   Cooking_fuel=other   Deworming=yes   Toilet_access=no   Pollution_birth=minor   Preterm_birth=no   Sex=male   
   (   0.742   0.258)))))   % Food_diversity=sufficient   Animal_ownership=yes   Water_source=other   Exclusive_breastfeeding=yes   Cooking_fuel=other   Deworming=yes   Toilet_access=no   Pollution_birth=minor   Preterm_birth=no   Sex=male   
   (((((   0.852   0.148)   % Food_diversity=insufficient   Animal_ownership=no   Water_source=protected   Exclusive_breastfeeding=no   Cooking_fuel=biomass   Deworming=yes   Toilet_access=no   Pollution_birth=minor   Preterm_birth=no   Sex=male   
   (   0.866   0.134))   % Food_diversity=sufficient   Animal_ownership=no   Water_source=protected   Exclusive_breastfeeding=no   Cooking_fuel=biomass   Deworming=yes   Toilet_access=no   Pollution_birth=minor   Preterm_birth=no   Sex=male   
   ((   0.779   0.221)   % Food_diversity=insufficient   Animal_ownership=yes   Water_source=protected   Exclusive_breastfeeding=no   Cooking_fuel=biomass   Deworming=yes   Toilet_access=no   Pollution_birth=minor   Preterm_birth=no   Sex=male   
   (   0.798   0.202)))   % Food_diversity=sufficient   Animal_ownership=yes   Water_source=protected   Exclusive_breastfeeding=no   Cooking_fuel=biomass   Deworming=yes   Toilet_access=no   Pollution_birth=minor   Preterm_birth=no   Sex=male   
   (((   0.746   0.254)   % Food_diversity=insufficient   Animal_ownership=no   Water_source=unprotected   Exclusive_breastfeeding=no   Cooking_fuel=biomass   Deworming=yes   Toilet_access=no   Pollution_birth=minor   Preterm_birth=no   Sex=male   
   (   0.767   0.233))   % Food_diversity=sufficient   Animal_ownership=no   Water_source=unprotected   Exclusive_breastfeeding=no   Cooking_fuel=biomass   Deworming=yes   Toilet_access=no   Pollution_birth=minor   Preterm_birth=no   Sex=male   
   ((   0.644   0.356)   % Food_diversity=insufficient   Animal_ownership=yes   Water_source=unprotected   Exclusive_breastfeeding=no   Cooking_fuel=biomass   Deworming=yes   Toilet_access=no   Pollution_birth=minor   Preterm_birth=no   Sex=male   
   (   0.67   0.33)))   % Food_diversity=sufficient   Animal_ownership=yes   Water_source=unprotected   Exclusive_breastfeeding=no   Cooking_fuel=biomass   Deworming=yes   Toilet_access=no   Pollution_birth=minor   Preterm_birth=no   Sex=male   
   (((   0.784   0.216)   % Food_diversity=insufficient   Animal_ownership=no   Water_source=other   Exclusive_breastfeeding=no   Cooking_fuel=biomass   Deworming=yes   Toilet_access=no   Pollution_birth=minor   Preterm_birth=no   Sex=male   
   (   0.802   0.198))   % Food_diversity=sufficient   Animal_ownership=no   Water_source=other   Exclusive_breastfeeding=no   Cooking_fuel=biomass   Deworming=yes   Toilet_access=no   Pollution_birth=minor   Preterm_birth=no   Sex=male   
   ((   0.697   0.303)   % Food_diversity=insufficient   Animal_ownership=yes   Water_source=other   Exclusive_breastfeeding=no   Cooking_fuel=biomass   Deworming=yes   Toilet_access=no   Pollution_birth=minor   Preterm_birth=no   Sex=male   
   (   0.719   0.281))))   % Food_diversity=sufficient   Animal_ownership=yes   Water_source=other   Exclusive_breastfeeding=no   Cooking_fuel=biomass   Deworming=yes   Toilet_access=no   Pollution_birth=minor   Preterm_birth=no   Sex=male   
   ((((   0.908   0.092)   % Food_diversity=insufficient   Animal_ownership=no   Water_source=protected   Exclusive_breastfeeding=yes   Cooking_fuel=biomass   Deworming=yes   Toilet_access=no   Pollution_birth=minor   Preterm_birth=no   Sex=male   
   (   0.917   0.083))   % Food_diversity=sufficient   Animal_ownership=no   Water_source=protected   Exclusive_breastfeeding=yes   Cooking_fuel=biomass   Deworming=yes   Toilet_access=no   Pollution_birth=minor   Preterm_birth=no   Sex=male   
   ((   0.857   0.143)   % Food_diversity=insufficient   Animal_ownership=yes   Water_source=protected   Exclusive_breastfeeding=yes   Cooking_fuel=biomass   Deworming=yes   Toilet_access=no   Pollution_birth=minor   Preterm_birth=no   Sex=male   
   (   0.871   0.129)))   % Food_diversity=sufficient   Animal_ownership=yes   Water_source=protected   Exclusive_breastfeeding=yes   Cooking_fuel=biomass   Deworming=yes   Toilet_access=no   Pollution_birth=minor   Preterm_birth=no   Sex=male   
   (((   0.832   0.168)   % Food_diversity=insufficient   Animal_ownership=no   Water_source=unprotected   Exclusive_breastfeeding=yes   Cooking_fuel=biomass   Deworming=yes   Toilet_access=no   Pollution_birth=minor   Preterm_birth=no   Sex=male   
   (   0.848   0.152))   % Food_diversity=sufficient   Animal_ownership=no   Water_source=unprotected   Exclusive_breastfeeding=yes   Cooking_fuel=biomass   Deworming=yes   Toilet_access=no   Pollution_birth=minor   Preterm_birth=no   Sex=male   
   ((   0.753   0.247)   % Food_diversity=insufficient   Animal_ownership=yes   Water_source=unprotected   Exclusive_breastfeeding=yes   Cooking_fuel=biomass   Deworming=yes   Toilet_access=no   Pollution_birth=minor   Preterm_birth=no   Sex=male   
   (   0.773   0.227)))   % Food_diversity=sufficient   Animal_ownership=yes   Water_source=unprotected   Exclusive_breastfeeding=yes   Cooking_fuel=biomass   Deworming=yes   Toilet_access=no   Pollution_birth=minor   Preterm_birth=no   Sex=male   
   (((   0.857   0.143)   % Food_diversity=insufficient   Animal_ownership=no   Water_source=other   Exclusive_breastfeeding=yes   Cooking_fuel=biomass   Deworming=yes   Toilet_access=no   Pollution_birth=minor   Preterm_birth=no   Sex=male   
   (   0.87   0.13))   % Food_diversity=sufficient   Animal_ownership=no   Water_source=other   Exclusive_breastfeeding=yes   Cooking_fuel=biomass   Deworming=yes   Toilet_access=no   Pollution_birth=minor   Preterm_birth=no   Sex=male   
   ((   0.79   0.21)   % Food_diversity=insufficient   Animal_ownership=yes   Water_source=other   Exclusive_breastfeeding=yes   Cooking_fuel=biomass   Deworming=yes   Toilet_access=no   Pollution_birth=minor   Preterm_birth=no   Sex=male   
   (   0.807   0.193)))))))   % Food_diversity=sufficient   Animal_ownership=yes   Water_source=other   Exclusive_breastfeeding=yes   Cooking_fuel=biomass   Deworming=yes   Toilet_access=no   Pollution_birth=minor   Preterm_birth=no   Sex=male   
   (((((((   0.803   0.197)   % Food_diversity=insufficient   Animal_ownership=no   Water_source=protected   Exclusive_breastfeeding=no   Cooking_fuel=other   Deworming=no   Toilet_access=yes   Pollution_birth=minor   Preterm_birth=no   Sex=male   
   (   0.82   0.18))   % Food_diversity=sufficient   Animal_ownership=no   Water_source=protected   Exclusive_breastfeeding=no   Cooking_fuel=other   Deworming=no   Toilet_access=yes   Pollution_birth=minor   Preterm_birth=no   Sex=male   
   ((   0.715   0.285)   % Food_diversity=insufficient   Animal_ownership=yes   Water_source=protected   Exclusive_breastfeeding=no   Cooking_fuel=other   Deworming=no   Toilet_access=yes   Pollution_birth=minor   Preterm_birth=no   Sex=male   
   (   0.737   0.263)))   % Food_diversity=sufficient   Animal_ownership=yes   Water_source=protected   Exclusive_breastfeeding=no   Cooking_fuel=other   Deworming=no   Toilet_access=yes   Pollution_birth=minor   Preterm_birth=no   Sex=male   
   (((   0.676   0.324)   % Food_diversity=insufficient   Animal_ownership=no   Water_source=unprotected   Exclusive_breastfeeding=no   Cooking_fuel=other   Deworming=no   Toilet_access=yes   Pollution_birth=minor   Preterm_birth=no   Sex=male   
   (   0.7   0.3))   % Food_diversity=sufficient   Animal_ownership=no   Water_source=unprotected   Exclusive_breastfeeding=no   Cooking_fuel=other   Deworming=no   Toilet_access=yes   Pollution_birth=minor   Preterm_birth=no   Sex=male   
   ((   0.563   0.437)   % Food_diversity=insufficient   Animal_ownership=yes   Water_source=unprotected   Exclusive_breastfeeding=no   Cooking_fuel=other   Deworming=no   Toilet_access=yes   Pollution_birth=minor   Preterm_birth=no   Sex=male   
   (   0.59   0.41)))   % Food_diversity=sufficient   Animal_ownership=yes   Water_source=unprotected   Exclusive_breastfeeding=no   Cooking_fuel=other   Deworming=no   Toilet_access=yes   Pollution_birth=minor   Preterm_birth=no   Sex=male   
   (((   0.724   0.276)   % Food_diversity=insufficient   Animal_ownership=no   Water_source=other   Exclusive_breastfeeding=no   Cooking_fuel=other   Deworming=no   Toilet_access=yes   Pollution_birth=minor   Preterm_birth=no   Sex=male   
   (   0.745   0.255))   % Food_diversity=sufficient   Animal_ownership=no   Water_source=other   Exclusive_breastfeeding=no   Cooking_fuel=other   Deworming=no   Toilet_access=yes   Pollution_birth=minor   Preterm_birth=no   Sex=male   
   ((   0.626   0.374)   % Food_diversity=insufficient   Animal_ownership=yes   Water_source=other   Exclusive_breastfeeding=no   Cooking_fuel=other   Deworming=no   Toilet_access=yes   Pollution_birth=minor   Preterm_birth=no   Sex=male   
   (   0.65   0.35))))   % Food_diversity=sufficient   Animal_ownership=yes   Water_source=other   Exclusive_breastfeeding=no   Cooking_fuel=other   Deworming=no   Toilet_access=yes   Pollution_birth=minor   Preterm_birth=no   Sex=male   
   ((((   0.874   0.126)   % Food_diversity=insufficient   Animal_ownership=no   Water_source=protected   Exclusive_breastfeeding=yes   Cooking_fuel=other   Deworming=no   Toilet_access=yes   Pollution_birth=minor   Preterm_birth=no   Sex=male   
   (   0.886   0.114))   % Food_diversity=sufficient   Animal_ownership=no   Water_source=protected   Exclusive_breastfeeding=yes   Cooking_fuel=other   Deworming=no   Toilet_access=yes   Pollution_birth=minor   Preterm_birth=no   Sex=male   
   ((   0.809   0.191)   % Food_diversity=insufficient   Animal_ownership=yes   Water_source=protected   Exclusive_breastfeeding=yes   Cooking_fuel=other   Deworming=no   Toilet_access=yes   Pollution_birth=minor   Preterm_birth=no   Sex=male   
   (   0.826   0.174)))   % Food_diversity=sufficient   Animal_ownership=yes   Water_source=protected   Exclusive_breastfeeding=yes   Cooking_fuel=other   Deworming=no   Toilet_access=yes   Pollution_birth=minor   Preterm_birth=no   Sex=male   
   (((   0.778   0.222)   % Food_diversity=insufficient   Animal_ownership=no   Water_source=unprotected   Exclusive_breastfeeding=yes   Cooking_fuel=other   Deworming=no   Toilet_access=yes   Pollution_birth=minor   Preterm_birth=no   Sex=male   
   (   0.797   0.203))   % Food_diversity=sufficient   Animal_ownership=no   Water_source=unprotected   Exclusive_breastfeeding=yes   Cooking_fuel=other   Deworming=no   Toilet_access=yes   Pollution_birth=minor   Preterm_birth=no   Sex=male   
   ((   0.682   0.318)   % Food_diversity=insufficient   Animal_ownership=yes   Water_source=unprotected   Exclusive_breastfeeding=yes   Cooking_fuel=other   Deworming=no   Toilet_access=yes   Pollution_birth=minor   Preterm_birth=no   Sex=male   
   (   0.706   0.294)))   % Food_diversity=sufficient   Animal_ownership=yes   Water_source=unprotected   Exclusive_breastfeeding=yes   Cooking_fuel=other   Deworming=no   Toilet_access=yes   Pollution_birth=minor   Preterm_birth=no   Sex=male   
   (((   0.811   0.189)   % Food_diversity=insufficient   Animal_ownership=no   Water_source=other   Exclusive_breastfeeding=yes   Cooking_fuel=other   Deworming=no   Toilet_access=yes   Pollution_birth=minor   Preterm_birth=no   Sex=male   
   (   0.827   0.173))   % Food_diversity=sufficient   Animal_ownership=no   Water_source=other   Exclusive_breastfeeding=yes   Cooking_fuel=other   Deworming=no   Toilet_access=yes   Pollution_birth=minor   Preterm_birth=no   Sex=male   
   ((   0.73   0.27)   % Food_diversity=insufficient   Animal_ownership=yes   Water_source=other   Exclusive_breastfeeding=yes   Cooking_fuel=other   Deworming=no   Toilet_access=yes   Pollution_birth=minor   Preterm_birth=no   Sex=male   
   (   0.75   0.25)))))   % Food_diversity=sufficient   Animal_ownership=yes   Water_source=other   Exclusive_breastfeeding=yes   Cooking_fuel=other   Deworming=no   Toilet_access=yes   Pollution_birth=minor   Preterm_birth=no   Sex=male   
   (((((   0.858   0.142)   % Food_diversity=insufficient   Animal_ownership=no   Water_source=protected   Exclusive_breastfeeding=no   Cooking_fuel=biomass   Deworming=no   Toilet_access=yes   Pollution_birth=minor   Preterm_birth=no   Sex=male   
   (   0.871   0.129))   % Food_diversity=sufficient   Animal_ownership=no   Water_source=protected   Exclusive_breastfeeding=no   Cooking_fuel=biomass   Deworming=no   Toilet_access=yes   Pollution_birth=minor   Preterm_birth=no   Sex=male   
   ((   0.787   0.213)   % Food_diversity=insufficient   Animal_ownership=yes   Water_source=protected   Exclusive_breastfeeding=no   Cooking_fuel=biomass   Deworming=no   Toilet_access=yes   Pollution_birth=minor   Preterm_birth=no   Sex=male   
   (   0.805   0.195)))   % Food_diversity=sufficient   Animal_ownership=yes   Water_source=protected   Exclusive_breastfeeding=no   Cooking_fuel=biomass   Deworming=no   Toilet_access=yes   Pollution_birth=minor   Preterm_birth=no   Sex=male   
   (((   0.755   0.245)   % Food_diversity=insufficient   Animal_ownership=no   Water_source=unprotected   Exclusive_breastfeeding=no   Cooking_fuel=biomass   Deworming=no   Toilet_access=yes   Pollution_birth=minor   Preterm_birth=no   Sex=male   
   (   0.775   0.225))   % Food_diversity=sufficient   Animal_ownership=no   Water_source=unprotected   Exclusive_breastfeeding=no   Cooking_fuel=biomass   Deworming=no   Toilet_access=yes   Pollution_birth=minor   Preterm_birth=no   Sex=male   
   ((   0.655   0.345)   % Food_diversity=insufficient   Animal_ownership=yes   Water_source=unprotected   Exclusive_breastfeeding=no   Cooking_fuel=biomass   Deworming=no   Toilet_access=yes   Pollution_birth=minor   Preterm_birth=no   Sex=male   
   (   0.68   0.32)))   % Food_diversity=sufficient   Animal_ownership=yes   Water_source=unprotected   Exclusive_breastfeeding=no   Cooking_fuel=biomass   Deworming=no   Toilet_access=yes   Pollution_birth=minor   Preterm_birth=no   Sex=male   
   (((   0.792   0.208)   % Food_diversity=insufficient   Animal_ownership=no   Water_source=other   Exclusive_breastfeeding=no   Cooking_fuel=biomass   Deworming=no   Toilet_access=yes   Pollution_birth=minor   Preterm_birth=no   Sex=male   
   (   0.809   0.191))   % Food_diversity=sufficient   Animal_ownership=no   Water_source=other   Exclusive_breastfeeding=no   Cooking_fuel=biomass   Deworming=no   Toilet_access=yes   Pollution_birth=minor   Preterm_birth=no   Sex=male   
   ((   0.706   0.294)   % Food_diversity=insufficient   Animal_ownership=yes   Water_source=other   Exclusive_breastfeeding=no   Cooking_fuel=biomass   Deworming=no   Toilet_access=yes   Pollution_birth=minor   Preterm_birth=no   Sex=male   
   (   0.728   0.272))))   % Food_diversity=sufficient   Animal_ownership=yes   Water_source=other   Exclusive_breastfeeding=no   Cooking_fuel=biomass   Deworming=no   Toilet_access=yes   Pollution_birth=minor   Preterm_birth=no   Sex=male   
   ((((   0.911   0.089)   % Food_diversity=insufficient   Animal_ownership=no   Water_source=protected   Exclusive_breastfeeding=yes   Cooking_fuel=biomass   Deworming=no   Toilet_access=yes   Pollution_birth=minor   Preterm_birth=no   Sex=male   
   (   0.92   0.08))   % Food_diversity=sufficient   Animal_ownership=no   Water_source=protected   Exclusive_breastfeeding=yes   Cooking_fuel=biomass   Deworming=no   Toilet_access=yes   Pollution_birth=minor   Preterm_birth=no   Sex=male   
   ((   0.863   0.137)   % Food_diversity=insufficient   Animal_ownership=yes   Water_source=protected   Exclusive_breastfeeding=yes   Cooking_fuel=biomass   Deworming=no   Toilet_access=yes   Pollution_birth=minor   Preterm_birth=no   Sex=male   
   (   0.876   0.124)))   % Food_diversity=sufficient   Animal_ownership=yes   Water_source=protected   Exclusive_breastfeeding=yes   Cooking_fuel=biomass   Deworming=no   Toilet_access=yes   Pollution_birth=minor   Preterm_birth=no   Sex=male   
   (((   0.839   0.161)   % Food_diversity=insufficient   Animal_ownership=no   Water_source=unprotected   Exclusive_breastfeeding=yes   Cooking_fuel=biomass   Deworming=no   Toilet_access=yes   Pollution_birth=minor   Preterm_birth=no   Sex=male   
   (   0.854   0.146))   % Food_diversity=sufficient   Animal_ownership=no   Water_source=unprotected   Exclusive_breastfeeding=yes   Cooking_fuel=biomass   Deworming=no   Toilet_access=yes   Pollution_birth=minor   Preterm_birth=no   Sex=male   
   ((   0.761   0.239)   % Food_diversity=insufficient   Animal_ownership=yes   Water_source=unprotected   Exclusive_breastfeeding=yes   Cooking_fuel=biomass   Deworming=no   Toilet_access=yes   Pollution_birth=minor   Preterm_birth=no   Sex=male   
   (   0.781   0.219)))   % Food_diversity=sufficient   Animal_ownership=yes   Water_source=unprotected   Exclusive_breastfeeding=yes   Cooking_fuel=biomass   Deworming=no   Toilet_access=yes   Pollution_birth=minor   Preterm_birth=no   Sex=male   
   (((   0.863   0.137)   % Food_diversity=insufficient   Animal_ownership=no   Water_source=other   Exclusive_breastfeeding=yes   Cooking_fuel=biomass   Deworming=no   Toilet_access=yes   Pollution_birth=minor   Preterm_birth=no   Sex=male   
   (   0.875   0.125))   % Food_diversity=sufficient   Animal_ownership=no   Water_source=other   Exclusive_breastfeeding=yes   Cooking_fuel=biomass   Deworming=no   Toilet_access=yes   Pollution_birth=minor   Preterm_birth=no   Sex=male   
   ((   0.797   0.203)   % Food_diversity=insufficient   Animal_ownership=yes   Water_source=other   Exclusive_breastfeeding=yes   Cooking_fuel=biomass   Deworming=no   Toilet_access=yes   Pollution_birth=minor   Preterm_birth=no   Sex=male   
   (   0.814   0.186))))))   % Food_diversity=sufficient   Animal_ownership=yes   Water_source=other   Exclusive_breastfeeding=yes   Cooking_fuel=biomass   Deworming=no   Toilet_access=yes   Pollution_birth=minor   Preterm_birth=no   Sex=male   
   ((((((   0.78   0.22)   % Food_diversity=insufficient   Animal_ownership=no   Water_source=protected   Exclusive_breastfeeding=no   Cooking_fuel=other   Deworming=yes   Toilet_access=yes   Pollution_birth=minor   Preterm_birth=no   Sex=male   
   (   0.799   0.201))   % Food_diversity=sufficient   Animal_ownership=no   Water_source=protected   Exclusive_breastfeeding=no   Cooking_fuel=other   Deworming=yes   Toilet_access=yes   Pollution_birth=minor   Preterm_birth=no   Sex=male   
   ((   0.686   0.314)   % Food_diversity=insufficient   Animal_ownership=yes   Water_source=protected   Exclusive_breastfeeding=no   Cooking_fuel=other   Deworming=yes   Toilet_access=yes   Pollution_birth=minor   Preterm_birth=no   Sex=male   
   (   0.71   0.29)))   % Food_diversity=sufficient   Animal_ownership=yes   Water_source=protected   Exclusive_breastfeeding=no   Cooking_fuel=other   Deworming=yes   Toilet_access=yes   Pollution_birth=minor   Preterm_birth=no   Sex=male   
   (((   0.645   0.355)   % Food_diversity=insufficient   Animal_ownership=no   Water_source=unprotected   Exclusive_breastfeeding=no   Cooking_fuel=other   Deworming=yes   Toilet_access=yes   Pollution_birth=minor   Preterm_birth=no   Sex=male   
   (   0.67   0.33))   % Food_diversity=sufficient   Animal_ownership=no   Water_source=unprotected   Exclusive_breastfeeding=no   Cooking_fuel=other   Deworming=yes   Toilet_access=yes   Pollution_birth=minor   Preterm_birth=no   Sex=male   
   ((   0.529   0.471)   % Food_diversity=insufficient   Animal_ownership=yes   Water_source=unprotected   Exclusive_breastfeeding=no   Cooking_fuel=other   Deworming=yes   Toilet_access=yes   Pollution_birth=minor   Preterm_birth=no   Sex=male   
   (   0.557   0.443)))   % Food_diversity=sufficient   Animal_ownership=yes   Water_source=unprotected   Exclusive_breastfeeding=no   Cooking_fuel=other   Deworming=yes   Toilet_access=yes   Pollution_birth=minor   Preterm_birth=no   Sex=male   
   (((   0.698   0.302)   % Food_diversity=insufficient   Animal_ownership=no   Water_source=other   Exclusive_breastfeeding=no   Cooking_fuel=other   Deworming=yes   Toilet_access=yes   Pollution_birth=minor   Preterm_birth=no   Sex=male   
   (   0.719   0.281))   % Food_diversity=sufficient   Animal_ownership=no   Water_source=other   Exclusive_breastfeeding=no   Cooking_fuel=other   Deworming=yes   Toilet_access=yes   Pollution_birth=minor   Preterm_birth=no   Sex=male   
   ((   0.595   0.405)   % Food_diversity=insufficient   Animal_ownership=yes   Water_source=other   Exclusive_breastfeeding=no   Cooking_fuel=other   Deworming=yes   Toilet_access=yes   Pollution_birth=minor   Preterm_birth=no   Sex=male   
   (   0.62   0.38))))   % Food_diversity=sufficient   Animal_ownership=yes   Water_source=other   Exclusive_breastfeeding=no   Cooking_fuel=other   Deworming=yes   Toilet_access=yes   Pollution_birth=minor   Preterm_birth=no   Sex=male   
   ((((   0.857   0.143)   % Food_diversity=insufficient   Animal_ownership=no   Water_source=protected   Exclusive_breastfeeding=yes   Cooking_fuel=other   Deworming=yes   Toilet_access=yes   Pollution_birth=minor   Preterm_birth=no   Sex=male   
   (   0.871   0.129))   % Food_diversity=sufficient   Animal_ownership=no   Water_source=protected   Exclusive_breastfeeding=yes   Cooking_fuel=other   Deworming=yes   Toilet_access=yes   Pollution_birth=minor   Preterm_birth=no   Sex=male   
   ((   0.786   0.214)   % Food_diversity=insufficient   Animal_ownership=yes   Water_source=protected   Exclusive_breastfeeding=yes   Cooking_fuel=other   Deworming=yes   Toilet_access=yes   Pollution_birth=minor   Preterm_birth=no   Sex=male   
   (   0.805   0.195)))   % Food_diversity=sufficient   Animal_ownership=yes   Water_source=protected   Exclusive_breastfeeding=yes   Cooking_fuel=other   Deworming=yes   Toilet_access=yes   Pollution_birth=minor   Preterm_birth=no   Sex=male   
   (((   0.753   0.247)   % Food_diversity=insufficient   Animal_ownership=no   Water_source=unprotected   Exclusive_breastfeeding=yes   Cooking_fuel=other   Deworming=yes   Toilet_access=yes   Pollution_birth=minor   Preterm_birth=no   Sex=male   
   (   0.774   0.226))   % Food_diversity=sufficient   Animal_ownership=no   Water_source=unprotected   Exclusive_breastfeeding=yes   Cooking_fuel=other   Deworming=yes   Toilet_access=yes   Pollution_birth=minor   Preterm_birth=no   Sex=male   
   ((   0.651   0.349)   % Food_diversity=insufficient   Animal_ownership=yes   Water_source=unprotected   Exclusive_breastfeeding=yes   Cooking_fuel=other   Deworming=yes   Toilet_access=yes   Pollution_birth=minor   Preterm_birth=no   Sex=male   
   (   0.677   0.323)))   % Food_diversity=sufficient   Animal_ownership=yes   Water_source=unprotected   Exclusive_breastfeeding=yes   Cooking_fuel=other   Deworming=yes   Toilet_access=yes   Pollution_birth=minor   Preterm_birth=no   Sex=male   
   (((   0.79   0.21)   % Food_diversity=insufficient   Animal_ownership=no   Water_source=other   Exclusive_breastfeeding=yes   Cooking_fuel=other   Deworming=yes   Toilet_access=yes   Pollution_birth=minor   Preterm_birth=no   Sex=male   
   (   0.808   0.192))   % Food_diversity=sufficient   Animal_ownership=no   Water_source=other   Exclusive_breastfeeding=yes   Cooking_fuel=other   Deworming=yes   Toilet_access=yes   Pollution_birth=minor   Preterm_birth=no   Sex=male   
   ((   0.703   0.297)   % Food_diversity=insufficient   Animal_ownership=yes   Water_source=other   Exclusive_breastfeeding=yes   Cooking_fuel=other   Deworming=yes   Toilet_access=yes   Pollution_birth=minor   Preterm_birth=no   Sex=male   
   (   0.725   0.275)))))   % Food_diversity=sufficient   Animal_ownership=yes   Water_source=other   Exclusive_breastfeeding=yes   Cooking_fuel=other   Deworming=yes   Toilet_access=yes   Pollution_birth=minor   Preterm_birth=no   Sex=male   
   (((((   0.84   0.16)   % Food_diversity=insufficient   Animal_ownership=no   Water_source=protected   Exclusive_breastfeeding=no   Cooking_fuel=biomass   Deworming=yes   Toilet_access=yes   Pollution_birth=minor   Preterm_birth=no   Sex=male   
   (   0.854   0.146))   % Food_diversity=sufficient   Animal_ownership=no   Water_source=protected   Exclusive_breastfeeding=no   Cooking_fuel=biomass   Deworming=yes   Toilet_access=yes   Pollution_birth=minor   Preterm_birth=no   Sex=male   
   ((   0.763   0.237)   % Food_diversity=insufficient   Animal_ownership=yes   Water_source=protected   Exclusive_breastfeeding=no   Cooking_fuel=biomass   Deworming=yes   Toilet_access=yes   Pollution_birth=minor   Preterm_birth=no   Sex=male   
   (   0.783   0.217)))   % Food_diversity=sufficient   Animal_ownership=yes   Water_source=protected   Exclusive_breastfeeding=no   Cooking_fuel=biomass   Deworming=yes   Toilet_access=yes   Pollution_birth=minor   Preterm_birth=no   Sex=male   
   (((   0.728   0.272)   % Food_diversity=insufficient   Animal_ownership=no   Water_source=unprotected   Exclusive_breastfeeding=no   Cooking_fuel=biomass   Deworming=yes   Toilet_access=yes   Pollution_birth=minor   Preterm_birth=no   Sex=male   
   (   0.75   0.25))   % Food_diversity=sufficient   Animal_ownership=no   Water_source=unprotected   Exclusive_breastfeeding=no   Cooking_fuel=biomass   Deworming=yes   Toilet_access=yes   Pollution_birth=minor   Preterm_birth=no   Sex=male   
   ((   0.623   0.377)   % Food_diversity=insufficient   Animal_ownership=yes   Water_source=unprotected   Exclusive_breastfeeding=no   Cooking_fuel=biomass   Deworming=yes   Toilet_access=yes   Pollution_birth=minor   Preterm_birth=no   Sex=male   
   (   0.649   0.351)))   % Food_diversity=sufficient   Animal_ownership=yes   Water_source=unprotected   Exclusive_breastfeeding=no   Cooking_fuel=biomass   Deworming=yes   Toilet_access=yes   Pollution_birth=minor   Preterm_birth=no   Sex=male   
   (((   0.769   0.231)   % Food_diversity=insufficient   Animal_ownership=no   Water_source=other   Exclusive_breastfeeding=no   Cooking_fuel=biomass   Deworming=yes   Toilet_access=yes   Pollution_birth=minor   Preterm_birth=no   Sex=male   
   (   0.788   0.212))   % Food_diversity=sufficient   Animal_ownership=no   Water_source=other   Exclusive_breastfeeding=no   Cooking_fuel=biomass   Deworming=yes   Toilet_access=yes   Pollution_birth=minor   Preterm_birth=no   Sex=male   
   ((   0.679   0.321)   % Food_diversity=insufficient   Animal_ownership=yes   Water_source=other   Exclusive_breastfeeding=no   Cooking_fuel=biomass   Deworming=yes   Toilet_access=yes   Pollution_birth=minor   Preterm_birth=no   Sex=male   
   (   0.701   0.299))))   % Food_diversity=sufficient   Animal_ownership=yes   Water_source=other   Exclusive_breastfeeding=no   Cooking_fuel=biomass   Deworming=yes   Toilet_access=yes   Pollution_birth=minor   Preterm_birth=no   Sex=male   
   ((((   0.899   0.101)   % Food_diversity=insufficient   Animal_ownership=no   Water_source=protected   Exclusive_breastfeeding=yes   Cooking_fuel=biomass   Deworming=yes   Toilet_access=yes   Pollution_birth=minor   Preterm_birth=no   Sex=male   
   (   0.909   0.091))   % Food_diversity=sufficient   Animal_ownership=no   Water_source=protected   Exclusive_breastfeeding=yes   Cooking_fuel=biomass   Deworming=yes   Toilet_access=yes   Pollution_birth=minor   Preterm_birth=no   Sex=male   
   ((   0.845   0.155)   % Food_diversity=insufficient   Animal_ownership=yes   Water_source=protected   Exclusive_breastfeeding=yes   Cooking_fuel=biomass   Deworming=yes   Toilet_access=yes   Pollution_birth=minor   Preterm_birth=no   Sex=male   
   (   0.86   0.14)))   % Food_diversity=sufficient   Animal_ownership=yes   Water_source=protected   Exclusive_breastfeeding=yes   Cooking_fuel=biomass   Deworming=yes   Toilet_access=yes   Pollution_birth=minor   Preterm_birth=no   Sex=male   
   (((   0.819   0.181)   % Food_diversity=insufficient   Animal_ownership=no   Water_source=unprotected   Exclusive_breastfeeding=yes   Cooking_fuel=biomass   Deworming=yes   Toilet_access=yes   Pollution_birth=minor   Preterm_birth=no   Sex=male   
   (   0.835   0.165))   % Food_diversity=sufficient   Animal_ownership=no   Water_source=unprotected   Exclusive_breastfeeding=yes   Cooking_fuel=biomass   Deworming=yes   Toilet_access=yes   Pollution_birth=minor   Preterm_birth=no   Sex=male   
   ((   0.735   0.265)   % Food_diversity=insufficient   Animal_ownership=yes   Water_source=unprotected   Exclusive_breastfeeding=yes   Cooking_fuel=biomass   Deworming=yes   Toilet_access=yes   Pollution_birth=minor   Preterm_birth=no   Sex=male   
   (   0.756   0.244)))   % Food_diversity=sufficient   Animal_ownership=yes   Water_source=unprotected   Exclusive_breastfeeding=yes   Cooking_fuel=biomass   Deworming=yes   Toilet_access=yes   Pollution_birth=minor   Preterm_birth=no   Sex=male   
   (((   0.846   0.154)   % Food_diversity=insufficient   Animal_ownership=no   Water_source=other   Exclusive_breastfeeding=yes   Cooking_fuel=biomass   Deworming=yes   Toilet_access=yes   Pollution_birth=minor   Preterm_birth=no   Sex=male   
   (   0.86   0.14))   % Food_diversity=sufficient   Animal_ownership=no   Water_source=other   Exclusive_breastfeeding=yes   Cooking_fuel=biomass   Deworming=yes   Toilet_access=yes   Pollution_birth=minor   Preterm_birth=no   Sex=male   
   ((   0.775   0.225)   % Food_diversity=insufficient   Animal_ownership=yes   Water_source=other   Exclusive_breastfeeding=yes   Cooking_fuel=biomass   Deworming=yes   Toilet_access=yes   Pollution_birth=minor   Preterm_birth=no   Sex=male   
   (   0.793   0.207))))))))   % Food_diversity=sufficient   Animal_ownership=yes   Water_source=other   Exclusive_breastfeeding=yes   Cooking_fuel=biomass   Deworming=yes   Toilet_access=yes   Pollution_birth=minor   Preterm_birth=no   Sex=male   
   ((((((((   0.83   0.17)   % Food_diversity=insufficient   Animal_ownership=no   Water_source=protected   Exclusive_breastfeeding=no   Cooking_fuel=other   Deworming=no   Toilet_access=no   Pollution_birth=moderate   Preterm_birth=no   Sex=male   
   (   0.845   0.155))   % Food_diversity=sufficient   Animal_ownership=no   Water_source=protected   Exclusive_breastfeeding=no   Cooking_fuel=other   Deworming=no   Toilet_access=no   Pollution_birth=moderate   Preterm_birth=no   Sex=male   
   ((   0.89789   0.10211)   % Food_diversity=insufficient   Animal_ownership=yes   Water_source=protected   Exclusive_breastfeeding=no   Cooking_fuel=other   Deworming=no   Toilet_access=no   Pollution_birth=moderate   Preterm_birth=no   Sex=male   
   (   0.77   0.23)))   % Food_diversity=sufficient   Animal_ownership=yes   Water_source=protected   Exclusive_breastfeeding=no   Cooking_fuel=other   Deworming=no   Toilet_access=no   Pollution_birth=moderate   Preterm_birth=no   Sex=male   
   (((   0.712   0.288)   % Food_diversity=insufficient   Animal_ownership=no   Water_source=unprotected   Exclusive_breastfeeding=no   Cooking_fuel=other   Deworming=no   Toilet_access=no   Pollution_birth=moderate   Preterm_birth=no   Sex=male   
   (   0.735   0.265))   % Food_diversity=sufficient   Animal_ownership=no   Water_source=unprotected   Exclusive_breastfeeding=no   Cooking_fuel=other   Deworming=no   Toilet_access=no   Pollution_birth=moderate   Preterm_birth=no   Sex=male   
   ((   0.766957   0.233043)   % Food_diversity=insufficient   Animal_ownership=yes   Water_source=unprotected   Exclusive_breastfeeding=no   Cooking_fuel=other   Deworming=no   Toilet_access=no   Pollution_birth=moderate   Preterm_birth=no   Sex=male   
   (   0.746454   0.253546)))   % Food_diversity=sufficient   Animal_ownership=yes   Water_source=unprotected   Exclusive_breastfeeding=no   Cooking_fuel=other   Deworming=no   Toilet_access=no   Pollution_birth=moderate   Preterm_birth=no   Sex=male   
   (((   0.756   0.244)   % Food_diversity=insufficient   Animal_ownership=no   Water_source=other   Exclusive_breastfeeding=no   Cooking_fuel=other   Deworming=no   Toilet_access=no   Pollution_birth=moderate   Preterm_birth=no   Sex=male   
   (   0.775   0.225))   % Food_diversity=sufficient   Animal_ownership=no   Water_source=other   Exclusive_breastfeeding=no   Cooking_fuel=other   Deworming=no   Toilet_access=no   Pollution_birth=moderate   Preterm_birth=no   Sex=male   
   ((   0.663   0.337)   % Food_diversity=insufficient   Animal_ownership=yes   Water_source=other   Exclusive_breastfeeding=no   Cooking_fuel=other   Deworming=no   Toilet_access=no   Pollution_birth=moderate   Preterm_birth=no   Sex=male   
   (   0.686   0.314))))   % Food_diversity=sufficient   Animal_ownership=yes   Water_source=other   Exclusive_breastfeeding=no   Cooking_fuel=other   Deworming=no   Toilet_access=no   Pollution_birth=moderate   Preterm_birth=no   Sex=male   
   ((((   0.79279   0.20721)   % Food_diversity=insufficient   Animal_ownership=no   Water_source=protected   Exclusive_breastfeeding=yes   Cooking_fuel=other   Deworming=no   Toilet_access=no   Pollution_birth=moderate   Preterm_birth=no   Sex=male   
   (   0.947611   0.0523895))   % Food_diversity=sufficient   Animal_ownership=no   Water_source=protected   Exclusive_breastfeeding=yes   Cooking_fuel=other   Deworming=no   Toilet_access=no   Pollution_birth=moderate   Preterm_birth=no   Sex=male   
   ((   0.809761   0.190239)   % Food_diversity=insufficient   Animal_ownership=yes   Water_source=protected   Exclusive_breastfeeding=yes   Cooking_fuel=other   Deworming=no   Toilet_access=no   Pollution_birth=moderate   Preterm_birth=no   Sex=male   
   (   0.877447   0.122553)))   % Food_diversity=sufficient   Animal_ownership=yes   Water_source=protected   Exclusive_breastfeeding=yes   Cooking_fuel=other   Deworming=no   Toilet_access=no   Pollution_birth=moderate   Preterm_birth=no   Sex=male   
   (((   0.860481   0.139519)   % Food_diversity=insufficient   Animal_ownership=no   Water_source=unprotected   Exclusive_breastfeeding=yes   Cooking_fuel=other   Deworming=no   Toilet_access=no   Pollution_birth=moderate   Preterm_birth=no   Sex=male   
   (   0.88527   0.11473))   % Food_diversity=sufficient   Animal_ownership=no   Water_source=unprotected   Exclusive_breastfeeding=yes   Cooking_fuel=other   Deworming=no   Toilet_access=no   Pollution_birth=moderate   Preterm_birth=no   Sex=male   
   ((   0.628882   0.371118)   % Food_diversity=insufficient   Animal_ownership=yes   Water_source=unprotected   Exclusive_breastfeeding=yes   Cooking_fuel=other   Deworming=no   Toilet_access=no   Pollution_birth=moderate   Preterm_birth=no   Sex=male   
   (   0.822848   0.177152)))   % Food_diversity=sufficient   Animal_ownership=yes   Water_source=unprotected   Exclusive_breastfeeding=yes   Cooking_fuel=other   Deworming=no   Toilet_access=no   Pollution_birth=moderate   Preterm_birth=no   Sex=male   
   (((   0.836   0.164)   % Food_diversity=insufficient   Animal_ownership=no   Water_source=other   Exclusive_breastfeeding=yes   Cooking_fuel=other   Deworming=no   Toilet_access=no   Pollution_birth=moderate   Preterm_birth=no   Sex=male   
   (   0.851   0.149))   % Food_diversity=sufficient   Animal_ownership=no   Water_source=other   Exclusive_breastfeeding=yes   Cooking_fuel=other   Deworming=no   Toilet_access=no   Pollution_birth=moderate   Preterm_birth=no   Sex=male   
   ((   0.762   0.238)   % Food_diversity=insufficient   Animal_ownership=yes   Water_source=other   Exclusive_breastfeeding=yes   Cooking_fuel=other   Deworming=no   Toilet_access=no   Pollution_birth=moderate   Preterm_birth=no   Sex=male   
   (   0.781   0.219)))))   % Food_diversity=sufficient   Animal_ownership=yes   Water_source=other   Exclusive_breastfeeding=yes   Cooking_fuel=other   Deworming=no   Toilet_access=no   Pollution_birth=moderate   Preterm_birth=no   Sex=male   
   (((((   0.878   0.122)   % Food_diversity=insufficient   Animal_ownership=no   Water_source=protected   Exclusive_breastfeeding=no   Cooking_fuel=biomass   Deworming=no   Toilet_access=no   Pollution_birth=moderate   Preterm_birth=no   Sex=male   
   (   0.89   0.11))   % Food_diversity=sufficient   Animal_ownership=no   Water_source=protected   Exclusive_breastfeeding=no   Cooking_fuel=biomass   Deworming=no   Toilet_access=no   Pollution_birth=moderate   Preterm_birth=no   Sex=male   
   ((   0.816   0.184)   % Food_diversity=insufficient   Animal_ownership=yes   Water_source=protected   Exclusive_breastfeeding=no   Cooking_fuel=biomass   Deworming=no   Toilet_access=no   Pollution_birth=moderate   Preterm_birth=no   Sex=male   
   (   0.831998   0.168002)))   % Food_diversity=sufficient   Animal_ownership=yes   Water_source=protected   Exclusive_breastfeeding=no   Cooking_fuel=biomass   Deworming=no   Toilet_access=no   Pollution_birth=moderate   Preterm_birth=no   Sex=male   
   (((   0.786   0.214)   % Food_diversity=insufficient   Animal_ownership=no   Water_source=unprotected   Exclusive_breastfeeding=no   Cooking_fuel=biomass   Deworming=no   Toilet_access=no   Pollution_birth=moderate   Preterm_birth=no   Sex=male   
   (   0.804   0.196))   % Food_diversity=sufficient   Animal_ownership=no   Water_source=unprotected   Exclusive_breastfeeding=no   Cooking_fuel=biomass   Deworming=no   Toilet_access=no   Pollution_birth=moderate   Preterm_birth=no   Sex=male   
   ((   0.693   0.307)   % Food_diversity=insufficient   Animal_ownership=yes   Water_source=unprotected   Exclusive_breastfeeding=no   Cooking_fuel=biomass   Deworming=no   Toilet_access=no   Pollution_birth=moderate   Preterm_birth=no   Sex=male   
   (   0.716   0.284)))   % Food_diversity=sufficient   Animal_ownership=yes   Water_source=unprotected   Exclusive_breastfeeding=no   Cooking_fuel=biomass   Deworming=no   Toilet_access=no   Pollution_birth=moderate   Preterm_birth=no   Sex=male   
   (((   0.818   0.182)   % Food_diversity=insufficient   Animal_ownership=no   Water_source=other   Exclusive_breastfeeding=no   Cooking_fuel=biomass   Deworming=no   Toilet_access=no   Pollution_birth=moderate   Preterm_birth=no   Sex=male   
   (   0.834   0.166))   % Food_diversity=sufficient   Animal_ownership=no   Water_source=other   Exclusive_breastfeeding=no   Cooking_fuel=biomass   Deworming=no   Toilet_access=no   Pollution_birth=moderate   Preterm_birth=no   Sex=male   
   ((   0.739   0.261)   % Food_diversity=insufficient   Animal_ownership=yes   Water_source=other   Exclusive_breastfeeding=no   Cooking_fuel=biomass   Deworming=no   Toilet_access=no   Pollution_birth=moderate   Preterm_birth=no   Sex=male   
   (   0.759   0.241))))   % Food_diversity=sufficient   Animal_ownership=yes   Water_source=other   Exclusive_breastfeeding=no   Cooking_fuel=biomass   Deworming=no   Toilet_access=no   Pollution_birth=moderate   Preterm_birth=no   Sex=male   
   ((((   0.947509   0.0524912)   % Food_diversity=insufficient   Animal_ownership=no   Water_source=protected   Exclusive_breastfeeding=yes   Cooking_fuel=biomass   Deworming=no   Toilet_access=no   Pollution_birth=moderate   Preterm_birth=no   Sex=male   
   (   0.914   0.0860002))   % Food_diversity=sufficient   Animal_ownership=no   Water_source=protected   Exclusive_breastfeeding=yes   Cooking_fuel=biomass   Deworming=no   Toilet_access=no   Pollution_birth=moderate   Preterm_birth=no   Sex=male   
   ((   0.93013   0.0698703)   % Food_diversity=insufficient   Animal_ownership=yes   Water_source=protected   Exclusive_breastfeeding=yes   Cooking_fuel=biomass   Deworming=no   Toilet_access=no   Pollution_birth=moderate   Preterm_birth=no   Sex=male   
   (   0.95493   0.0450705)))   % Food_diversity=sufficient   Animal_ownership=yes   Water_source=protected   Exclusive_breastfeeding=yes   Cooking_fuel=biomass   Deworming=no   Toilet_access=no   Pollution_birth=moderate   Preterm_birth=no   Sex=male   
   (((   0.922091   0.0779093)   % Food_diversity=insufficient   Animal_ownership=no   Water_source=unprotected   Exclusive_breastfeeding=yes   Cooking_fuel=biomass   Deworming=no   Toilet_access=no   Pollution_birth=moderate   Preterm_birth=no   Sex=male   
   (   0.928155   0.0718449))   % Food_diversity=sufficient   Animal_ownership=no   Water_source=unprotected   Exclusive_breastfeeding=yes   Cooking_fuel=biomass   Deworming=no   Toilet_access=no   Pollution_birth=moderate   Preterm_birth=no   Sex=male   
   ((   0.823215   0.176785)   % Food_diversity=insufficient   Animal_ownership=yes   Water_source=unprotected   Exclusive_breastfeeding=yes   Cooking_fuel=biomass   Deworming=no   Toilet_access=no   Pollution_birth=moderate   Preterm_birth=no   Sex=male   
   (   0.798075   0.201925)))   % Food_diversity=sufficient   Animal_ownership=yes   Water_source=unprotected   Exclusive_breastfeeding=yes   Cooking_fuel=biomass   Deworming=no   Toilet_access=no   Pollution_birth=moderate   Preterm_birth=no   Sex=male   
   (((   0.882   0.118)   % Food_diversity=insufficient   Animal_ownership=no   Water_source=other   Exclusive_breastfeeding=yes   Cooking_fuel=biomass   Deworming=no   Toilet_access=no   Pollution_birth=moderate   Preterm_birth=no   Sex=male   
   (   0.893   0.107))   % Food_diversity=sufficient   Animal_ownership=no   Water_source=other   Exclusive_breastfeeding=yes   Cooking_fuel=biomass   Deworming=no   Toilet_access=no   Pollution_birth=moderate   Preterm_birth=no   Sex=male   
   ((   0.824   0.176)   % Food_diversity=insufficient   Animal_ownership=yes   Water_source=other   Exclusive_breastfeeding=yes   Cooking_fuel=biomass   Deworming=no   Toilet_access=no   Pollution_birth=moderate   Preterm_birth=no   Sex=male   
   (   0.839   0.161))))))   % Food_diversity=sufficient   Animal_ownership=yes   Water_source=other   Exclusive_breastfeeding=yes   Cooking_fuel=biomass   Deworming=no   Toilet_access=no   Pollution_birth=moderate   Preterm_birth=no   Sex=male   
   ((((((   0.809   0.191)   % Food_diversity=insufficient   Animal_ownership=no   Water_source=protected   Exclusive_breastfeeding=no   Cooking_fuel=other   Deworming=yes   Toilet_access=no   Pollution_birth=moderate   Preterm_birth=no   Sex=male   
   (   0.826   0.174))   % Food_diversity=sufficient   Animal_ownership=no   Water_source=protected   Exclusive_breastfeeding=no   Cooking_fuel=other   Deworming=yes   Toilet_access=no   Pollution_birth=moderate   Preterm_birth=no   Sex=male   
   ((   0.90431   0.0956904)   % Food_diversity=insufficient   Animal_ownership=yes   Water_source=protected   Exclusive_breastfeeding=no   Cooking_fuel=other   Deworming=yes   Toilet_access=no   Pollution_birth=moderate   Preterm_birth=no   Sex=male   
   (   0.772957   0.227043)))   % Food_diversity=sufficient   Animal_ownership=yes   Water_source=protected   Exclusive_breastfeeding=no   Cooking_fuel=other   Deworming=yes   Toilet_access=no   Pollution_birth=moderate   Preterm_birth=no   Sex=male   
   (((   0.683   0.317)   % Food_diversity=insufficient   Animal_ownership=no   Water_source=unprotected   Exclusive_breastfeeding=no   Cooking_fuel=other   Deworming=yes   Toilet_access=no   Pollution_birth=moderate   Preterm_birth=no   Sex=male   
   (   0.707   0.293))   % Food_diversity=sufficient   Animal_ownership=no   Water_source=unprotected   Exclusive_breastfeeding=no   Cooking_fuel=other   Deworming=yes   Toilet_access=no   Pollution_birth=moderate   Preterm_birth=no   Sex=male   
   ((   0.743756   0.256244)   % Food_diversity=insufficient   Animal_ownership=yes   Water_source=unprotected   Exclusive_breastfeeding=no   Cooking_fuel=other   Deworming=yes   Toilet_access=no   Pollution_birth=moderate   Preterm_birth=no   Sex=male   
   (   0.953477   0.0465226)))   % Food_diversity=sufficient   Animal_ownership=yes   Water_source=unprotected   Exclusive_breastfeeding=no   Cooking_fuel=other   Deworming=yes   Toilet_access=no   Pollution_birth=moderate   Preterm_birth=no   Sex=male   
   (((   0.731   0.269)   % Food_diversity=insufficient   Animal_ownership=no   Water_source=other   Exclusive_breastfeeding=no   Cooking_fuel=other   Deworming=yes   Toilet_access=no   Pollution_birth=moderate   Preterm_birth=no   Sex=male   
   (   0.751   0.249))   % Food_diversity=sufficient   Animal_ownership=no   Water_source=other   Exclusive_breastfeeding=no   Cooking_fuel=other   Deworming=yes   Toilet_access=no   Pollution_birth=moderate   Preterm_birth=no   Sex=male   
   ((   0.633   0.367)   % Food_diversity=insufficient   Animal_ownership=yes   Water_source=other   Exclusive_breastfeeding=no   Cooking_fuel=other   Deworming=yes   Toilet_access=no   Pollution_birth=moderate   Preterm_birth=no   Sex=male   
   (   0.657   0.343))))   % Food_diversity=sufficient   Animal_ownership=yes   Water_source=other   Exclusive_breastfeeding=no   Cooking_fuel=other   Deworming=yes   Toilet_access=no   Pollution_birth=moderate   Preterm_birth=no   Sex=male   
   ((((   0.897017   0.102983)   % Food_diversity=insufficient   Animal_ownership=no   Water_source=protected   Exclusive_breastfeeding=yes   Cooking_fuel=other   Deworming=yes   Toilet_access=no   Pollution_birth=moderate   Preterm_birth=no   Sex=male   
   (   0.96164   0.0383598))   % Food_diversity=sufficient   Animal_ownership=no   Water_source=protected   Exclusive_breastfeeding=yes   Cooking_fuel=other   Deworming=yes   Toilet_access=no   Pollution_birth=moderate   Preterm_birth=no   Sex=male   
   ((   0.788701   0.211299)   % Food_diversity=insufficient   Animal_ownership=yes   Water_source=protected   Exclusive_breastfeeding=yes   Cooking_fuel=other   Deworming=yes   Toilet_access=no   Pollution_birth=moderate   Preterm_birth=no   Sex=male   
   (   0.909271   0.090729)))   % Food_diversity=sufficient   Animal_ownership=yes   Water_source=protected   Exclusive_breastfeeding=yes   Cooking_fuel=other   Deworming=yes   Toilet_access=no   Pollution_birth=moderate   Preterm_birth=no   Sex=male   
   (((   0.871781   0.128219)   % Food_diversity=insufficient   Animal_ownership=no   Water_source=unprotected   Exclusive_breastfeeding=yes   Cooking_fuel=other   Deworming=yes   Toilet_access=no   Pollution_birth=moderate   Preterm_birth=no   Sex=male   
   (   0.916057   0.0839428))   % Food_diversity=sufficient   Animal_ownership=no   Water_source=unprotected   Exclusive_breastfeeding=yes   Cooking_fuel=other   Deworming=yes   Toilet_access=no   Pollution_birth=moderate   Preterm_birth=no   Sex=male   
   ((   0.777983   0.222017)   % Food_diversity=insufficient   Animal_ownership=yes   Water_source=unprotected   Exclusive_breastfeeding=yes   Cooking_fuel=other   Deworming=yes   Toilet_access=no   Pollution_birth=moderate   Preterm_birth=no   Sex=male   
   (   0.772521   0.227479)))   % Food_diversity=sufficient   Animal_ownership=yes   Water_source=unprotected   Exclusive_breastfeeding=yes   Cooking_fuel=other   Deworming=yes   Toilet_access=no   Pollution_birth=moderate   Preterm_birth=no   Sex=male   
   (((   0.817   0.183)   % Food_diversity=insufficient   Animal_ownership=no   Water_source=other   Exclusive_breastfeeding=yes   Cooking_fuel=other   Deworming=yes   Toilet_access=no   Pollution_birth=moderate   Preterm_birth=no   Sex=male   
   (   0.833   0.167))   % Food_diversity=sufficient   Animal_ownership=no   Water_source=other   Exclusive_breastfeeding=yes   Cooking_fuel=other   Deworming=yes   Toilet_access=no   Pollution_birth=moderate   Preterm_birth=no   Sex=male   
   ((   0.734311   0.265689)   % Food_diversity=insufficient   Animal_ownership=yes   Water_source=other   Exclusive_breastfeeding=yes   Cooking_fuel=other   Deworming=yes   Toilet_access=no   Pollution_birth=moderate   Preterm_birth=no   Sex=male   
   (   0.745945   0.254055)))))   % Food_diversity=sufficient   Animal_ownership=yes   Water_source=other   Exclusive_breastfeeding=yes   Cooking_fuel=other   Deworming=yes   Toilet_access=no   Pollution_birth=moderate   Preterm_birth=no   Sex=male   
   (((((   0.863   0.137)   % Food_diversity=insufficient   Animal_ownership=no   Water_source=protected   Exclusive_breastfeeding=no   Cooking_fuel=biomass   Deworming=yes   Toilet_access=no   Pollution_birth=moderate   Preterm_birth=no   Sex=male   
   (   0.876   0.124))   % Food_diversity=sufficient   Animal_ownership=no   Water_source=protected   Exclusive_breastfeeding=no   Cooking_fuel=biomass   Deworming=yes   Toilet_access=no   Pollution_birth=moderate   Preterm_birth=no   Sex=male   
   ((   0.794   0.206)   % Food_diversity=insufficient   Animal_ownership=yes   Water_source=protected   Exclusive_breastfeeding=no   Cooking_fuel=biomass   Deworming=yes   Toilet_access=no   Pollution_birth=moderate   Preterm_birth=no   Sex=male   
   (   0.811999   0.188001)))   % Food_diversity=sufficient   Animal_ownership=yes   Water_source=protected   Exclusive_breastfeeding=no   Cooking_fuel=biomass   Deworming=yes   Toilet_access=no   Pollution_birth=moderate   Preterm_birth=no   Sex=male   
   (((   0.761   0.239)   % Food_diversity=insufficient   Animal_ownership=no   Water_source=unprotected   Exclusive_breastfeeding=no   Cooking_fuel=biomass   Deworming=yes   Toilet_access=no   Pollution_birth=moderate   Preterm_birth=no   Sex=male   
   (   0.781   0.219))   % Food_diversity=sufficient   Animal_ownership=no   Water_source=unprotected   Exclusive_breastfeeding=no   Cooking_fuel=biomass   Deworming=yes   Toilet_access=no   Pollution_birth=moderate   Preterm_birth=no   Sex=male   
   ((   0.663   0.337)   % Food_diversity=insufficient   Animal_ownership=yes   Water_source=unprotected   Exclusive_breastfeeding=no   Cooking_fuel=biomass   Deworming=yes   Toilet_access=no   Pollution_birth=moderate   Preterm_birth=no   Sex=male   
   (   0.687   0.313)))   % Food_diversity=sufficient   Animal_ownership=yes   Water_source=unprotected   Exclusive_breastfeeding=no   Cooking_fuel=biomass   Deworming=yes   Toilet_access=no   Pollution_birth=moderate   Preterm_birth=no   Sex=male   
   (((   0.798   0.202)   % Food_diversity=insufficient   Animal_ownership=no   Water_source=other   Exclusive_breastfeeding=no   Cooking_fuel=biomass   Deworming=yes   Toilet_access=no   Pollution_birth=moderate   Preterm_birth=no   Sex=male   
   (   0.814   0.186))   % Food_diversity=sufficient   Animal_ownership=no   Water_source=other   Exclusive_breastfeeding=no   Cooking_fuel=biomass   Deworming=yes   Toilet_access=no   Pollution_birth=moderate   Preterm_birth=no   Sex=male   
   ((   0.713   0.287)   % Food_diversity=insufficient   Animal_ownership=yes   Water_source=other   Exclusive_breastfeeding=no   Cooking_fuel=biomass   Deworming=yes   Toilet_access=no   Pollution_birth=moderate   Preterm_birth=no   Sex=male   
   (   0.735   0.265))))   % Food_diversity=sufficient   Animal_ownership=yes   Water_source=other   Exclusive_breastfeeding=no   Cooking_fuel=biomass   Deworming=yes   Toilet_access=no   Pollution_birth=moderate   Preterm_birth=no   Sex=male   
   ((((   0.963193   0.0368068)   % Food_diversity=insufficient   Animal_ownership=no   Water_source=protected   Exclusive_breastfeeding=yes   Cooking_fuel=biomass   Deworming=yes   Toilet_access=no   Pollution_birth=moderate   Preterm_birth=no   Sex=male   
   (   0.852506   0.147494))   % Food_diversity=sufficient   Animal_ownership=no   Water_source=protected   Exclusive_breastfeeding=yes   Cooking_fuel=biomass   Deworming=yes   Toilet_access=no   Pollution_birth=moderate   Preterm_birth=no   Sex=male   
   ((   0.884649   0.115351)   % Food_diversity=insufficient   Animal_ownership=yes   Water_source=protected   Exclusive_breastfeeding=yes   Cooking_fuel=biomass   Deworming=yes   Toilet_access=no   Pollution_birth=moderate   Preterm_birth=no   Sex=male   
   (   0.701874   0.298126)))   % Food_diversity=sufficient   Animal_ownership=yes   Water_source=protected   Exclusive_breastfeeding=yes   Cooking_fuel=biomass   Deworming=yes   Toilet_access=no   Pollution_birth=moderate   Preterm_birth=no   Sex=male   
   (((   0.91601   0.0839899)   % Food_diversity=insufficient   Animal_ownership=no   Water_source=unprotected   Exclusive_breastfeeding=yes   Cooking_fuel=biomass   Deworming=yes   Toilet_access=no   Pollution_birth=moderate   Preterm_birth=no   Sex=male   
   (   0.859   0.141))   % Food_diversity=sufficient   Animal_ownership=no   Water_source=unprotected   Exclusive_breastfeeding=yes   Cooking_fuel=biomass   Deworming=yes   Toilet_access=no   Pollution_birth=moderate   Preterm_birth=no   Sex=male   
   ((   0.809416   0.190584)   % Food_diversity=insufficient   Animal_ownership=yes   Water_source=unprotected   Exclusive_breastfeeding=yes   Cooking_fuel=biomass   Deworming=yes   Toilet_access=no   Pollution_birth=moderate   Preterm_birth=no   Sex=male   
   (   0.962109   0.0378913)))   % Food_diversity=sufficient   Animal_ownership=yes   Water_source=unprotected   Exclusive_breastfeeding=yes   Cooking_fuel=biomass   Deworming=yes   Toilet_access=no   Pollution_birth=moderate   Preterm_birth=no   Sex=male   
   (((   0.867   0.133)   % Food_diversity=insufficient   Animal_ownership=no   Water_source=other   Exclusive_breastfeeding=yes   Cooking_fuel=biomass   Deworming=yes   Toilet_access=no   Pollution_birth=moderate   Preterm_birth=no   Sex=male   
   (   0.88   0.12))   % Food_diversity=sufficient   Animal_ownership=no   Water_source=other   Exclusive_breastfeeding=yes   Cooking_fuel=biomass   Deworming=yes   Toilet_access=no   Pollution_birth=moderate   Preterm_birth=no   Sex=male   
   ((   0.803   0.197)   % Food_diversity=insufficient   Animal_ownership=yes   Water_source=other   Exclusive_breastfeeding=yes   Cooking_fuel=biomass   Deworming=yes   Toilet_access=no   Pollution_birth=moderate   Preterm_birth=no   Sex=male   
   (   0.82   0.18)))))))   % Food_diversity=sufficient   Animal_ownership=yes   Water_source=other   Exclusive_breastfeeding=yes   Cooking_fuel=biomass   Deworming=yes   Toilet_access=no   Pollution_birth=moderate   Preterm_birth=no   Sex=male   
   (((((((   0.816   0.184)   % Food_diversity=insufficient   Animal_ownership=no   Water_source=protected   Exclusive_breastfeeding=no   Cooking_fuel=other   Deworming=no   Toilet_access=yes   Pollution_birth=moderate   Preterm_birth=no   Sex=male   
   (   0.833   0.167))   % Food_diversity=sufficient   Animal_ownership=no   Water_source=protected   Exclusive_breastfeeding=no   Cooking_fuel=other   Deworming=no   Toilet_access=yes   Pollution_birth=moderate   Preterm_birth=no   Sex=male   
   ((   0.732   0.268)   % Food_diversity=insufficient   Animal_ownership=yes   Water_source=protected   Exclusive_breastfeeding=no   Cooking_fuel=other   Deworming=no   Toilet_access=yes   Pollution_birth=moderate   Preterm_birth=no   Sex=male   
   (   0.753   0.247)))   % Food_diversity=sufficient   Animal_ownership=yes   Water_source=protected   Exclusive_breastfeeding=no   Cooking_fuel=other   Deworming=no   Toilet_access=yes   Pollution_birth=moderate   Preterm_birth=no   Sex=male   
   (((   0.979566   0.0204343)   % Food_diversity=insufficient   Animal_ownership=no   Water_source=unprotected   Exclusive_breastfeeding=no   Cooking_fuel=other   Deworming=no   Toilet_access=yes   Pollution_birth=moderate   Preterm_birth=no   Sex=male   
   (   0.717   0.283))   % Food_diversity=sufficient   Animal_ownership=no   Water_source=unprotected   Exclusive_breastfeeding=no   Cooking_fuel=other   Deworming=no   Toilet_access=yes   Pollution_birth=moderate   Preterm_birth=no   Sex=male   
   ((   0.582156   0.417844)   % Food_diversity=insufficient   Animal_ownership=yes   Water_source=unprotected   Exclusive_breastfeeding=no   Cooking_fuel=other   Deworming=no   Toilet_access=yes   Pollution_birth=moderate   Preterm_birth=no   Sex=male   
   (   0.609   0.391)))   % Food_diversity=sufficient   Animal_ownership=yes   Water_source=unprotected   Exclusive_breastfeeding=no   Cooking_fuel=other   Deworming=no   Toilet_access=yes   Pollution_birth=moderate   Preterm_birth=no   Sex=male   
   (((   0.74   0.26)   % Food_diversity=insufficient   Animal_ownership=no   Water_source=other   Exclusive_breastfeeding=no   Cooking_fuel=other   Deworming=no   Toilet_access=yes   Pollution_birth=moderate   Preterm_birth=no   Sex=male   
   (   0.76   0.24))   % Food_diversity=sufficient   Animal_ownership=no   Water_source=other   Exclusive_breastfeeding=no   Cooking_fuel=other   Deworming=no   Toilet_access=yes   Pollution_birth=moderate   Preterm_birth=no   Sex=male   
   ((   0.643   0.357)   % Food_diversity=insufficient   Animal_ownership=yes   Water_source=other   Exclusive_breastfeeding=no   Cooking_fuel=other   Deworming=no   Toilet_access=yes   Pollution_birth=moderate   Preterm_birth=no   Sex=male   
   (   0.667   0.333))))   % Food_diversity=sufficient   Animal_ownership=yes   Water_source=other   Exclusive_breastfeeding=no   Cooking_fuel=other   Deworming=no   Toilet_access=yes   Pollution_birth=moderate   Preterm_birth=no   Sex=male   
   ((((   0.672111   0.327889)   % Food_diversity=insufficient   Animal_ownership=no   Water_source=protected   Exclusive_breastfeeding=yes   Cooking_fuel=other   Deworming=no   Toilet_access=yes   Pollution_birth=moderate   Preterm_birth=no   Sex=male   
   (   0.771769   0.228231))   % Food_diversity=sufficient   Animal_ownership=no   Water_source=protected   Exclusive_breastfeeding=yes   Cooking_fuel=other   Deworming=no   Toilet_access=yes   Pollution_birth=moderate   Preterm_birth=no   Sex=male   
   ((   0.772059   0.227941)   % Food_diversity=insufficient   Animal_ownership=yes   Water_source=protected   Exclusive_breastfeeding=yes   Cooking_fuel=other   Deworming=no   Toilet_access=yes   Pollution_birth=moderate   Preterm_birth=no   Sex=male   
   (   0.866838   0.133162)))   % Food_diversity=sufficient   Animal_ownership=yes   Water_source=protected   Exclusive_breastfeeding=yes   Cooking_fuel=other   Deworming=no   Toilet_access=yes   Pollution_birth=moderate   Preterm_birth=no   Sex=male   
   (((   0.848014   0.151986)   % Food_diversity=insufficient   Animal_ownership=no   Water_source=unprotected   Exclusive_breastfeeding=yes   Cooking_fuel=other   Deworming=no   Toilet_access=yes   Pollution_birth=moderate   Preterm_birth=no   Sex=male   
   (   0.82713   0.17287))   % Food_diversity=sufficient   Animal_ownership=no   Water_source=unprotected   Exclusive_breastfeeding=yes   Cooking_fuel=other   Deworming=no   Toilet_access=yes   Pollution_birth=moderate   Preterm_birth=no   Sex=male   
   ((   0.711131   0.288869)   % Food_diversity=insufficient   Animal_ownership=yes   Water_source=unprotected   Exclusive_breastfeeding=yes   Cooking_fuel=other   Deworming=no   Toilet_access=yes   Pollution_birth=moderate   Preterm_birth=no   Sex=male   
   (   0.761269   0.23873)))   % Food_diversity=sufficient   Animal_ownership=yes   Water_source=unprotected   Exclusive_breastfeeding=yes   Cooking_fuel=other   Deworming=no   Toilet_access=yes   Pollution_birth=moderate   Preterm_birth=no   Sex=male   
   (((   0.824   0.176)   % Food_diversity=insufficient   Animal_ownership=no   Water_source=other   Exclusive_breastfeeding=yes   Cooking_fuel=other   Deworming=no   Toilet_access=yes   Pollution_birth=moderate   Preterm_birth=no   Sex=male   
   (   0.839   0.161))   % Food_diversity=sufficient   Animal_ownership=no   Water_source=other   Exclusive_breastfeeding=yes   Cooking_fuel=other   Deworming=no   Toilet_access=yes   Pollution_birth=moderate   Preterm_birth=no   Sex=male   
   ((   0.746   0.254)   % Food_diversity=insufficient   Animal_ownership=yes   Water_source=other   Exclusive_breastfeeding=yes   Cooking_fuel=other   Deworming=no   Toilet_access=yes   Pollution_birth=moderate   Preterm_birth=no   Sex=male   
   (   0.765   0.235)))))   % Food_diversity=sufficient   Animal_ownership=yes   Water_source=other   Exclusive_breastfeeding=yes   Cooking_fuel=other   Deworming=no   Toilet_access=yes   Pollution_birth=moderate   Preterm_birth=no   Sex=male   
   (((((   0.868   0.132)   % Food_diversity=insufficient   Animal_ownership=no   Water_source=protected   Exclusive_breastfeeding=no   Cooking_fuel=biomass   Deworming=no   Toilet_access=yes   Pollution_birth=moderate   Preterm_birth=no   Sex=male   
   (   0.881   0.119))   % Food_diversity=sufficient   Animal_ownership=no   Water_source=protected   Exclusive_breastfeeding=no   Cooking_fuel=biomass   Deworming=no   Toilet_access=yes   Pollution_birth=moderate   Preterm_birth=no   Sex=male   
   ((   0.802   0.198)   % Food_diversity=insufficient   Animal_ownership=yes   Water_source=protected   Exclusive_breastfeeding=no   Cooking_fuel=biomass   Deworming=no   Toilet_access=yes   Pollution_birth=moderate   Preterm_birth=no   Sex=male   
   (   0.819   0.181)))   % Food_diversity=sufficient   Animal_ownership=yes   Water_source=protected   Exclusive_breastfeeding=no   Cooking_fuel=biomass   Deworming=no   Toilet_access=yes   Pollution_birth=moderate   Preterm_birth=no   Sex=male   
   (((   0.77   0.23)   % Food_diversity=insufficient   Animal_ownership=no   Water_source=unprotected   Exclusive_breastfeeding=no   Cooking_fuel=biomass   Deworming=no   Toilet_access=yes   Pollution_birth=moderate   Preterm_birth=no   Sex=male   
   (   0.789   0.211))   % Food_diversity=sufficient   Animal_ownership=no   Water_source=unprotected   Exclusive_breastfeeding=no   Cooking_fuel=biomass   Deworming=no   Toilet_access=yes   Pollution_birth=moderate   Preterm_birth=no   Sex=male   
   ((   0.673   0.327)   % Food_diversity=insufficient   Animal_ownership=yes   Water_source=unprotected   Exclusive_breastfeeding=no   Cooking_fuel=biomass   Deworming=no   Toilet_access=yes   Pollution_birth=moderate   Preterm_birth=no   Sex=male   
   (   0.697   0.303)))   % Food_diversity=sufficient   Animal_ownership=yes   Water_source=unprotected   Exclusive_breastfeeding=no   Cooking_fuel=biomass   Deworming=no   Toilet_access=yes   Pollution_birth=moderate   Preterm_birth=no   Sex=male   
   (((   0.805   0.195)   % Food_diversity=insufficient   Animal_ownership=no   Water_source=other   Exclusive_breastfeeding=no   Cooking_fuel=biomass   Deworming=no   Toilet_access=yes   Pollution_birth=moderate   Preterm_birth=no   Sex=male   
   (   0.821   0.179))   % Food_diversity=sufficient   Animal_ownership=no   Water_source=other   Exclusive_breastfeeding=no   Cooking_fuel=biomass   Deworming=no   Toilet_access=yes   Pollution_birth=moderate   Preterm_birth=no   Sex=male   
   ((   0.722   0.278)   % Food_diversity=insufficient   Animal_ownership=yes   Water_source=other   Exclusive_breastfeeding=no   Cooking_fuel=biomass   Deworming=no   Toilet_access=yes   Pollution_birth=moderate   Preterm_birth=no   Sex=male   
   (   0.743   0.257))))   % Food_diversity=sufficient   Animal_ownership=yes   Water_source=other   Exclusive_breastfeeding=no   Cooking_fuel=biomass   Deworming=no   Toilet_access=yes   Pollution_birth=moderate   Preterm_birth=no   Sex=male   
   ((((   0.716549   0.283451)   % Food_diversity=insufficient   Animal_ownership=no   Water_source=protected   Exclusive_breastfeeding=yes   Cooking_fuel=biomass   Deworming=no   Toilet_access=yes   Pollution_birth=moderate   Preterm_birth=no   Sex=male   
   (   0.991607   0.00839334))   % Food_diversity=sufficient   Animal_ownership=no   Water_source=protected   Exclusive_breastfeeding=yes   Cooking_fuel=biomass   Deworming=no   Toilet_access=yes   Pollution_birth=moderate   Preterm_birth=no   Sex=male   
   ((   0.917886   0.0821143)   % Food_diversity=insufficient   Animal_ownership=yes   Water_source=protected   Exclusive_breastfeeding=yes   Cooking_fuel=biomass   Deworming=no   Toilet_access=yes   Pollution_birth=moderate   Preterm_birth=no   Sex=male   
   (   0.915379   0.0846206)))   % Food_diversity=sufficient   Animal_ownership=yes   Water_source=protected   Exclusive_breastfeeding=yes   Cooking_fuel=biomass   Deworming=no   Toilet_access=yes   Pollution_birth=moderate   Preterm_birth=no   Sex=male   
   (((   0.956929   0.0430713)   % Food_diversity=insufficient   Animal_ownership=no   Water_source=unprotected   Exclusive_breastfeeding=yes   Cooking_fuel=biomass   Deworming=no   Toilet_access=yes   Pollution_birth=moderate   Preterm_birth=no   Sex=male   
   (   0.864   0.136))   % Food_diversity=sufficient   Animal_ownership=no   Water_source=unprotected   Exclusive_breastfeeding=yes   Cooking_fuel=biomass   Deworming=no   Toilet_access=yes   Pollution_birth=moderate   Preterm_birth=no   Sex=male   
   ((   0.848976   0.151024)   % Food_diversity=insufficient   Animal_ownership=yes   Water_source=unprotected   Exclusive_breastfeeding=yes   Cooking_fuel=biomass   Deworming=no   Toilet_access=yes   Pollution_birth=moderate   Preterm_birth=no   Sex=male   
   (   0.925328   0.0746722)))   % Food_diversity=sufficient   Animal_ownership=yes   Water_source=unprotected   Exclusive_breastfeeding=yes   Cooking_fuel=biomass   Deworming=no   Toilet_access=yes   Pollution_birth=moderate   Preterm_birth=no   Sex=male   
   (((   0.873   0.127)   % Food_diversity=insufficient   Animal_ownership=no   Water_source=other   Exclusive_breastfeeding=yes   Cooking_fuel=biomass   Deworming=no   Toilet_access=yes   Pollution_birth=moderate   Preterm_birth=no   Sex=male   
   (   0.884   0.116))   % Food_diversity=sufficient   Animal_ownership=no   Water_source=other   Exclusive_breastfeeding=yes   Cooking_fuel=biomass   Deworming=no   Toilet_access=yes   Pollution_birth=moderate   Preterm_birth=no   Sex=male   
   ((   0.81   0.19)   % Food_diversity=insufficient   Animal_ownership=yes   Water_source=other   Exclusive_breastfeeding=yes   Cooking_fuel=biomass   Deworming=no   Toilet_access=yes   Pollution_birth=moderate   Preterm_birth=no   Sex=male   
   (   0.826   0.174))))))   % Food_diversity=sufficient   Animal_ownership=yes   Water_source=other   Exclusive_breastfeeding=yes   Cooking_fuel=biomass   Deworming=no   Toilet_access=yes   Pollution_birth=moderate   Preterm_birth=no   Sex=male   
   ((((((   0.794   0.206)   % Food_diversity=insufficient   Animal_ownership=no   Water_source=protected   Exclusive_breastfeeding=no   Cooking_fuel=other   Deworming=yes   Toilet_access=yes   Pollution_birth=moderate   Preterm_birth=no   Sex=male   
   (   0.812   0.188))   % Food_diversity=sufficient   Animal_ownership=no   Water_source=protected   Exclusive_breastfeeding=no   Cooking_fuel=other   Deworming=yes   Toilet_access=yes   Pollution_birth=moderate   Preterm_birth=no   Sex=male   
   ((   0.704   0.296)   % Food_diversity=insufficient   Animal_ownership=yes   Water_source=protected   Exclusive_breastfeeding=no   Cooking_fuel=other   Deworming=yes   Toilet_access=yes   Pollution_birth=moderate   Preterm_birth=no   Sex=male   
   (   0.727   0.273)))   % Food_diversity=sufficient   Animal_ownership=yes   Water_source=protected   Exclusive_breastfeeding=no   Cooking_fuel=other   Deworming=yes   Toilet_access=yes   Pollution_birth=moderate   Preterm_birth=no   Sex=male   
   (((   0.977525   0.0224754)   % Food_diversity=insufficient   Animal_ownership=no   Water_source=unprotected   Exclusive_breastfeeding=no   Cooking_fuel=other   Deworming=yes   Toilet_access=yes   Pollution_birth=moderate   Preterm_birth=no   Sex=male   
   (   0.99549   0.00450953))   % Food_diversity=sufficient   Animal_ownership=no   Water_source=unprotected   Exclusive_breastfeeding=no   Cooking_fuel=other   Deworming=yes   Toilet_access=yes   Pollution_birth=moderate   Preterm_birth=no   Sex=male   
   ((   0.547984   0.452016)   % Food_diversity=insufficient   Animal_ownership=yes   Water_source=unprotected   Exclusive_breastfeeding=no   Cooking_fuel=other   Deworming=yes   Toilet_access=yes   Pollution_birth=moderate   Preterm_birth=no   Sex=male   
   (   0.576   0.424)))   % Food_diversity=sufficient   Animal_ownership=yes   Water_source=unprotected   Exclusive_breastfeeding=no   Cooking_fuel=other   Deworming=yes   Toilet_access=yes   Pollution_birth=moderate   Preterm_birth=no   Sex=male   
   (((   0.714   0.286)   % Food_diversity=insufficient   Animal_ownership=no   Water_source=other   Exclusive_breastfeeding=no   Cooking_fuel=other   Deworming=yes   Toilet_access=yes   Pollution_birth=moderate   Preterm_birth=no   Sex=male   
   (   0.735   0.265))   % Food_diversity=sufficient   Animal_ownership=no   Water_source=other   Exclusive_breastfeeding=no   Cooking_fuel=other   Deworming=yes   Toilet_access=yes   Pollution_birth=moderate   Preterm_birth=no   Sex=male   
   ((   0.613   0.387)   % Food_diversity=insufficient   Animal_ownership=yes   Water_source=other   Exclusive_breastfeeding=no   Cooking_fuel=other   Deworming=yes   Toilet_access=yes   Pollution_birth=moderate   Preterm_birth=no   Sex=male   
   (   0.638   0.362))))   % Food_diversity=sufficient   Animal_ownership=yes   Water_source=other   Exclusive_breastfeeding=no   Cooking_fuel=other   Deworming=yes   Toilet_access=yes   Pollution_birth=moderate   Preterm_birth=no   Sex=male   
   ((((   0.862227   0.137773)   % Food_diversity=insufficient   Animal_ownership=no   Water_source=protected   Exclusive_breastfeeding=yes   Cooking_fuel=other   Deworming=yes   Toilet_access=yes   Pollution_birth=moderate   Preterm_birth=no   Sex=male   
   (   0.81438   0.18562))   % Food_diversity=sufficient   Animal_ownership=no   Water_source=protected   Exclusive_breastfeeding=yes   Cooking_fuel=other   Deworming=yes   Toilet_access=yes   Pollution_birth=moderate   Preterm_birth=no   Sex=male   
   ((   0.709823   0.290177)   % Food_diversity=insufficient   Animal_ownership=yes   Water_source=protected   Exclusive_breastfeeding=yes   Cooking_fuel=other   Deworming=yes   Toilet_access=yes   Pollution_birth=moderate   Preterm_birth=no   Sex=male   
   (   0.827365   0.172635)))   % Food_diversity=sufficient   Animal_ownership=yes   Water_source=protected   Exclusive_breastfeeding=yes   Cooking_fuel=other   Deworming=yes   Toilet_access=yes   Pollution_birth=moderate   Preterm_birth=no   Sex=male   
   (((   0.871156   0.128844)   % Food_diversity=insufficient   Animal_ownership=no   Water_source=unprotected   Exclusive_breastfeeding=yes   Cooking_fuel=other   Deworming=yes   Toilet_access=yes   Pollution_birth=moderate   Preterm_birth=no   Sex=male   
   (   0.235193   0.764807))   % Food_diversity=sufficient   Animal_ownership=no   Water_source=unprotected   Exclusive_breastfeeding=yes   Cooking_fuel=other   Deworming=yes   Toilet_access=yes   Pollution_birth=moderate   Preterm_birth=no   Sex=male   
   ((   0.735139   0.264861)   % Food_diversity=insufficient   Animal_ownership=yes   Water_source=unprotected   Exclusive_breastfeeding=yes   Cooking_fuel=other   Deworming=yes   Toilet_access=yes   Pollution_birth=moderate   Preterm_birth=no   Sex=male   
   (   0.69655   0.30345)))   % Food_diversity=sufficient   Animal_ownership=yes   Water_source=unprotected   Exclusive_breastfeeding=yes   Cooking_fuel=other   Deworming=yes   Toilet_access=yes   Pollution_birth=moderate   Preterm_birth=no   Sex=male   
   (((   0.803   0.197)   % Food_diversity=insufficient   Animal_ownership=no   Water_source=other   Exclusive_breastfeeding=yes   Cooking_fuel=other   Deworming=yes   Toilet_access=yes   Pollution_birth=moderate   Preterm_birth=no   Sex=male   
   (   0.82   0.18))   % Food_diversity=sufficient   Animal_ownership=no   Water_source=other   Exclusive_breastfeeding=yes   Cooking_fuel=other   Deworming=yes   Toilet_access=yes   Pollution_birth=moderate   Preterm_birth=no   Sex=male   
   ((   0.72   0.28)   % Food_diversity=insufficient   Animal_ownership=yes   Water_source=other   Exclusive_breastfeeding=yes   Cooking_fuel=other   Deworming=yes   Toilet_access=yes   Pollution_birth=moderate   Preterm_birth=no   Sex=male   
   (   0.741   0.259)))))   % Food_diversity=sufficient   Animal_ownership=yes   Water_source=other   Exclusive_breastfeeding=yes   Cooking_fuel=other   Deworming=yes   Toilet_access=yes   Pollution_birth=moderate   Preterm_birth=no   Sex=male   
   (((((   0.851   0.149)   % Food_diversity=insufficient   Animal_ownership=no   Water_source=protected   Exclusive_breastfeeding=no   Cooking_fuel=biomass   Deworming=yes   Toilet_access=yes   Pollution_birth=moderate   Preterm_birth=no   Sex=male   
   (   0.865   0.135))   % Food_diversity=sufficient   Animal_ownership=no   Water_source=protected   Exclusive_breastfeeding=no   Cooking_fuel=biomass   Deworming=yes   Toilet_access=yes   Pollution_birth=moderate   Preterm_birth=no   Sex=male   
   ((   0.778   0.222)   % Food_diversity=insufficient   Animal_ownership=yes   Water_source=protected   Exclusive_breastfeeding=no   Cooking_fuel=biomass   Deworming=yes   Toilet_access=yes   Pollution_birth=moderate   Preterm_birth=no   Sex=male   
   (   0.797   0.203)))   % Food_diversity=sufficient   Animal_ownership=yes   Water_source=protected   Exclusive_breastfeeding=no   Cooking_fuel=biomass   Deworming=yes   Toilet_access=yes   Pollution_birth=moderate   Preterm_birth=no   Sex=male   
   (((   0.744   0.256)   % Food_diversity=insufficient   Animal_ownership=no   Water_source=unprotected   Exclusive_breastfeeding=no   Cooking_fuel=biomass   Deworming=yes   Toilet_access=yes   Pollution_birth=moderate   Preterm_birth=no   Sex=male   
   (   0.765   0.235))   % Food_diversity=sufficient   Animal_ownership=no   Water_source=unprotected   Exclusive_breastfeeding=no   Cooking_fuel=biomass   Deworming=yes   Toilet_access=yes   Pollution_birth=moderate   Preterm_birth=no   Sex=male   
   ((   0.981833   0.0181667)   % Food_diversity=insufficient   Animal_ownership=yes   Water_source=unprotected   Exclusive_breastfeeding=no   Cooking_fuel=biomass   Deworming=yes   Toilet_access=yes   Pollution_birth=moderate   Preterm_birth=no   Sex=male   
   (   0.975208   0.024792)))   % Food_diversity=sufficient   Animal_ownership=yes   Water_source=unprotected   Exclusive_breastfeeding=no   Cooking_fuel=biomass   Deworming=yes   Toilet_access=yes   Pollution_birth=moderate   Preterm_birth=no   Sex=male   
   (((   0.783   0.217)   % Food_diversity=insufficient   Animal_ownership=no   Water_source=other   Exclusive_breastfeeding=no   Cooking_fuel=biomass   Deworming=yes   Toilet_access=yes   Pollution_birth=moderate   Preterm_birth=no   Sex=male   
   (   0.801   0.199))   % Food_diversity=sufficient   Animal_ownership=no   Water_source=other   Exclusive_breastfeeding=no   Cooking_fuel=biomass   Deworming=yes   Toilet_access=yes   Pollution_birth=moderate   Preterm_birth=no   Sex=male   
